<?xml version="1.0"?>
<opencv_storage>
<opencv_ml_svm>
  <format>3</format>
  <svmType>C_SVC</svmType>
  <kernel>
    <type>LINEAR</type></kernel>
  <C>1.</C>
  <term_criteria><iterations>1000</iterations></term_criteria>
  <var_count>684</var_count>
  <class_count>6</class_count>
  <class_labels type_id="opencv-matrix">
    <rows>6</rows>
    <cols>1</cols>
    <dt>i</dt>
    <data>
      0 1 2 3 4 5</data></class_labels>
  <sv_total>15</sv_total>
  <support_vectors>
    <_>
      -7.22275508e-05 -4.16992989e-04 7.02924226e-05 1.41686487e-05
      -1.54277750e-05 -6.97323703e-05 -4.03025915e-04 7.04836973e-04
      2.38000081e-04 6.47407083e-04 7.00005621e-04 7.15142174e-04
      7.30958476e-04 7.47731945e-04 1.17082142e-04 5.23694362e-05
      -1.26911164e-03 -1.56060525e-03 1.18710438e-03 2.39233013e-05
      -2.62836984e-04 -2.81637243e-04 1.42990582e-04 -2.85906892e-04
      -3.91942944e-04 -4.44867997e-04 -9.67070810e-04 1.16888677e-05
      -2.04650292e-04 -3.25401168e-04 -6.97837095e-04 -1.71786494e-04
      -1.16734300e-04 2.25228505e-04 3.41741543e-05 -1.74727815e-04
      7.74723128e-04 -1.99018192e-04 -5.73267869e-04 -6.50344708e-04
      -1.02055923e-03 -1.40479382e-03 -8.94463097e-04 -1.11252081e-03
      -9.83684906e-04 -1.49084328e-04 -4.25258913e-04 1.86898214e-05
      -4.31333785e-04 1.95140659e-04 -4.33502370e-04 -8.74517500e-05
      -2.10085549e-04 2.56926956e-04 1.20995753e-03 5.32790073e-05
      -1.00963800e-04 -3.02663160e-04 -5.54322032e-04 -5.90097916e-04
      -8.19704786e-04 -8.22699047e-04 -4.91608982e-04 4.91481274e-04
      5.45040311e-05 6.91005436e-04 4.98552923e-04 6.29565271e-04
      2.41928588e-04 7.90467835e-04 2.99845968e-04 5.71576296e-04
      7.97776447e-04 -1.00472032e-04 5.17956796e-04 1.80842108e-04
      -5.65800583e-05 -1.59945033e-04 -5.21632937e-05 -1.88034737e-05
      7.83265787e-05 -6.29144779e-05 -5.13698673e-04 4.14992712e-04
      6.18103833e-04 1.57335890e-04 -3.02828150e-04 4.36161645e-04
      -2.28507561e-04 1.20583691e-05 7.02347897e-04 -3.79832403e-04
      -3.97449548e-05 -5.90990006e-04 -2.28248289e-04 -4.31616820e-04
      -3.71506758e-04 -3.36588186e-04 -5.24320349e-04 -1.72975837e-04
      1.06946864e-04 1.68011931e-04 -1.64404031e-04 3.74272960e-04
      -2.83895410e-04 5.96919330e-04 -2.00159469e-04 4.40961914e-04
      8.94778896e-06 -6.45772670e-04 -9.02325672e-04 -8.80522013e-04
      -7.41936674e-04 -5.10838523e-04 -3.64276668e-04 -2.27509649e-04
      7.97157845e-05 -2.08360798e-04 -1.17992793e-04 -7.35174908e-05
      3.24984168e-04 1.66662168e-04 -2.67421332e-04 1.19404285e-04
      -2.12931318e-05 8.47738062e-04 2.10659069e-04 -7.46417527e-06
      -3.26113717e-04 -1.50900320e-04 -1.68068582e-04 -3.02580593e-04
      -3.55186290e-04 -4.36208211e-04 -3.00385465e-04 -3.47587978e-04
      -3.86428233e-04 -3.24336084e-04 -3.06590402e-04 2.02435433e-04
      1.15718452e-04 5.06919459e-04 3.82991100e-04 1.60760101e-04
      4.87283716e-04 -3.70024645e-04 1.29600230e-04 -8.22388974e-05
      2.96428887e-04 -1.03762606e-04 -2.52850034e-04 -7.21442280e-04
      -3.15550365e-04 -3.21395113e-04 -8.71813158e-04 -3.65635991e-04
      -3.00212385e-04 -5.06982557e-04 -3.13235796e-04 -1.17655145e-04
      6.74453157e-04 5.18404646e-04 3.46938439e-04 -2.10363316e-04
      -3.40087368e-04 2.76377486e-05 9.03865497e-04 1.85321667e-04
      2.54833023e-04 -4.75716050e-04 -4.87304642e-04 -4.99289541e-04
      -6.66086504e-04 -1.71336273e-04 -6.19003084e-04 -1.08515123e-04
      4.02016856e-04 5.85762027e-04 -3.54164717e-04 1.04967054e-04
      4.68427635e-04 4.08091088e-04 -1.08743043e-04 -8.25708557e-05
      3.23572167e-04 -2.50729427e-05 -1.80746967e-04 -3.61127131e-05
      -2.15054853e-04 -9.22959298e-05 -1.32612913e-05 8.11700374e-06
      -2.92153447e-04 3.10707287e-06 -1.11476984e-04 2.09758568e-04
      -8.00700072e-05 1.27536117e-03 -2.13532607e-04 -6.79982113e-05
      -5.87123541e-05 3.69173722e-05 5.38471795e-05 -1.43894111e-04
      4.00219615e-05 -2.59044202e-04 -4.09296365e-04 -3.65136017e-04
      -3.44491214e-04 -7.28062296e-05 -5.47508535e-04 -3.98104748e-04
      3.76461336e-04 4.42672062e-05 -2.62622896e-04 5.65615308e-04
      -5.70666627e-04 -1.07597676e-04 -4.14940645e-04 -3.84535408e-04
      1.47515908e-04 2.21376366e-04 -3.28717375e-04 -2.16535118e-04
      3.46395071e-04 3.88647837e-04 3.42995045e-04 8.76024715e-04
      -2.15460226e-04 1.63537756e-04 3.18759761e-04 3.39631770e-05
      -4.22769575e-04 1.08619349e-03 -1.14967767e-03 -1.22384343e-03
      -4.56847280e-04 -2.89087591e-04 -3.18128223e-05 -1.33695881e-04
      -8.83810571e-05 -1.26216019e-05 1.70016719e-05 -4.09651024e-04
      9.67047454e-05 1.37695417e-04 -1.69712453e-04 -5.03869851e-05
      3.31015442e-04 1.31455468e-04 -7.49394996e-04 -3.78435034e-05
      -8.61964829e-04 -4.65719204e-04 3.48933759e-06 -2.10414975e-04
      -4.05977946e-04 -3.24914930e-04 -1.57840241e-05 -5.92194410e-05
      9.38489611e-05 4.26256040e-04 1.89442828e-04 3.00466578e-04
      -3.73075774e-04 -8.57511943e-04 -5.74981852e-04 -4.65718244e-04
      -8.20503803e-04 -2.43150629e-04 -5.02706564e-04 -4.65328805e-04
      4.67964186e-04 2.46350362e-04 4.93930362e-04 5.97229111e-04
      4.97784466e-04 2.14790809e-04 1.22004328e-03 6.22545835e-04
      4.72426909e-04 8.65590351e-04 7.59629329e-05 -1.64250582e-06
      2.72029312e-04 1.58750947e-04 -5.96314494e-04 2.49429926e-04
      1.88771766e-04 1.53547851e-04 2.13166772e-04 4.33731202e-06
      7.56239024e-05 8.03785340e-04 6.04394416e-04 -3.42712068e-04
      -3.44878819e-04 3.22386040e-04 2.79103988e-04 6.35629345e-04
      -6.53063325e-05 3.01039079e-04 3.78229452e-04 2.30749181e-04
      -6.27011701e-04 2.54672836e-04 -9.71005211e-05 -4.22766316e-04
      -7.37371956e-05 8.84277833e-05 2.34675113e-04 2.02901589e-04
      4.30995075e-04 4.85996687e-04 4.01105994e-04 3.66957189e-04
      2.70641147e-04 7.00077217e-04 4.59968665e-04 2.91416858e-04
      3.26561218e-04 4.59753093e-04 -4.30771004e-04 -1.19476863e-04
      -3.97921285e-05 -5.79414831e-04 -3.56028962e-04 -2.45480536e-04
      -1.70529893e-04 -3.15531652e-05 3.39196471e-04 4.12557274e-04
      6.72338705e-04 2.95806880e-04 -2.72300676e-04 2.60427565e-04
      1.52945315e-04 2.35506785e-04 -1.72475935e-04 -6.00231637e-04
      -7.53399276e-04 1.08383021e-04 -6.98329299e-04 -4.89881961e-04
      -6.55058539e-04 -2.12828803e-04 -2.64495320e-04 7.39483803e-04
      2.46478245e-04 1.06553358e-04 -4.07184911e-04 -1.04340143e-03
      -1.04680541e-03 -3.46176268e-04 -8.01595626e-04 -6.76909636e-04
      -5.28194243e-04 3.81153310e-04 -2.04063574e-04 5.34953375e-04
      -4.25864011e-04 1.78101018e-05 -5.56427294e-05 -1.45158177e-04
      3.90973582e-04 5.84731170e-04 9.96857067e-04 5.69074589e-04
      2.06407829e-04 -5.84036869e-04 -4.51970613e-04 -1.85412046e-05
      -1.81766198e-04 2.37315864e-04 4.77423979e-04 2.30309757e-04
      -4.31664201e-04 4.92927211e-04 2.77001003e-04 6.02513494e-04
      2.56707659e-04 -6.27875852e-04 3.09673051e-05 3.43858293e-04
      -4.97406327e-05 5.40229725e-04 2.32827442e-04 1.82612654e-04
      2.41038768e-04 4.52787732e-04 5.74633072e-04 9.79246339e-04
      6.51647919e-04 4.18518321e-04 -3.67292851e-05 1.48941157e-03
      1.55288901e-04 7.35900248e-04 9.61399695e-04 1.59892850e-04
      7.69520047e-05 -3.28969909e-05 4.70809144e-04 6.99796656e-05
      -1.01811696e-04 -3.02866887e-04 -4.83126816e-04 -2.69829819e-04
      1.62906639e-04 -1.93232394e-04 -1.36422779e-04 5.76655748e-06
      8.32100166e-04 1.73454254e-03 6.90018351e-04 2.33625426e-04
      3.86460015e-04 -3.20680207e-04 3.97165888e-04 5.42190333e-04
      5.83965157e-04 3.12243705e-04 4.18666692e-04 4.65816520e-05
      -2.58222251e-04 -4.73931068e-05 1.58668248e-04 1.52814231e-04
      2.09207588e-04 5.85207948e-04 5.72752673e-04 7.01000215e-04
      7.51769054e-04 5.45215153e-04 3.76274111e-04 -9.64478095e-05
      6.58956647e-04 1.43806668e-04 -2.24061732e-04 -3.70131660e-04
      -6.25841421e-05 -3.82747588e-04 -2.41311151e-04 -3.76406009e-04
      -1.81772804e-04 -3.39467137e-04 -8.03593721e-04 -1.24412923e-04
      1.83999698e-04 1.28902146e-03 1.25167689e-05 4.41783268e-05
      -5.47948759e-04 -7.65873119e-04 -2.46801530e-04 1.47122002e-04
      1.76694695e-04 3.07083945e-04 2.15089211e-04 9.03386972e-05
      -3.50841117e-04 -4.53590997e-04 -3.77392018e-04 -1.06918823e-03
      -4.41846292e-04 -4.69914899e-04 -2.31394370e-04 5.89678355e-04
      -1.57160961e-04 1.82923337e-04 -8.08964309e-04 -9.69594403e-04
      2.95363454e-04 5.47188160e-04 2.72146135e-04 8.51491059e-04
      7.22942699e-04 8.20346526e-04 -1.07188556e-04 2.64260918e-04
      7.12328547e-05 -3.47412424e-04 -7.93643179e-04 1.86188554e-04
      3.81021906e-04 8.34646111e-04 1.34238217e-04 -2.80721259e-04
      -5.90048963e-04 -6.14515666e-05 9.49100417e-04 3.15630139e-04
      4.40878561e-04 7.11676374e-04 1.02553819e-03 1.82318047e-03
      9.41186736e-04 1.11068005e-03 6.32992887e-05 5.49835328e-04
      -6.66453416e-05 -5.02783631e-04 -3.65077489e-04 4.43425815e-04
      3.36846046e-04 -6.87135849e-04 -9.38126061e-04 -6.31964765e-04
      5.53181053e-06 9.59031604e-05 1.69929321e-04 7.10055640e-04
      5.85602065e-05 6.63206389e-04 5.40599285e-04 3.01069231e-04
      1.01764432e-04 2.70145742e-04 -9.88192856e-04 -5.11517923e-04
      -5.80693653e-04 8.08596960e-04 -3.20488529e-04 -7.76652945e-04
      2.29512734e-04 -3.82882526e-08 -1.45710117e-04 -6.26755005e-04
      2.79837786e-05 3.05643742e-04 -6.73414688e-05 -2.63178779e-04
      -5.24989504e-04 -3.34543787e-04 2.76101695e-04 -3.45055480e-04
      -1.26907238e-04 4.60117226e-05 -6.17640384e-04 1.11380599e-04
      8.85168411e-05 -3.55646480e-04 -5.83793444e-04 -9.58745135e-04
      -3.77368378e-05 4.10439563e-04 -1.25256483e-04 1.24459228e-04
      6.75720337e-04 6.07178663e-04 4.27746709e-04 8.27022770e-04
      1.08591164e-03 5.23867493e-04 -1.57285147e-04 -3.10224539e-04
      -4.68013546e-04 8.33541388e-04 4.66024467e-05 -1.22967525e-04
      -2.04861863e-04 3.15359903e-05 8.86819398e-05 -3.18824750e-04
      -2.47775955e-04 6.72709313e-04 4.72319603e-04 3.19166749e-04
      1.27001345e-04 5.10557904e-04 7.61854928e-04 2.07827426e-04
      -7.42899487e-04 -7.81381270e-04 -1.41446001e-03 7.61559795e-06
      -2.29767582e-04 -3.39119084e-04 -1.06255850e-03 -3.97974916e-04
      -1.35867973e-04 -6.23105079e-05 -2.48331635e-04 -4.61827221e-05
      6.05973219e-05 -2.71486264e-04 -6.30873779e-04 2.41910184e-05
      5.04591619e-04 2.45397707e-04 -2.46526994e-04 -3.63836560e-04
      -5.47575182e-04 1.88598904e-04 4.95246379e-04 -3.28773574e-04
      -1.35423979e-04 -5.49028045e-05 -6.95798808e-05 3.63354156e-05
      -5.48203534e-04 -7.81952695e-04 -2.54562445e-04 -4.74176253e-04
      -6.51969691e-04 -1.11479021e-04 4.46417456e-04 4.90350976e-05
      1.41205865e-05 4.38682298e-04 -6.73759438e-04 -6.72132956e-06
      1.89618091e-04 3.04829882e-04 -1.12447407e-04 -7.43633427e-05
      5.84592890e-05 -2.60466622e-04 1.19207449e-04 -3.19366693e-04
      -5.17356209e-04 -9.26246110e-04 -1.22851157e-03 -4.15430724e-04
      -5.87698814e-05 2.81245797e-04 5.05227072e-04 2.99548235e-04
      -6.67163695e-04 -3.00791609e-04 6.76637683e-06 -2.12793180e-04
      -2.85315939e-04 -2.21886639e-05 -1.59069808e-04 -2.65473529e-04
      -6.42448431e-04 -9.21456027e-04 -1.21116042e-04 -6.96291856e-04
      -5.74752223e-04 -2.61035457e-04 3.47468376e-05 -8.47370466e-05
      2.88706186e-04 1.73424152e-04 -7.01016397e-04 -7.97359215e-04
      2.22996940e-04 -6.05533598e-04 -5.08376048e-04 -4.23185527e-04
      -3.28547394e-05 4.67006350e-04 -6.38437923e-05 -6.44935470e-04
      -2.74471036e-04 -4.55930771e-04 -4.94408421e-04 -6.59427897e-04
      -4.94629086e-04 -9.24473745e-04 6.49015055e-05 3.11745738e-04
      -3.97992058e-04 -5.89966308e-04 -6.50657050e-04 -4.49228944e-04
      4.80280578e-04 8.97514459e-04 2.46881362e-04 9.01505526e-04
      8.77620652e-04 4.45649021e-05 6.44445245e-04 7.19825621e-05
      1.80563438e-05 -4.27207357e-04 -2.62540154e-04 -1.63358109e-05
      1.29832374e-03 1.08619721e-03 -5.91444084e-04 6.26390392e-05</_>
    <_>
      2.59487802e-04 5.13327177e-05 -1.64602752e-04 -1.51849832e-04
      -5.19809197e-04 -2.11419305e-04 -3.18097242e-04 -3.34390526e-04
      1.81005991e-04 2.36024032e-04 1.19802903e-03 7.76275352e-04
      6.22061023e-04 3.33052012e-04 -4.48204228e-04 -1.77491514e-04
      -1.76527406e-04 -5.89391508e-04 1.06998603e-03 2.54418264e-04
      4.28909443e-05 -3.58019286e-04 -3.10686912e-04 3.08610121e-04
      -2.02159601e-04 -1.32583067e-04 -2.69523618e-04 9.67452652e-05
      4.83388314e-04 3.93952068e-04 -6.89922890e-05 6.26968860e-04
      3.55771568e-04 2.73033773e-04 -1.09796696e-04 -1.54625704e-05
      5.38834545e-04 2.55715859e-05 -4.87109064e-04 -4.24783444e-04
      -2.73245387e-04 -9.75437171e-04 -8.88239942e-04 -8.88082373e-04
      -8.80979351e-04 -5.09566627e-04 5.06034339e-05 -3.93753755e-04
      -6.53476338e-04 -5.54922561e-04 -3.23613873e-04 -3.79712204e-04
      -3.25548026e-04 -7.92876817e-05 4.71013656e-04 5.67829644e-04
      3.03592707e-04 -5.51463527e-05 -9.40152458e-05 -2.27024575e-04
      -5.48109529e-04 -1.05240720e-03 -6.85393054e-04 -8.21501526e-05
      7.71853520e-05 4.47729981e-04 4.10803768e-04 4.44273115e-04
      3.91974434e-04 3.00156331e-04 1.59428368e-04 4.89638071e-04
      7.74004846e-04 4.65264049e-04 3.81863880e-04 2.37850749e-04
      -1.78390066e-04 -1.16235940e-04 -8.82287059e-05 -8.75528131e-05
      5.36286789e-05 -1.13891747e-05 -1.28682796e-05 4.21674107e-04
      2.51417601e-04 -1.81767289e-04 1.70400628e-04 1.73469714e-04
      -9.00452869e-05 1.37515191e-04 2.38350374e-04 4.35381604e-04
      3.13364493e-04 -1.03804750e-05 -2.83048837e-04 2.92891578e-04
      -1.65512873e-04 -3.88435525e-04 -7.23956909e-04 -3.20709689e-04
      3.67373032e-05 1.28921878e-04 -3.77343415e-04 2.95407866e-04
      1.01018020e-04 1.02862228e-04 -1.01557918e-04 1.32877190e-04
      -2.07108591e-04 -2.35114312e-05 -4.10192035e-04 -2.24446921e-04
      -6.29484712e-04 -3.97294061e-04 -4.45597485e-04 -6.92271045e-04
      -7.93388230e-04 -5.99420418e-05 -7.95497253e-05 -1.78072951e-04
      6.78186654e-04 6.65636733e-04 4.60555573e-04 -8.99409060e-05
      1.51511020e-04 6.25580898e-04 -4.60025854e-04 9.97629322e-05
      1.58735245e-04 -1.56778900e-04 -4.44559235e-04 -2.43912466e-04
      -5.38214692e-04 -5.43369737e-04 -4.82681702e-04 -1.86498131e-04
      6.20484207e-05 1.88367674e-04 8.54244456e-04 9.48026718e-04
      3.04349087e-04 8.75380792e-05 -1.00294315e-07 2.19755224e-04
      -2.16208398e-04 -1.08829052e-04 -8.96716811e-05 -4.20763943e-04
      -2.74957798e-04 -3.22124572e-04 -7.11609609e-04 -2.75550643e-04
      -3.11347860e-04 5.21201000e-05 3.70406953e-04 1.00109872e-04
      6.20701467e-04 4.54603141e-04 -2.06293334e-05 -1.05015679e-04
      -2.16671164e-04 -1.51467597e-04 4.22450423e-04 3.47893772e-04
      2.29546175e-04 4.60800366e-04 5.49326476e-04 2.52646103e-04
      4.14146598e-05 7.76496017e-05 5.00636161e-05 6.53001262e-05
      4.81558382e-04 5.74768274e-05 3.69404042e-05 -5.15992251e-05
      -1.12179237e-04 -2.89007468e-04 8.88687428e-05 3.00554151e-04
      1.18218188e-04 -1.30110957e-05 -4.42972785e-04 -5.47791642e-05
      -3.70657421e-04 -3.34850920e-04 6.36056429e-05 1.54656853e-04
      -3.15180514e-04 -2.57139443e-04 2.66497809e-04 -3.57996236e-04
      2.29970625e-04 4.42769051e-05 -6.25319008e-05 -4.28543310e-04
      2.51020800e-04 4.90318751e-04 3.28557471e-05 2.52305734e-04
      -1.55841175e-04 -2.32123857e-04 -2.98903615e-04 1.69012565e-05
      5.15427455e-05 1.40303862e-04 -2.72253877e-04 -1.37274365e-05
      6.86654530e-04 6.79086297e-05 2.59650958e-04 -3.70679154e-05
      -2.11076927e-04 -4.32292436e-04 2.43947623e-04 2.96115613e-04
      -3.81083752e-04 -1.24398241e-04 -4.21325967e-04 -5.71402663e-04
      -2.36776017e-04 -2.15578184e-04 9.79478864e-05 2.36485896e-04
      2.70815162e-05 3.44437140e-04 6.51880400e-04 5.21890179e-04
      1.87314203e-04 -5.27663869e-05 -3.47219357e-05 -4.32434783e-04
      -9.52498012e-05 -1.54415757e-04 -1.95692497e-04 -4.84662778e-05
      -5.19593828e-04 -5.98984130e-04 -1.23629536e-04 -4.88111800e-05
      2.59210065e-04 5.12389932e-04 3.41470906e-04 3.67491739e-04
      7.70431303e-04 3.60886712e-04 9.12403266e-05 -1.83420983e-04
      -3.02923407e-04 -6.04143599e-04 -4.18557989e-04 6.84820843e-05
      -6.36651879e-04 -4.65191435e-04 -5.55764709e-04 -4.70999919e-04
      -3.78436263e-04 -3.00533720e-04 1.67177626e-04 2.76753417e-04
      5.15735301e-05 3.48974834e-04 5.39505971e-04 2.36967462e-04
      -1.29591972e-05 -2.95694015e-04 -2.47292919e-04 -4.53997112e-04
      -6.08926348e-04 1.07695276e-04 -6.29690621e-05 -1.44351779e-05
      -3.91849957e-04 -4.90258572e-05 1.19192700e-05 1.22078505e-04
      4.11405490e-04 4.05624742e-04 2.51221150e-04 7.09379325e-04
      8.00035428e-04 6.52763818e-04 2.47503194e-04 3.44750646e-04
      -2.35147294e-04 -7.75290478e-04 -5.48806507e-04 -1.48617255e-04
      5.63795678e-04 6.61386875e-04 -1.88980353e-04 2.75259372e-04
      3.31949472e-04 1.52662760e-04 3.48630914e-04 4.98381909e-04
      -1.32651665e-04 2.80272536e-04 8.66886228e-04 6.15955330e-04
      5.36041334e-04 9.62049642e-04 3.68628593e-04 -1.40066375e-04
      4.29540611e-04 3.91089037e-04 -4.84530915e-07 3.85393796e-04
      -4.38886142e-04 9.41290200e-05 -1.26851330e-04 -6.95188937e-05
      -1.00142519e-04 2.15461569e-05 -4.10362176e-04 1.07383872e-04
      4.70608502e-04 8.50298558e-04 8.60382803e-04 2.14127896e-04
      -1.76113303e-04 -3.97628173e-04 -4.93544576e-07 1.00324622e-04
      4.01114463e-04 3.96024814e-04 -3.89740977e-04 2.60610221e-04
      4.22134646e-04 2.54837437e-06 -1.02492222e-05 9.62525010e-05
      -4.57668008e-04 -2.06377765e-04 -1.30391272e-04 2.14742213e-05
      4.35138267e-04 -2.81334971e-04 -8.35383194e-04 -6.62777398e-04
      -1.70778250e-04 2.46730255e-04 1.33495108e-04 -1.08242595e-04
      -6.34474971e-04 -3.86113883e-04 2.21244627e-05 -2.87708710e-04
      -2.25779906e-04 -2.02349212e-04 -6.68976689e-04 -1.42786943e-04
      -9.72287380e-05 2.47791933e-04 2.31239203e-04 -9.33922493e-05
      -3.07029870e-04 2.23525232e-04 -1.91630650e-04 4.67927573e-04
      2.92780751e-04 2.97929015e-04 1.24582570e-04 3.82695900e-04
      3.18390812e-04 4.33483219e-04 6.15281693e-04 1.58697861e-04
      -1.16025134e-04 2.44280789e-04 1.92950203e-04 8.46222450e-04
      5.68189949e-04 6.22156731e-05 2.46053998e-04 2.14089305e-05
      -2.92571844e-04 1.96306006e-04 4.88687772e-04 6.95400173e-04
      3.86694097e-04 -3.60654871e-04 2.17605222e-04 -5.43547321e-06
      5.99590931e-05 3.51034716e-04 -9.49416790e-05 7.54949433e-05
      4.34965594e-04 1.03287876e-03 8.83285131e-04 8.18819564e-04
      6.62135833e-04 -1.35312846e-04 4.85060737e-05 7.71468098e-04
      -2.32589489e-04 3.77175515e-04 4.08942054e-04 1.11271052e-04
      5.06868004e-04 7.81537441e-04 4.76070389e-04 4.99618363e-05
      1.11706366e-04 9.21334777e-06 1.06045612e-04 5.39580011e-04
      5.03792777e-04 3.34040524e-04 2.58332293e-04 4.44269739e-04
      2.12219180e-04 3.77623714e-04 1.34408168e-04 2.91125820e-04
      2.13775238e-05 -6.77101780e-04 4.42580567e-05 6.43285050e-04
      7.55948597e-04 4.55360278e-04 4.00387245e-04 4.43178578e-04
      -4.30903528e-05 8.84150213e-04 7.45201542e-04 5.55082748e-04
      3.86243832e-04 6.04380213e-04 5.71250566e-05 3.76737822e-04
      2.05783042e-04 3.83602950e-04 -2.07706209e-04 1.94126711e-04
      -1.07207625e-05 1.30278277e-04 1.27174790e-04 9.44674830e-05
      -6.06794201e-05 2.38680164e-04 3.84777813e-04 4.80430841e-04
      5.36258973e-04 2.82947949e-05 2.92356890e-05 7.41034455e-04
      -2.52359634e-04 6.31186937e-04 3.16266902e-04 2.88433512e-04
      -8.29076103e-04 -4.16564813e-04 -4.57251066e-04 -2.05037315e-04
      4.48092360e-05 -2.29231828e-05 2.66058894e-04 5.51419798e-04
      1.32958652e-04 -2.99199910e-05 1.05782252e-04 1.36327071e-04
      -1.03550359e-04 -1.14151990e-04 -3.89551191e-04 1.80460353e-04
      3.92701768e-04 3.59151018e-04 -5.66594594e-04 -3.13234603e-04
      -4.45439800e-04 -8.22893999e-05 -2.30698395e-04 1.03312996e-04
      3.83069528e-05 2.94217843e-05 4.84563352e-05 -4.25386133e-05
      3.50754672e-05 -9.22201652e-05 -5.87701797e-04 -1.89038037e-05
      -3.80170415e-04 -2.10982238e-04 4.59123316e-04 1.27509164e-04
      -4.29616746e-04 6.98560150e-04 2.62608693e-04 1.11013571e-04
      6.49265421e-04 3.62313236e-04 5.10728220e-04 6.75496354e-04
      5.11062273e-04 6.61719649e-04 5.09214355e-04 4.96465422e-04
      2.03249059e-04 3.69632617e-04 4.63298420e-05 5.64983464e-04
      3.16679274e-04 -3.45982611e-04 -3.27058340e-04 1.64705343e-04
      -2.46682030e-04 -5.30297002e-05 -1.02104394e-04 2.28759563e-05
      -3.50686169e-05 2.83984758e-04 8.53955571e-04 1.75339257e-04
      3.01088265e-04 4.73683205e-04 -3.50861839e-04 -1.38907235e-05
      -5.85685077e-04 -4.63744145e-05 -2.17757173e-04 -5.39115863e-04
      -2.42069145e-04 -7.09887099e-05 -1.54847818e-04 -1.10343870e-04
      -4.25618637e-05 -8.21037247e-05 -3.75418487e-04 4.54179797e-04
      7.39662326e-04 1.50757216e-04 5.89170901e-04 3.08876370e-05
      -3.67843691e-04 -3.97449592e-04 -4.73923807e-04 5.81392342e-05
      5.25784562e-05 -3.40066530e-04 -4.82463656e-04 1.14376584e-04
      1.64120604e-04 4.95720014e-04 -2.80765234e-05 -1.09366549e-04
      -1.30921355e-04 3.20253865e-04 8.46618204e-04 2.85049347e-04
      5.72927587e-04 1.71966371e-04 -3.16172751e-04 -2.98028084e-04
      -5.11511054e-04 -8.23703449e-05 -5.74215301e-05 -7.65544362e-04
      -6.65124622e-04 4.57625583e-06 -2.11431456e-04 -2.31108221e-04
      -6.05936366e-05 -5.08188568e-05 5.85850794e-04 3.26090230e-04
      6.30673894e-04 3.01332591e-04 9.46844637e-04 1.66634782e-04
      -8.79177242e-05 -3.62335006e-04 -6.13785291e-04 -2.25750009e-05
      -5.45220450e-04 -3.83483042e-04 -9.93341928e-06 -8.58031199e-05
      -3.37488978e-04 -5.18511690e-04 -2.16206929e-04 -3.28717695e-04
      5.12340148e-06 -1.99253234e-04 2.81484885e-04 -3.12340882e-04
      4.02238540e-04 1.08124368e-04 -1.11731861e-04 2.03369375e-04
      -1.65605306e-04 5.52978599e-04 -4.80458366e-05 -1.24286831e-04
      -9.60860198e-05 -4.83004813e-04 -8.14860046e-04 -3.15571931e-04
      -8.21099209e-04 -5.48249460e-04 -5.49204415e-04 -3.22156382e-04
      -5.95490110e-06 -1.83399025e-04 5.83704910e-04 2.53030448e-04
      -2.18348010e-04 1.38850255e-05 -7.88246107e-04 6.40114653e-04
      -6.84336919e-05 4.09355882e-04 -6.96177958e-05 -2.93030578e-04
      -5.94505633e-04 -3.64970649e-04 -1.01160363e-03 -2.96088838e-04
      -6.19826955e-04 -5.71743818e-04 -2.61087902e-04 -5.42925787e-04
      3.18474660e-04 1.26368730e-04 2.76721170e-04 -1.28860356e-05
      -4.00348596e-04 6.81024219e-04 -3.00025422e-04 -2.25630400e-04
      -1.01256825e-04 -2.93016114e-04 -6.35745644e-04 -2.43609000e-04
      -8.32453661e-04 -5.02376643e-04 -6.66421896e-04 -6.78340904e-04
      -3.16362450e-04 -2.46585172e-04 4.67608857e-04 -2.78702919e-05
      -4.02497426e-05 -4.71717649e-05 -4.34555055e-04 -2.59130873e-04
      -1.40000426e-04 6.51275768e-05 9.19089725e-05 1.66135607e-07
      -9.54174247e-05 7.50062973e-05 -3.64616775e-04 -3.76541022e-04
      -4.65181511e-04 -1.96989364e-04 -5.01000031e-05 8.39288186e-05
      5.37510670e-04 -4.67884034e-04 1.17630334e-04 -4.13801863e-05
      -4.71015577e-04 -4.08090447e-04 4.23812744e-04 6.34154945e-04
      6.31955860e-04 8.09180550e-04 3.41890933e-04 2.76607461e-04
      1.10228808e-04 3.19455052e-04 3.80084297e-04 3.48877860e-04
      4.48567473e-04 7.54383509e-04 6.84638857e-04 1.54574140e-04
      7.43956422e-04 5.79646963e-04 4.80969211e-05 2.27082870e-04</_>
    <_>
      1.83446158e-04 -7.00528442e-04 -7.34081317e-04 -5.57533000e-04
      -1.83000680e-04 -6.23762549e-04 -2.94742262e-04 -4.51064174e-04
      -3.50340706e-04 3.15411075e-04 9.79448319e-04 7.11899716e-04
      3.78850149e-04 3.55614698e-04 -2.80656008e-04 -3.71478702e-04
      3.12074029e-04 -2.73867103e-04 9.35460906e-04 2.50122452e-04
      5.05423741e-05 1.15869334e-04 1.65481266e-04 7.40267133e-05
      -3.28999566e-04 -8.38590786e-05 -2.68973294e-04 4.35069320e-04
      3.56722478e-04 1.59120260e-04 -7.44304794e-04 8.11716236e-05
      -2.42230381e-04 6.70102236e-05 1.75095629e-05 1.98499372e-04
      1.92454143e-04 -3.16032063e-04 -6.21467014e-04 -5.12940809e-04
      -6.75718242e-04 -1.35537866e-03 -1.17605575e-03 -6.59323356e-04
      -1.22029183e-03 -6.26711990e-04 -6.40354527e-04 -5.56818442e-04
      -5.68549440e-04 -3.28306865e-04 -3.11557524e-04 -2.18904272e-04
      -6.33798936e-06 -3.24325898e-04 7.88450940e-04 1.81550582e-04
      -1.73385939e-04 4.96832618e-05 -3.34423763e-04 -2.40959489e-04
      1.37366465e-06 -4.74931236e-04 -1.06417720e-04 2.70267861e-04
      -1.33827689e-05 7.73147272e-04 8.07070290e-04 4.70498897e-04
      1.48839186e-04 -1.68056504e-04 8.84161709e-05 2.49109464e-04
      1.08329579e-03 3.21286585e-04 1.03753948e-04 -2.78694988e-05
      -4.30056476e-04 -4.15452785e-04 -4.32846980e-04 1.19269374e-04
      -1.39077994e-04 1.86604986e-04 -6.24319946e-04 9.45130378e-05
      8.12889411e-05 -9.83169739e-05 -6.99777564e-04 -3.41860170e-04
      4.62539028e-04 1.99877162e-04 1.07499666e-03 5.78761043e-04
      3.70572234e-04 2.04154003e-05 5.15467720e-04 6.59490994e-04
      -1.56887661e-04 -6.79164004e-05 -3.84085579e-04 5.21495713e-06
      1.84289049e-04 -1.01881327e-04 -5.00285125e-04 3.85841595e-05
      -1.13275099e-04 2.57335021e-04 2.97649909e-04 7.95824686e-04
      1.87957616e-04 -5.21563983e-04 -1.03960489e-03 -4.96742898e-04
      -5.55414474e-04 -1.68233761e-04 -2.06200566e-04 -5.66311181e-04
      -1.12558692e-03 -8.64678121e-04 -8.13280349e-04 -6.21941814e-04
      4.17494484e-05 6.89726448e-06 6.49249123e-05 -9.81921175e-07
      3.72772978e-04 8.75927974e-04 2.23758470e-04 -9.73865826e-05
      -4.23379795e-04 -1.32261091e-04 -5.62463130e-04 -2.05945078e-04
      1.81751857e-05 -3.94988368e-04 -3.71989474e-04 -3.67859029e-04
      -2.68083211e-04 -5.98121376e-04 -4.53919318e-04 -3.14762321e-04
      2.42658552e-05 -1.74392539e-04 2.16964065e-04 6.69677975e-04
      -2.80832348e-04 -4.17982752e-04 -2.74592021e-04 -2.78188294e-04
      4.74547938e-04 7.91806960e-05 2.06042416e-04 -1.79446986e-04
      9.07824433e-05 1.23153091e-04 -1.73654669e-04 1.11425754e-04
      -2.19435300e-04 -5.84935071e-04 -1.86528050e-05 -1.02793339e-04
      2.20057860e-04 5.09910984e-04 -4.12698399e-04 -6.59619516e-04
      -4.25793813e-04 2.66681920e-04 2.35360698e-04 -2.65270122e-04
      -6.00367144e-04 -1.15541299e-03 -2.74496764e-04 1.40073913e-04
      -5.64724731e-04 -4.12514404e-04 -2.38426728e-05 3.64861116e-05
      2.02434778e-04 4.32136731e-04 5.52331388e-04 7.50935404e-04
      -8.78197025e-04 -4.28774656e-04 -5.79423038e-04 5.78985142e-04
      -2.16012981e-04 -9.57720273e-04 -3.00572778e-04 -2.51681660e-04
      -5.20687754e-05 3.39189777e-04 -3.38424608e-04 -7.20395416e-04
      4.07191488e-04 -3.17963597e-04 -4.23445832e-04 -7.42609045e-05
      2.36482243e-04 9.62435734e-04 4.15401242e-04 2.10688406e-04
      -3.73076589e-04 4.62738826e-05 1.36524744e-04 -1.61403034e-06
      -1.72699423e-04 2.13520161e-05 1.13588234e-04 3.82356870e-04
      1.23590391e-04 2.65634590e-04 2.51285033e-04 -2.22825620e-04
      -2.23707917e-04 3.78371078e-05 4.41545533e-04 7.27393548e-04
      -3.14622215e-04 -1.95730478e-04 -5.14105777e-04 -4.53531859e-04
      7.40849719e-05 4.28276544e-04 -1.55522823e-04 3.57503814e-05
      -1.25183520e-04 2.25359356e-04 2.11544349e-04 9.55755822e-05
      -6.58952340e-05 4.20608761e-04 -5.33645158e-04 -3.10053409e-04
      2.68699398e-04 2.86559254e-04 9.45406355e-05 -1.30734799e-04
      -5.75774757e-04 -1.99146845e-04 6.21430401e-04 8.70795397e-04
      -7.37013543e-05 5.82506109e-05 2.58484593e-04 2.30114500e-04
      1.17763688e-04 5.27670854e-05 -1.25967217e-05 -3.04407004e-05
      -3.40956380e-04 -1.46257749e-04 2.67592568e-05 4.88516758e-04
      -8.05130094e-06 -1.52037828e-04 -2.66628660e-04 3.69518704e-04
      1.93401269e-04 1.06484309e-04 -5.23190305e-04 2.12485698e-04
      9.21086321e-05 3.56376084e-04 1.08754859e-04 5.55464903e-05
      -2.38059976e-04 -1.20475088e-04 -5.70917909e-04 -3.73765593e-04
      1.22055586e-04 6.12703559e-04 -1.69634397e-04 3.02217959e-04
      -2.55319683e-05 6.17307320e-04 -2.71210611e-05 2.88481009e-04
      -1.65431469e-04 9.89109976e-04 7.80150469e-04 9.55067982e-04
      5.58374391e-04 5.89832198e-04 -9.71620539e-05 9.26304983e-06
      -1.19081000e-04 -4.04064398e-04 3.92266084e-05 5.57272579e-04
      2.44228344e-04 7.32986780e-04 3.79585079e-04 2.25701689e-04
      2.75158818e-04 3.65168438e-04 -6.87357606e-05 5.37974818e-04
      1.20958830e-04 3.42713436e-04 2.94292695e-05 4.07592481e-04
      3.17377417e-04 6.60233374e-04 2.24256582e-04 -3.64602194e-04
      -3.29641334e-04 6.03740045e-04 4.26428567e-04 5.77469473e-04
      1.28869011e-04 2.55946390e-04 -1.09666316e-05 -1.15422459e-04
      -6.79608143e-04 9.25111890e-05 -8.89750227e-05 -4.00309864e-06
      -4.54730383e-04 1.20499477e-04 4.42818971e-04 5.36383013e-04
      2.69535143e-04 5.37271029e-04 8.08290148e-04 8.77277635e-04
      5.25176401e-05 -1.76429807e-04 1.61192584e-04 3.60970043e-05
      1.87300648e-05 -3.35138844e-04 -6.38288737e-04 2.08315949e-04
      2.91106320e-04 1.91183790e-04 -2.33416737e-04 7.10062450e-05
      5.70038028e-05 2.56355357e-04 -8.57536870e-05 -4.42895631e-04
      2.55332066e-04 8.54311453e-04 1.30039654e-04 -3.02237982e-04
      -3.00007930e-04 -1.33110283e-04 -5.55091363e-04 -3.44682776e-04
      -6.10970310e-04 -8.86460766e-05 -4.05760395e-04 -1.56689712e-04
      -2.04559459e-04 1.00558631e-04 2.20364396e-04 1.86212099e-04
      -1.56042384e-04 2.34537365e-04 -4.73308392e-05 9.43726976e-04
      2.37395609e-04 -8.30346617e-05 5.08293102e-04 7.59243383e-04
      3.86479078e-04 5.07862191e-04 5.37522486e-04 9.32968687e-04
      7.43419689e-04 6.78113545e-04 1.43212223e-04 4.10470209e-04
      -3.26058398e-05 -4.95129752e-05 3.26849666e-04 -7.47989761e-05
      -5.08103403e-04 5.62151195e-04 9.97372670e-04 1.04669482e-03
      1.14697043e-03 2.80619657e-04 -1.10238085e-04 -1.21898869e-04
      8.25534444e-05 7.04080099e-04 7.62857555e-04 6.68785768e-04
      6.53300143e-04 6.84323313e-04 1.20768312e-03 1.28965406e-03
      5.45943272e-04 -3.83866631e-04 -3.33491771e-04 5.09955280e-04
      -7.11481043e-05 5.72582707e-04 5.64271177e-04 3.90285510e-04
      3.89427354e-04 5.23056893e-04 6.22046529e-04 6.69517554e-04
      1.37297640e-04 1.83379670e-04 3.90108849e-04 4.10465618e-05
      8.85147194e-04 7.12472538e-04 3.15100624e-04 3.87486471e-05
      2.81809072e-04 5.10287762e-04 2.53705046e-04 -5.57937456e-05
      1.29705775e-04 4.81841678e-04 8.30024597e-04 6.09702955e-04
      8.95846053e-04 8.87227012e-04 3.09382711e-04 6.36204088e-04
      1.07952452e-04 4.96018038e-04 1.00650557e-03 1.02346705e-03
      7.01620243e-04 4.32776615e-05 -1.99684597e-04 6.27136906e-05
      3.85312189e-04 8.12041399e-05 2.35843516e-04 3.33854114e-04
      3.23204615e-04 3.33707198e-04 4.57695627e-04 3.09768686e-04
      1.17318879e-04 5.83792687e-04 7.35415495e-04 5.27093245e-04
      5.25648124e-04 5.35635161e-04 -2.65790644e-04 -9.90069530e-05
      -6.11679745e-04 6.51588489e-04 6.37469348e-05 1.45941420e-04
      -6.98366843e-04 -3.84325889e-04 -4.97770205e-04 -7.30743559e-05
      2.11566148e-04 3.66201741e-04 1.18940463e-03 1.20393035e-03
      5.12094179e-04 -3.55577678e-04 4.40510223e-04 -8.06692624e-05
      -3.93327558e-04 -3.97081429e-04 -3.61617655e-04 7.15510687e-04
      -1.32596699e-06 6.90378540e-04 -1.84921257e-04 -2.34540275e-04
      -1.51758679e-04 7.10573629e-04 1.42819510e-04 1.09958346e-03
      9.95861017e-04 8.05920514e-04 3.29244678e-04 2.47151795e-04
      9.01741209e-04 2.63491122e-04 -4.62846183e-05 -1.69384875e-04
      5.35204657e-04 8.10067228e-04 -5.77024359e-04 -1.86201141e-04
      -6.13454380e-04 -1.35820388e-04 -1.59675983e-04 -1.09871267e-04
      -1.44884820e-04 1.55901042e-04 1.70449803e-05 1.68283179e-04
      -1.61019889e-05 -1.91820232e-04 -1.91045896e-04 -1.40973571e-04
      -6.50318980e-04 -1.26384024e-03 -7.14795082e-04 1.23029487e-04
      -4.52198699e-04 -6.86796906e-04 -2.92299490e-04 2.69995980e-05
      5.14802465e-04 4.48344130e-04 5.93407196e-04 6.33153308e-04
      3.56361503e-04 6.07207941e-04 1.05387566e-03 6.60371326e-04
      7.73353036e-04 4.88742895e-04 1.09264991e-04 -2.25707947e-04
      -3.94371775e-04 -1.33098234e-04 -8.42997339e-04 -1.17445353e-03
      -6.55488344e-04 1.55348331e-04 -1.11780908e-04 -2.13363019e-04
      -1.62829296e-04 -3.67075612e-04 -3.27352318e-04 -1.01735634e-04
      8.50103330e-04 6.19042607e-04 7.09356391e-04 6.53444022e-06
      6.55881522e-05 -1.92220439e-04 -3.92358052e-05 2.41242538e-04
      -1.35886134e-04 7.54478824e-05 6.53019524e-05 8.44433671e-04
      9.59299796e-04 4.62150987e-04 5.75900704e-05 2.29342360e-04
      1.55261849e-04 2.78065272e-04 1.16158719e-03 1.09368924e-03
      8.93499353e-04 6.61145255e-04 1.33237510e-04 -4.55850095e-04
      4.81856812e-04 1.67755788e-04 -1.01545674e-03 -1.38540368e-03
      -1.10761367e-03 -6.77099335e-04 -8.92412558e-04 -1.17066607e-03
      -7.05247745e-04 -3.95467214e-04 -1.07020336e-04 -2.44361872e-04
      4.76647809e-04 3.50060407e-04 4.62041848e-04 -1.19215729e-04
      -1.00216991e-03 -1.70863734e-03 -1.17664295e-03 -1.15573627e-03
      -1.43493613e-04 -6.96747389e-04 -2.87220842e-04 -4.23654477e-04
      3.34021403e-04 -4.32050321e-04 5.71829587e-05 2.90184806e-04
      4.38336399e-04 3.96154501e-04 6.43148669e-04 9.35103919e-04
      8.76837759e-04 9.92943067e-04 2.95806240e-04 3.20811319e-04
      -1.94380977e-04 3.47092981e-04 -9.39906400e-04 -9.38417099e-04
      -1.10950787e-03 -9.70081775e-04 -1.36730052e-03 -6.84492465e-04
      -8.57432431e-04 -1.04590517e-03 -8.41947214e-04 -5.26928576e-04
      -5.24761737e-04 -4.52719134e-04 3.80888028e-04 2.50940386e-04
      -4.63232805e-04 -6.57833880e-04 -8.86028458e-04 -2.16763859e-04
      -1.08457869e-04 -3.10252217e-04 -3.73791700e-04 -2.14090949e-04
      -8.20022833e-04 -5.74379636e-04 -1.03836216e-03 -1.00397319e-03
      -6.05098263e-04 -3.26844078e-04 -4.87387180e-04 -5.01700852e-04
      1.21883386e-04 3.63735569e-04 5.95790218e-04 -1.34986505e-04
      -3.82257014e-04 -3.87992768e-04 -7.15568836e-04 -2.61257926e-04
      -3.55585566e-04 1.55749120e-04 -3.23002983e-04 8.37172993e-05
      -2.20974631e-04 -5.48101962e-04 -3.74885887e-04 -5.49285556e-04
      1.84964796e-04 4.36131231e-05 1.11041451e-03 1.21121516e-03
      9.54062911e-04 3.71887843e-04 1.24266284e-04 -4.79407521e-04
      -3.78407276e-04 -7.72419211e-04 -5.24477859e-04 -1.44050689e-04
      2.34451640e-04 4.99692687e-04 -7.74612490e-05 -2.44771072e-04
      -2.99444218e-04 -3.53942247e-04 3.85322986e-04 -3.79316225e-06
      3.86460160e-04 4.23049234e-04 8.07025936e-04 -4.86700192e-05
      -4.46532009e-04 -5.21124632e-04 -3.10557138e-04 -3.23375105e-04
      -5.34907704e-05 4.47085389e-04 3.85305961e-04 6.68407825e-04
      7.88654783e-04 7.42628763e-04 1.14473580e-04 5.31338992e-05
      8.45381175e-04 4.09680302e-04 8.68863077e-04 1.10016065e-03
      8.86301277e-04 6.36276847e-04 -2.40974085e-04 1.74751699e-06</_>
    <_>
      -2.95214937e-04 -5.92760007e-05 -3.47690337e-04 -9.58000091e-05
      -6.95072755e-04 -5.27569558e-04 -1.55414906e-04 9.93135691e-05
      1.54659661e-04 6.52915973e-04 7.89688085e-04 4.94325999e-04
      1.75314970e-04 5.33983752e-04 2.05682445e-04 -2.00633687e-04
      6.20392821e-05 -3.04680056e-04 1.37423776e-04 -8.67518320e-05
      -3.74904572e-04 -1.74173241e-04 -5.61908644e-04 -4.49581392e-04
      -1.96662935e-04 8.80624139e-05 -2.18976911e-05 2.66370305e-04
      -1.58543644e-05 1.77327893e-04 -4.50633088e-04 9.92064306e-05
      -1.94704393e-04 -4.62865610e-05 -3.68812580e-05 -3.56008270e-04
      -2.12618208e-04 -1.72329484e-04 -2.92387122e-04 -1.44916005e-04
      -8.41486210e-04 -9.29581351e-04 -9.40629689e-04 -5.17051609e-04
      -4.62746102e-04 -2.83801113e-04 -3.01163236e-04 -1.27202336e-04
      -2.53211532e-04 -2.87450694e-05 -2.04062817e-04 -5.46280935e-04
      -3.44736996e-04 5.73265897e-05 4.38405259e-04 7.38924253e-04
      5.09060454e-04 4.41265380e-04 -2.68211006e-04 -4.90127830e-04
      -6.89709268e-04 -2.88000476e-04 -2.35182364e-04 2.97575374e-04
      -2.10087637e-05 4.50761872e-04 5.88406227e-04 4.43696626e-04
      6.05190362e-05 5.78203762e-05 -1.27242165e-04 4.67981998e-04
      1.48112624e-04 3.44576983e-04 1.94155989e-04 1.51004700e-04
      -5.67699783e-04 -4.86290723e-04 -5.53913356e-04 -2.70322344e-04
      -1.97844871e-04 -4.82652977e-05 -3.46238055e-04 4.33357287e-04
      3.01392400e-04 7.39652933e-06 -1.86478414e-04 6.41725346e-05
      -3.35801335e-04 9.02498359e-05 2.86962779e-04 4.01905651e-04
      1.50074004e-04 -3.09631432e-04 -5.98488667e-04 -6.53858297e-04
      -6.39484031e-04 -6.15304627e-04 -3.68761888e-04 -2.08641417e-04
      -1.46087681e-04 8.98190920e-05 -2.68009113e-04 2.52843689e-04
      -2.60673376e-04 1.62666169e-04 -9.35116113e-05 6.20528124e-04
      -2.45690462e-04 -2.75246566e-04 -4.76088841e-04 -3.89109220e-04
      -9.71873582e-04 -9.63562285e-04 -7.84266449e-04 -4.47305298e-04
      -3.79971374e-04 -1.91433268e-04 -2.27297729e-04 3.72694303e-05
      6.59795478e-04 4.11730784e-04 1.04603176e-04 7.06343853e-05
      -2.83140573e-04 4.34268411e-04 -2.31850412e-04 -1.27869180e-05
      -1.15150338e-04 8.36355139e-06 -5.40658541e-04 -5.44319046e-04
      -3.48120899e-04 -2.01133400e-04 -2.82972149e-04 -5.56937477e-04
      -4.95940156e-04 4.32224697e-05 3.35776160e-04 1.55241039e-04
      -2.64514791e-04 -3.59343452e-04 -2.20022033e-04 6.41748557e-05
      -3.50470509e-05 8.68235875e-05 -2.50269979e-04 -2.00571769e-04
      -5.40731126e-04 -5.05511882e-04 -5.58084357e-05 6.35018932e-06
      -3.15721968e-06 -1.05155286e-05 -4.71846761e-05 9.61587793e-05
      3.90550813e-05 -3.22903856e-04 -3.54124233e-04 -2.59811728e-04
      -4.88745514e-04 -2.73649901e-04 -3.35929217e-05 1.33084022e-05
      -2.07206278e-04 -1.41978773e-04 -2.80940178e-04 -3.57790734e-04
      1.84973469e-04 7.89560072e-05 -2.90993594e-05 -3.62256367e-04
      -5.45593037e-04 -2.66747171e-04 -4.74267785e-04 -3.56691628e-04
      -5.54438120e-05 1.06018968e-04 -2.98772356e-04 -2.75825761e-04
      3.49198240e-06 -1.17181335e-04 -2.90856464e-04 -3.41437641e-04
      -6.98688382e-04 -7.17965246e-04 2.55931664e-04 3.92954535e-04
      -4.97298279e-05 2.80563181e-05 -4.87122627e-04 -1.27616120e-04
      4.07401036e-04 2.49080331e-04 4.59305329e-06 1.56275564e-04
      1.13435031e-04 5.68795425e-04 -1.85672878e-04 -8.73114986e-05
      -3.50898743e-04 -2.03297575e-04 -3.94048839e-05 -1.80562973e-04
      6.43264430e-05 1.44453050e-04 -2.00050679e-04 2.72587713e-05
      1.25198203e-04 1.46053251e-04 1.48689243e-04 -1.01020953e-04
      -3.82178376e-04 -3.50108457e-04 -2.12493378e-05 -8.88759459e-05
      -3.11806914e-04 -4.78306320e-05 -1.92648586e-04 -1.59042829e-05
      -3.10174510e-04 -2.78767664e-04 -5.30285361e-05 1.89405648e-04
      2.25273965e-04 1.73849221e-05 -5.63098001e-05 3.60114675e-04
      3.61969345e-04 3.88024695e-04 2.41273185e-04 2.79442775e-05
      4.91716819e-05 -1.16080359e-04 -1.29663938e-04 2.20793936e-05
      -2.49351142e-05 -1.82879157e-05 -9.89435575e-05 -2.05762226e-05
      2.74431542e-04 4.82406671e-04 3.54199554e-04 1.22318990e-04
      1.58700292e-04 4.77422815e-04 4.60614916e-04 5.03878051e-04
      4.24992002e-04 1.68836312e-04 -8.07309334e-05 -9.50446192e-05
      -2.79992179e-04 -1.18141870e-04 -4.70838451e-04 -4.86550474e-04
      -6.78742828e-04 -5.34440158e-04 -2.49556586e-04 6.84600163e-05
      -1.55061382e-04 1.09698864e-04 2.98980740e-04 3.07725277e-04
      2.46499054e-04 -7.59388640e-05 5.88237017e-05 2.34920240e-04
      -7.15433052e-05 -1.68661005e-04 -3.90368456e-04 2.22524512e-04
      -9.90642293e-05 -6.61932791e-05 -2.22882678e-04 -8.47705305e-05
      1.20109697e-04 3.72646755e-04 2.77659594e-04 1.72270971e-04
      3.98356322e-04 7.02474848e-04 2.77804793e-06 7.53111672e-05
      1.54774956e-04 -1.92630832e-04 -6.18068952e-05 -2.00045251e-05
      1.71480744e-04 3.74620431e-04 3.44367087e-04 1.00090583e-04
      -2.12355189e-05 2.09790611e-04 8.23760929e-05 4.89491737e-04
      3.59764235e-05 2.32700972e-04 4.03308542e-04 4.98553389e-04
      2.37336411e-04 4.93298692e-04 6.15269935e-04 2.23861585e-04
      -8.16862230e-05 -3.77569871e-04 1.45685117e-05 1.11694921e-04
      -1.66152779e-04 -3.41568200e-04 -5.07376448e-04 -1.97935180e-04
      -2.64040602e-04 -4.67845675e-05 4.78423404e-04 4.20525612e-04
      3.47869005e-04 6.42760366e-04 3.88952350e-04 3.15178186e-04
      2.39201167e-04 2.15593725e-04 1.64505283e-04 -5.45425923e-04
      1.26005616e-04 1.97713322e-04 -7.65301011e-05 -1.70241954e-04
      -4.99210902e-04 -1.57570365e-04 -5.67401061e-04 6.74634503e-05
      5.14888787e-04 -7.52163105e-05 -4.92547551e-05 4.31568216e-04
      2.24865042e-04 2.93188845e-04 -6.72717069e-05 9.83414866e-05
      1.71470077e-04 1.40487346e-05 -1.68180821e-04 -1.63531076e-04
      -2.93483754e-04 -8.56775223e-05 -4.00725519e-04 3.53219191e-04
      -1.22614205e-04 2.35168220e-04 7.46269070e-05 1.36979928e-04
      1.27091087e-04 3.85821797e-04 3.78574448e-04 4.84700577e-05
      1.27453779e-04 5.09264530e-04 2.44571944e-04 2.55717634e-04
      1.88642516e-04 2.47216201e-04 2.98718660e-04 2.33404106e-04
      1.64946192e-04 6.06248970e-04 4.24963073e-04 5.78255451e-04
      2.17488763e-04 1.12220412e-04 -6.84763290e-05 3.09364143e-04
      4.20279161e-04 5.24224131e-04 8.81806016e-04 6.10552379e-04
      4.50402818e-04 3.36664903e-04 3.73572606e-04 7.64635450e-04
      4.76380665e-04 -8.86269554e-05 2.07642690e-04 2.25626194e-04
      3.34915239e-04 4.74287954e-04 7.34055939e-04 2.46604119e-04
      3.60888953e-04 1.19466029e-04 5.11418155e-04 8.46935727e-04
      9.56172473e-04 4.18157055e-04 2.21456226e-04 5.01498929e-04
      -2.30833990e-04 4.08390275e-04 3.45189095e-04 4.87794838e-04
      5.81399363e-04 1.01419294e-03 5.14955726e-04 6.21265557e-04
      4.49370273e-04 3.27923954e-06 4.35571070e-04 1.05061379e-04
      1.36842529e-04 5.22520568e-04 3.55976052e-04 2.14524523e-04
      7.73130596e-05 5.29410376e-04 -1.95546036e-05 -5.49377291e-05
      -1.76780391e-04 1.18164542e-04 5.74525387e-04 9.05449968e-04
      6.90863759e-04 9.26306588e-04 6.76312193e-04 5.27642726e-04
      2.61167472e-04 2.66961666e-04 2.99217645e-04 5.68990596e-04
      2.37064320e-04 4.51624190e-04 2.46523821e-04 3.01257416e-04
      7.65433579e-05 -8.84242836e-05 -2.72711361e-04 2.68750358e-04
      7.24184967e-04 2.11242688e-04 5.96179307e-05 1.54960115e-04
      1.52583380e-04 1.69925479e-04 2.58118991e-04 1.06828120e-04
      -4.62300013e-05 3.17207392e-04 -2.93720193e-04 2.80424021e-04
      -1.82387259e-04 2.28355129e-04 -1.70811065e-04 -2.24892545e-04
      -7.17160583e-04 -3.02976056e-04 -1.47144219e-05 -1.15246694e-04
      -2.58454907e-04 2.52550701e-04 1.78454866e-04 3.86330474e-04
      2.51181278e-04 -6.91858440e-05 -2.59263998e-05 1.70541243e-05
      -3.19355371e-04 2.17187371e-05 1.14590948e-04 1.67567181e-04
      -1.52482186e-04 6.81845777e-05 -4.04093298e-04 -3.43642372e-04
      -1.82636009e-04 -1.62076059e-04 -1.52484237e-04 4.90059727e-04
      2.97116465e-04 2.25774464e-04 -4.86783210e-05 1.97046698e-04
      1.03732607e-04 -2.54290935e-04 -6.03336550e-04 -1.09149310e-04
      3.78617042e-05 1.16881347e-04 2.83189496e-04 4.14197391e-04
      1.47814653e-05 4.98256122e-04 5.40903769e-04 1.60494194e-04
      2.28801888e-04 3.80930956e-04 3.38407146e-04 5.50640980e-04
      1.96513749e-04 4.81808209e-04 6.92254107e-04 5.97027713e-04
      3.01715656e-04 6.41753955e-04 2.14136075e-04 1.30339758e-04
      5.57852851e-04 1.84273740e-05 -3.29526265e-05 4.17237403e-04
      2.63110793e-04 9.14248812e-05 -7.93744548e-05 8.79677027e-05
      -8.54945538e-05 4.38326009e-04 3.43033375e-04 6.73239876e-04
      2.98169762e-04 4.27667430e-04 4.05018909e-05 4.20410855e-04
      3.40657207e-05 2.07468824e-04 1.57377872e-04 -5.92964294e-04
      -1.19314434e-04 2.24266623e-04 1.34206784e-05 1.16912437e-04
      2.15549517e-05 1.29794033e-04 -2.01961288e-04 3.43702239e-04
      2.43335118e-04 6.18097256e-04 8.18478060e-04 4.09153028e-04
      2.15960856e-04 2.07526773e-05 4.16230578e-05 -2.04957221e-04
      -5.51555568e-05 -1.71640073e-04 -8.82350068e-05 1.74214831e-04
      4.49555519e-05 -5.00174747e-06 -3.18646955e-04 -1.59522140e-04
      -4.15034156e-04 1.27391526e-04 -2.56571948e-04 3.63509287e-04
      3.16509482e-04 5.24175193e-05 -9.62970953e-05 -4.40841599e-04
      -1.72309417e-04 -4.10414767e-04 7.83088180e-05 -8.33730010e-05
      -3.59081576e-04 6.57070850e-05 6.19224666e-05 -3.59699974e-04
      -2.45865143e-04 -1.85996774e-04 -5.89233168e-05 -7.59116956e-05
      3.79599311e-04 6.27432717e-04 5.72675373e-04 7.40407122e-05
      -1.44305071e-04 -6.78383163e-04 -5.89811534e-04 -4.14754904e-04
      2.39394503e-04 -6.56449629e-05 -4.00308520e-04 -1.92657593e-04
      7.90658742e-05 -4.03703889e-04 -6.75122836e-04 -4.21850214e-04
      -1.72569067e-04 -2.60235625e-04 1.23779042e-04 2.81799788e-04
      4.22061188e-04 4.78814982e-05 -8.16898537e-05 -2.20756483e-04
      -4.94731648e-04 -2.82046949e-05 7.68396694e-06 -2.21562863e-04
      -8.75217956e-05 -1.86209712e-04 -1.74892721e-05 -5.32512960e-04
      -9.67604865e-04 -9.59241821e-04 -1.05383911e-03 -6.49758498e-04
      -3.77437042e-04 2.14734682e-04 3.18216305e-04 4.38868912e-04
      1.41783268e-04 1.02651757e-04 -2.59903551e-04 -4.23323108e-05
      -1.69645209e-04 2.14236512e-04 -2.47616044e-05 5.10168284e-05
      -3.40859478e-05 -4.46288090e-04 -5.42885740e-04 -3.54693184e-04
      -4.81253577e-04 -1.63061850e-04 -2.45690608e-04 3.08786286e-04
      8.26710195e-04 9.87016247e-04 5.04263910e-04 3.49784823e-04
      1.05274466e-05 2.28754754e-04 -4.56451642e-04 -4.28551080e-04
      -3.72599839e-04 -5.06565557e-04 -4.86360368e-04 -6.14266959e-04
      -2.34870968e-04 -5.90976793e-04 -8.05174117e-04 -4.57311951e-04
      -8.04619456e-04 -7.04348204e-05 -1.16798481e-04 5.87396440e-04
      2.93758378e-04 1.48674793e-04 7.15627684e-05 -1.25141174e-04
      -1.65758465e-04 -4.46926220e-04 -6.27410482e-05 -9.63480416e-05
      -5.97306753e-05 -8.92419484e-05 1.02745107e-05 -1.17780968e-04
      -3.35538818e-04 -1.50559223e-04 -1.72471890e-04 -8.95299381e-05
      -2.30091944e-04 2.87131668e-04 4.72739164e-04 1.19723263e-04
      -2.44337250e-04 -1.90372317e-04 -8.74844263e-05 -1.90754017e-05
      7.62981290e-05 3.49395094e-04 3.89867055e-04 2.59284454e-04
      5.60037617e-04 5.25271869e-04 2.93516467e-04 1.10355671e-04
      1.20110257e-04 1.55343863e-04 2.33454397e-04 7.36362883e-04
      8.33179452e-04 3.98753968e-04 6.58392528e-05 3.46104935e-04</_>
    <_>
      8.25524039e-04 4.36945906e-04 3.27480986e-04 3.73309565e-04
      3.34048091e-04 4.43048018e-04 -5.39560220e-04 8.21222566e-05
      -2.63310038e-04 -4.39859083e-04 5.78052772e-04 2.82773020e-04
      -1.61012271e-04 -5.97066013e-04 -4.62895143e-04 -5.79686661e-04
      -7.71521241e-04 -1.22498616e-03 9.80814686e-04 5.30434947e-04
      4.02940990e-04 5.68725925e-04 5.05837612e-04 1.97523448e-04
      -4.45499056e-04 -9.76737938e-05 -3.62088293e-04 -1.66542886e-04
      1.46457460e-04 -2.27237091e-04 -6.05143025e-04 -4.72897023e-04
      -9.46441491e-04 -3.21129075e-04 1.22118718e-06 -2.19267415e-04
      8.22688220e-04 1.14507828e-04 -3.81981081e-05 -1.02443591e-04
      -5.67971321e-04 -6.69712375e-04 -1.06826413e-03 -6.40736835e-04
      -9.15820652e-04 -4.20148484e-04 -3.07314738e-04 -4.66779573e-04
      -1.04372192e-03 -1.49486106e-04 -6.11411640e-04 -2.95601858e-05
      1.12873473e-04 3.59887868e-04 1.32422638e-03 5.49125893e-04
      7.35360445e-05 -1.14765346e-04 -3.08572082e-04 -5.75996528e-04
      -1.17355271e-03 -5.13155945e-04 -3.93876282e-04 -6.19915198e-04
      5.20789908e-05 1.49274085e-04 3.23584245e-04 1.08965593e-04
      -2.72875273e-04 -1.20748926e-04 2.09421836e-04 5.68349380e-04
      1.42437825e-03 8.33603262e-04 2.78226857e-04 3.48841888e-04
      4.61540039e-04 -1.53135916e-04 -6.14344317e-04 -1.37653216e-04
      1.29988053e-04 -1.47906627e-04 -3.10943928e-04 -1.64213532e-04
      -2.58017943e-04 -4.63687204e-04 -3.90483154e-04 2.65490875e-04
      4.44763660e-04 6.09651092e-04 9.12065210e-04 6.60406076e-04
      -7.32214312e-06 1.41546785e-04 2.98482162e-04 -2.25200012e-04
      -5.16095897e-04 1.31792418e-04 -3.85303312e-04 -1.82022006e-04
      1.85105469e-04 4.39370087e-05 -1.74415705e-04 6.66162668e-05
      -2.75724917e-04 -3.08573130e-04 -1.50571286e-04 1.37169234e-04
      -2.32545262e-05 -3.58776480e-04 -8.79915489e-04 -2.40171619e-04
      -2.56614207e-04 1.42212841e-04 2.42661088e-04 1.94019944e-04
      -1.52194363e-04 -3.37828998e-04 -2.56928790e-04 -1.04332066e-04
      2.49852194e-04 -2.73879239e-04 -7.85734228e-05 -2.67379713e-04
      -1.87114856e-05 4.64143552e-04 -1.21343161e-04 1.63544406e-04
      -1.28138854e-04 4.91935876e-04 2.38865963e-04 2.34398132e-04
      4.51982574e-04 3.28794471e-04 5.81303029e-04 -2.54105893e-04
      -1.70589439e-04 -2.07704099e-04 -7.10377179e-04 -5.52494428e-04
      -3.11379205e-04 -6.14009099e-04 -9.48713132e-05 8.87284754e-04
      -3.06572736e-04 -7.88229881e-05 -3.60070204e-04 -1.91352956e-04
      -2.28668403e-04 1.71868567e-04 1.00074765e-04 3.84435436e-04
      4.38248768e-04 8.56990446e-05 -3.05323396e-04 -1.30584403e-05
      -4.49855026e-04 -1.66020996e-04 -4.59024566e-04 -2.03143005e-04
      6.00652827e-04 5.06712822e-04 3.92043788e-04 -2.57340551e-04
      -2.25009950e-04 5.48371405e-04 4.70591913e-04 2.10145095e-04
      3.12530086e-04 3.90598652e-05 -4.99251146e-05 2.66787247e-04
      3.72223614e-04 -8.69684027e-06 -4.73376072e-04 1.24956234e-04
      -1.42489589e-04 -2.02550233e-04 3.65316519e-04 2.45964737e-04
      9.29632733e-05 -6.56258955e-04 -4.60040144e-04 1.03872946e-04
      2.74209219e-06 1.33236084e-04 3.76097538e-04 1.31386158e-04
      3.10455973e-04 2.99602718e-04 2.36740409e-04 -2.11362058e-04
      -2.16161847e-04 1.11681875e-04 -3.28962604e-04 -2.23212497e-04
      2.89014279e-04 3.93652183e-04 1.23456979e-04 -3.42243060e-04
      -5.84274276e-05 -1.63173405e-04 2.67580890e-05 4.33679699e-04
      2.13984036e-04 7.99841000e-05 3.55697528e-04 3.69943737e-04
      7.99481990e-04 1.09328239e-05 -2.21726295e-04 -5.96693717e-04
      -6.02021872e-04 -9.79088480e-04 -6.14458171e-04 2.26193981e-04
      -5.16831293e-04 -8.19161243e-04 -6.06562302e-04 -1.07800450e-04
      -3.03400535e-04 5.57972671e-05 2.14438274e-04 -5.64368856e-05
      -3.01170548e-05 1.68539424e-04 3.91208363e-04 -2.62096175e-04
      -3.59692029e-04 9.21846658e-05 3.01067543e-04 -5.10645972e-04
      2.19527647e-05 3.32623225e-04 4.48954015e-05 -3.40417580e-04
      -1.07684551e-04 4.46745282e-04 4.40130476e-04 2.93372141e-04
      -1.19289116e-05 6.20275561e-04 6.72616705e-04 3.68321053e-04
      3.77723220e-04 -1.07495558e-04 5.78325307e-05 2.76421400e-04
      -2.55940220e-04 -7.83177093e-04 1.12640555e-06 3.56574805e-04
      -1.71726075e-04 -9.18598205e-04 -7.88010715e-04 -1.75890353e-04
      -2.93409044e-04 -3.17019221e-05 4.62603639e-05 3.86036292e-04
      2.03523086e-04 4.54755034e-04 -4.57387432e-05 -1.86503268e-04
      -4.86024510e-04 -6.48300746e-04 -9.61476006e-04 -6.15914585e-04
      -9.23470943e-05 3.17226455e-04 1.38102885e-04 7.84397998e-05
      6.36848927e-06 4.36814618e-04 2.34445924e-05 2.39062327e-04
      1.29195905e-04 4.58739902e-04 6.75572664e-04 8.23589216e-04
      7.19734351e-04 3.54262185e-04 -4.88022997e-05 -2.74779944e-04
      -5.58262516e-04 -2.67109688e-04 -2.56707339e-04 3.88534478e-04
      5.96893486e-04 6.49056281e-04 2.20498536e-04 6.43839710e-04
      2.82969704e-04 7.17545568e-04 7.90682563e-04 6.31724077e-04
      5.34102328e-05 3.26372712e-04 2.95723672e-04 1.98077396e-04
      5.44247101e-04 1.13563096e-04 -4.64241661e-04 -3.03929788e-04
      -5.63475769e-04 6.03710301e-04 5.97412640e-04 4.24338767e-04
      -7.60788535e-05 4.54974128e-04 1.25018822e-04 3.35821329e-04
      3.98765114e-04 2.57443433e-04 -2.45625240e-04 -1.40264156e-05
      3.98842472e-04 9.28861089e-04 1.09627924e-03 3.83950683e-04
      1.30398723e-04 6.71991438e-04 4.58914961e-04 7.30070402e-04
      2.40908630e-04 3.69845395e-04 -2.11397521e-04 1.97852452e-04
      2.19839567e-04 -2.83253048e-05 -2.39977075e-04 -3.25827801e-04
      -4.09505999e-04 -2.27491502e-04 3.18707695e-04 4.41547949e-04
      -1.25602048e-04 1.28989719e-04 -3.59452009e-04 -2.51846668e-05
      1.08993176e-04 7.83318537e-04 5.37167303e-04 3.76276614e-04
      -1.79106908e-04 1.06440835e-04 3.81686725e-04 5.53457183e-04
      2.14683518e-04 3.74360126e-04 -1.52899229e-04 1.09680579e-04
      6.80678640e-04 8.56355706e-04 5.11121820e-04 5.45922958e-04
      -3.96298157e-04 -3.74097843e-04 -4.77073481e-04 2.38065259e-04
      -2.06282144e-04 -3.43616266e-05 -2.69435550e-04 2.03827913e-05
      -2.18723522e-04 -2.98587460e-04 -1.48771418e-04 1.28222928e-05
      -3.70885391e-04 -4.34843241e-04 1.40779521e-04 3.31310352e-04
      1.90565144e-04 -3.41425584e-05 2.76566192e-04 2.85987218e-04
      -3.63994441e-05 7.39868090e-04 3.98597913e-04 5.89116884e-04
      1.21443314e-04 -4.55292211e-05 -3.47607944e-04 -8.45318027e-06
      -6.33615709e-05 -2.12607090e-04 -2.58195563e-04 -6.24632594e-05
      6.36930286e-04 1.78955146e-04 6.88578759e-04 3.66615073e-04
      2.59460445e-04 -6.05798734e-04 1.22097976e-04 1.09827286e-03
      3.48364410e-05 5.71639917e-04 3.32507741e-04 1.53623652e-04
      1.06430380e-04 5.38877561e-04 4.57479124e-04 4.45382262e-04
      -2.69511565e-05 4.89110535e-04 7.61158823e-04 5.15054038e-04
      5.94653946e-04 5.05024625e-04 2.16555229e-04 -1.96757261e-04
      2.69321026e-04 6.63984742e-04 1.60478972e-04 1.51628745e-04
      -5.07402176e-04 9.76781521e-05 5.56123676e-04 8.67493742e-04
      7.65887147e-04 4.28460480e-04 5.41892718e-04 3.40592407e-04
      1.54595909e-04 1.75935944e-04 5.68911841e-04 6.13751065e-04
      2.71772660e-05 -3.73218354e-04 -4.40404197e-04 4.96124558e-04
      -9.89481705e-05 -2.85369897e-04 -6.89600012e-04 2.22056624e-04
      7.05785715e-05 3.91982961e-04 -6.88290107e-04 -1.66403261e-04
      -1.83769043e-05 -6.03203043e-05 4.26946295e-04 4.81105089e-04
      5.53824008e-04 3.52310075e-04 -3.76712065e-04 -3.93844239e-05
      -1.02685204e-04 7.24165002e-04 -4.96914494e-04 -7.21234072e-04
      -1.04489503e-03 -2.27553901e-04 -3.35767982e-04 4.52378772e-05
      -1.13646232e-03 -2.40154215e-04 -2.10469065e-04 4.30435990e-04
      4.82105272e-04 -1.64282683e-04 2.47244898e-04 -1.43041936e-04
      -2.80590495e-04 -1.07250235e-03 -5.02514595e-04 -1.90860865e-05
      -5.62876754e-04 -9.93009657e-04 -6.84714993e-04 -3.42638232e-04
      -1.39475131e-04 -9.76330703e-05 -9.76025651e-04 -8.71008087e-05
      6.85144405e-05 6.52434130e-04 4.91953338e-04 1.75663736e-04
      4.24333208e-04 1.57854665e-04 -2.84017995e-04 -2.46393814e-04
      5.76894439e-04 3.61409155e-04 -1.33805894e-04 -6.30375114e-04
      -1.58240073e-04 -1.32541127e-05 2.01816565e-05 1.25077509e-04
      1.40684264e-04 1.86202291e-04 5.96511527e-04 9.37208824e-04
      7.20551296e-04 6.31207949e-04 5.07546472e-04 2.69880897e-04
      9.55284340e-05 1.81155308e-04 1.05374813e-04 6.60285819e-04
      -3.19634331e-04 -7.92391889e-04 -1.75617999e-04 -1.25435123e-04
      -9.32578696e-05 -1.43472367e-04 -2.92927085e-04 3.67264642e-04
      3.60988895e-04 6.55051786e-04 3.84563522e-04 1.68755505e-04
      -3.12363059e-04 2.62470072e-04 1.99757720e-04 -4.51864238e-04
      -8.49013741e-05 5.21443784e-04 -7.31352018e-04 -6.66335516e-04
      -8.79646104e-04 -5.87175193e-04 -1.12957874e-04 -1.57236409e-05
      1.42269764e-05 3.38239508e-04 1.47445317e-04 5.14296466e-04
      2.72928271e-04 1.16467701e-04 4.71804291e-04 4.66990081e-04
      1.99574890e-04 -7.25792663e-04 7.45726211e-05 7.18518917e-04
      -9.46463901e-04 -5.36894135e-04 -1.23733119e-03 -2.35342915e-04
      -3.42331652e-04 7.81934999e-04 3.23154061e-04 3.68504174e-04
      2.25238200e-05 2.82443449e-04 1.55949368e-04 1.07603839e-04
      9.09403781e-04 1.70025814e-04 -1.23955440e-04 -6.69844158e-04
      9.91641573e-05 3.38322337e-04 -5.83548972e-04 -5.16811444e-04
      -6.34454540e-04 1.53362533e-04 -9.80418408e-05 -3.37028032e-05
      1.19316050e-04 9.08148882e-04 3.87945183e-04 5.13249193e-04
      7.11467175e-04 1.02183060e-03 1.55107374e-03 4.99457237e-04
      4.21375706e-04 -3.09809606e-04 -4.27669846e-04 9.69629546e-05
      -4.10625769e-04 -2.97080260e-04 -4.95138112e-04 -1.92575171e-04
      -5.07198507e-04 2.08591500e-05 2.89388787e-04 8.40103312e-05
      -4.31977387e-04 -3.15889920e-04 2.45611649e-04 2.65952956e-04
      1.15265907e-03 2.42577051e-04 8.71655880e-04 1.85658985e-06
      1.76745743e-05 1.38758589e-03 -7.76164889e-05 2.00191265e-04
      -3.59513855e-04 -4.17498261e-04 -6.58881792e-04 -3.92455724e-04
      -9.41088132e-04 -1.04476907e-03 -1.14066503e-03 -9.16668738e-04
      -5.06656594e-04 -3.39758379e-04 4.35375609e-04 -2.18622736e-05
      2.56062252e-04 5.47958538e-04 3.75729520e-04 7.39394745e-04
      1.79512092e-04 3.09097173e-04 -7.51871208e-04 -1.89057828e-04
      -3.79307428e-04 2.59941706e-04 -5.23206312e-04 -4.65456920e-04
      -8.51277029e-04 -5.38290944e-04 -2.76287756e-04 -2.67199212e-04
      5.54775179e-04 2.24406089e-04 3.20023566e-04 1.84212865e-07
      1.25066945e-04 6.84183848e-04 -3.85104155e-04 -9.09316514e-05
      -1.03530510e-04 2.94391066e-04 7.33415291e-05 3.80177080e-04
      -3.96257296e-04 -1.35281225e-04 -6.07415917e-04 -7.86565826e-04
      -2.86734139e-04 -4.13606322e-04 -2.34551102e-04 -9.77552845e-05
      -2.97877814e-05 7.87748781e-04 2.71982317e-05 -2.64654314e-04
      -9.46789689e-04 3.38416867e-05 4.27593259e-05 3.28896509e-04
      1.91779705e-04 3.06621077e-04 -6.94667629e-04 -2.48197262e-04
      -3.26915353e-04 -4.66320460e-04 -2.03708914e-04 -4.90559032e-04
      -4.04297520e-04 -3.84195155e-04 -3.00862710e-04 1.25215432e-04
      -1.22708938e-04 2.98500690e-05 7.57113521e-05 8.76992068e-04
      5.25758544e-04 9.36065684e-04 7.14775990e-04 4.58648603e-04
      1.82526728e-05 -4.04744816e-04 -2.96455954e-04 -3.79677396e-04
      2.75270315e-04 -1.69821011e-04 2.82972062e-04 1.52299763e-05
      -2.21078692e-04 1.02234924e-04 3.25687026e-04 -2.32839011e-04</_>
    <_>
      5.42951631e-04 5.12830447e-04 -2.98206694e-04 4.80356393e-04
      -1.06828229e-03 2.60676898e-04 3.56667937e-04 2.79208150e-04
      -3.36648431e-04 4.12972091e-04 1.43087609e-03 -1.32588914e-03
      -9.40730737e-04 5.60399611e-04 -2.14448970e-04 -1.23671314e-03
      9.29962916e-05 5.23546245e-04 -5.55907376e-04 -2.47106102e-04
      -5.48865530e-04 3.94441522e-05 -6.99070690e-04 2.46913871e-04
      1.64977522e-04 5.68583084e-04 4.34196729e-04 1.88571896e-04
      1.35722395e-03 -2.60404311e-04 1.28007389e-03 1.84113847e-03
      1.75011647e-03 -1.32616711e-04 6.43575855e-04 1.14660186e-03
      -3.26667650e-04 4.44788093e-05 -5.48195967e-04 7.34807836e-05
      1.19052455e-03 2.95766540e-06 -1.84422621e-04 6.14076678e-04
      3.17654427e-04 -8.27571144e-04 4.75063629e-04 -1.04330356e-04
      9.52307455e-05 -8.30136050e-05 1.04790437e-03 -1.20928918e-04
      1.83244207e-04 1.12272639e-04 -1.39201805e-03 2.20451460e-04
      4.84410644e-04 -1.79528943e-04 1.61234511e-03 -1.94568667e-04
      -5.32352191e-04 5.47625415e-04 -6.85951381e-04 -1.39410689e-03
      -1.82465461e-04 -6.23142347e-04 -6.73188188e-04 -1.05226201e-04
      -2.22330491e-04 -5.37240237e-04 3.73059534e-04 6.35748205e-04
      -1.09143707e-03 -1.13949376e-04 -3.84088817e-05 4.12647263e-04
      -5.31978847e-04 -6.23851549e-04 -6.27312053e-04 5.73979807e-04
      -3.54178017e-04 -9.75247240e-04 -2.19407229e-04 -6.19413855e-04
      -5.90962707e-04 -9.77567281e-04 9.17185971e-04 3.73042043e-04
      6.01805164e-04 3.22628592e-04 -8.81082320e-04 1.23252056e-03
      -6.71729271e-04 -1.06874795e-04 5.11003775e-04 7.32070126e-04
      6.03400113e-04 1.46947987e-03 1.67585313e-04 -1.12798312e-04
      -5.41335263e-04 -4.60170442e-04 -8.08094745e-04 -8.66575050e-04
      1.06843316e-03 -4.36794653e-04 -1.96533452e-04 3.56849283e-04
      -7.11457338e-04 4.83593962e-04 -1.23194608e-04 5.24425064e-04
      7.86152727e-04 2.24628471e-04 1.69735853e-04 -9.47975714e-05
      -1.31049333e-03 -3.23499582e-04 -1.16897211e-03 -1.19885872e-03
      1.86222842e-05 2.42196445e-04 7.32310757e-04 4.08136766e-05
      1.42392947e-03 4.31123481e-04 -1.29268807e-03 -3.95854695e-05
      6.25232467e-04 8.76098173e-04 6.83784427e-04 -4.60932875e-04
      3.60987498e-04 1.13247690e-04 -1.12216885e-03 -2.70741119e-04
      -5.52232144e-04 -1.13610562e-03 7.22326688e-04 3.37789999e-04
      3.36090889e-04 -8.05056334e-06 -2.00246242e-04 6.06788497e-04
      -4.02812555e-04 -4.51500848e-04 -3.06208385e-04 5.78183739e-04
      5.54730010e-04 -4.64645855e-04 -1.08013061e-04 6.07486232e-04
      4.08219785e-04 8.09010060e-04 1.39450480e-03 7.39674782e-04
      1.07576116e-03 1.32066070e-03 1.05871051e-03 1.03114848e-03
      2.89485033e-04 5.90928481e-04 6.66244188e-04 8.79014260e-04
      1.00117049e-03 1.24699820e-03 -3.79202684e-04 -2.25610274e-04
      7.08188163e-04 1.49018725e-03 7.86243356e-04 1.68532436e-03
      2.13925424e-03 -9.75403120e-04 4.48066159e-04 -4.17985066e-05
      -4.79805283e-04 -8.20986810e-04 9.72999842e-04 6.35716075e-04
      -4.88642952e-04 -5.75550803e-05 -4.04749764e-04 1.31124340e-03
      2.31886457e-04 -5.43381146e-04 6.15511206e-04 8.83716857e-04
      1.27284409e-04 -4.44647536e-04 4.64856275e-04 -7.46726582e-04
      -5.88256866e-04 3.96221767e-05 2.76521052e-04 -7.51545944e-04
      -1.74679062e-05 -1.32425118e-03 2.38244087e-04 2.92907353e-04
      -5.36486972e-04 6.31268951e-04 -5.64997608e-04 -1.37297975e-04
      4.54591558e-04 6.85288163e-04 5.15248743e-04 -6.16777179e-05
      6.59246405e-04 1.19332426e-05 2.90379830e-04 1.42705947e-04
      -6.33715361e-04 -1.57964730e-03 -6.43400592e-04 -1.24526036e-04
      -6.75725460e-04 -8.36181105e-04 -2.64971022e-04 6.29580973e-05
      -4.03483078e-04 -1.29795866e-03 5.31226397e-04 2.79230881e-04
      2.84854905e-04 1.38273084e-04 1.94973618e-04 -4.49532003e-04
      -6.42366766e-04 -2.35584725e-04 2.66742252e-04 -1.12271181e-03
      -3.05252150e-04 -1.19652308e-03 -3.49545444e-04 4.31959226e-04
      -3.53252486e-04 -1.08196009e-05 -1.75444206e-04 -2.75438492e-06
      8.26636388e-05 2.14194646e-03 6.20396575e-04 3.12242220e-04
      5.65924449e-04 -2.07070363e-04 5.37077547e-04 -6.07274087e-05
      1.30782428e-04 -1.46285526e-03 2.63609923e-04 -3.42498563e-04
      -5.85019807e-05 -8.60226399e-04 -1.44254358e-03 -4.07188782e-04
      3.90452711e-04 -2.41916045e-04 1.81961295e-04 3.59520927e-04
      -4.62002732e-04 -5.42395341e-04 1.43229263e-04 -3.25580040e-04
      -4.20339813e-04 1.30236469e-04 -3.37690763e-05 -7.45224126e-04
      -3.70645983e-04 2.60016706e-04 -2.78312800e-04 -1.98427824e-05
      -4.95134969e-04 3.33670469e-04 -6.51162991e-04 -1.42503093e-04
      1.09191053e-03 8.05339660e-04 1.41377372e-04 7.65190518e-04
      7.27915496e-04 -4.22432931e-05 4.48476145e-04 4.05877247e-04
      3.19365899e-05 -9.05491877e-04 -7.56994777e-05 -1.30659246e-04
      2.76994077e-04 -2.11315157e-04 -4.44400095e-04 1.98573442e-04
      3.37596954e-04 -4.02759004e-04 7.73562293e-04 1.56783033e-03
      -8.20115209e-04 -1.63602410e-04 1.37017656e-03 -1.82339336e-05
      -8.61282751e-05 1.01290690e-03 -3.05887050e-04 -7.82733259e-04
      -7.82585121e-05 3.26153473e-04 -1.05087762e-03 1.22356883e-04
      -5.91845601e-04 9.14656906e-04 -4.79472452e-04 -6.79171295e-04
      -9.99428681e-04 -2.82702735e-04 -9.19549551e-04 1.84285382e-04
      3.38229380e-04 -2.02273601e-04 -1.94319437e-04 -4.54054592e-04
      -1.38843874e-03 -6.13258511e-04 -1.85143745e-05 -7.14549169e-05
      1.06644788e-04 9.81077319e-04 -9.03595646e-04 1.01852522e-03
      1.40554315e-04 -6.29014394e-05 -3.46207409e-04 -4.76874411e-04
      -1.33836339e-03 -1.95312241e-05 3.66010761e-04 -1.16249558e-03
      -3.60636332e-04 -5.27039170e-04 -1.21621392e-03 -8.18398257e-04
      4.64977202e-04 9.83948354e-04 1.80741714e-04 -8.38736247e-04
      -8.95255012e-04 4.44979087e-04 9.68164415e-04 3.50495175e-05
      4.97950008e-04 -3.85972497e-04 7.77508394e-05 9.65258281e-04
      9.49774578e-04 -6.64878098e-05 2.95632140e-04 8.86914495e-04
      -6.07302354e-04 -1.47656552e-04 -2.92324439e-05 4.91298968e-04
      1.72267458e-03 5.92316173e-05 -4.33144654e-04 1.13069627e-03
      7.51408224e-05 8.67092109e-04 8.24093120e-04 9.25973931e-04
      -7.81753741e-04 6.45740365e-04 4.43454453e-04 3.42692976e-04
      5.07269462e-04 6.39785780e-04 -3.02542816e-04 -6.76770462e-04
      -6.40679616e-04 -1.87880767e-04 3.14766337e-04 -1.76285816e-04
      -2.38149587e-05 3.63500905e-04 2.82590976e-04 2.18517569e-04
      -9.35674761e-05 7.85527343e-04 3.14307894e-04 1.47693776e-04
      -1.57340342e-04 -2.94810234e-05 -4.43620556e-05 -3.26844107e-04
      -1.29851280e-03 -7.06933846e-04 -6.24971872e-04 1.80302653e-04
      5.95557249e-05 -4.51730739e-04 -8.72435794e-06 3.76181357e-04
      5.11078106e-04 9.35641874e-04 -6.60236517e-04 -8.78657884e-05
      7.20302633e-04 9.71275789e-04 6.92213653e-04 8.94151817e-05
      -2.25024080e-04 3.90584522e-04 -6.17647602e-04 -3.83931270e-04
      -7.35075446e-04 -1.08314713e-03 7.95013737e-04 -4.59158444e-04
      -1.93094529e-04 -1.00624328e-03 -1.16015365e-03 -1.99628539e-05
      2.49731151e-04 7.53462489e-04 2.39456713e-05 6.21975400e-04
      4.26659390e-04 6.71164074e-04 1.78645772e-04 6.71654649e-04
      5.07314340e-04 -2.39008237e-04 -2.57230247e-04 -9.47871449e-05
      5.04883414e-04 -8.62545334e-04 -9.47416876e-04 -2.79134780e-04
      -6.24685548e-04 2.33414990e-04 6.40429498e-04 1.30985212e-03
      -1.10242123e-04 1.26986997e-03 8.88881332e-04 2.35737956e-04
      -4.21319099e-04 2.19607900e-04 3.46350687e-04 4.97061061e-04
      -2.76714592e-04 9.80287732e-05 4.82569740e-04 7.47810118e-05
      -9.87334992e-04 -4.54518042e-04 -5.37496875e-04 -5.14987041e-04
      1.33140973e-04 8.19069566e-04 -3.23960412e-04 6.17036712e-04
      8.93621109e-05 -1.50103413e-04 -7.82137504e-04 6.19621074e-04
      1.35982860e-04 1.01880498e-04 -7.06011488e-04 -5.81259555e-05
      3.76006647e-04 -3.34368699e-04 6.73635222e-05 1.00557525e-04
      -6.86858606e-04 -7.08764186e-04 2.33033061e-04 2.55750172e-04
      -5.12682716e-04 -4.70085186e-04 -1.12609814e-04 -2.40738736e-04
      -2.65605835e-04 5.51263627e-04 3.81385151e-04 -2.91444274e-04
      -2.12030340e-04 -7.51675034e-05 9.46209067e-04 -8.42252393e-06
      -3.59726488e-04 7.62507261e-04 -7.04937265e-04 -1.40757696e-03
      1.80302624e-04 3.36350422e-05 -1.26052974e-03 -5.73715603e-04
      -3.39709339e-04 -2.42406124e-04 4.01674952e-05 4.98932495e-04
      2.17262987e-05 -3.14053614e-04 -2.50438810e-04 -4.69687453e-04
      -7.38060102e-04 -7.75427732e-04 -7.71548017e-04 3.26991758e-05
      -8.64206115e-04 -4.12914698e-04 -3.95338691e-04 -3.91559937e-04
      -9.17745521e-04 -4.03944228e-04 1.04314380e-03 7.77078210e-04
      4.77661786e-04 1.07157696e-03 3.17942788e-04 -6.45923137e-05
      -6.08696602e-04 -6.88694068e-04 -6.00648746e-05 3.46308341e-04
      -5.53964812e-04 2.44315190e-04 -6.72853130e-05 2.69195123e-04
      -6.04665605e-04 -3.70321097e-04 -1.54688209e-03 3.10360541e-04
      1.01742637e-03 4.73036052e-04 -1.70850268e-04 1.17847332e-04
      2.48576049e-04 -1.33932813e-03 -3.45142354e-04 -1.05203898e-03
      4.76940564e-04 1.95361805e-04 -4.26960352e-04 1.43345131e-03
      3.53293901e-04 -5.90687327e-04 4.28353706e-05 6.11571159e-05
      -9.32036492e-04 8.73509853e-04 1.28756231e-03 4.81522031e-04
      -1.46990162e-04 -1.49479849e-04 5.19706926e-04 -4.27662919e-04
      3.53380980e-04 -3.33370932e-04 2.96261482e-04 -1.23816938e-03
      -1.42136007e-03 -6.76330001e-06 -8.32944570e-05 -3.21384199e-04
      -6.75102987e-04 -2.98886938e-04 1.82684671e-04 8.17324326e-04
      7.38644856e-04 3.02696746e-04 3.99079872e-04 6.32349169e-04
      6.29593967e-04 2.73724698e-04 1.85620016e-03 1.55328854e-03
      -5.83443267e-04 -6.24728447e-04 -1.76398898e-04 4.72231797e-04
      -1.46458822e-03 -1.05574937e-03 -9.73973874e-05 -5.80588006e-04
      -3.56337754e-04 1.10777335e-04 1.43616030e-03 -5.71506098e-04
      -1.53341491e-04 5.89356874e-04 6.16844220e-04 6.61218073e-04
      5.99638966e-04 1.42549002e-03 1.41154975e-04 5.96677361e-04
      4.43808181e-04 -1.44624399e-04 -1.15319749e-03 -1.04472309e-03
      -6.95359893e-04 -1.45796366e-04 -1.06529496e-03 -2.30199759e-04
      8.26531672e-04 2.90698721e-04 -1.03903127e-04 -2.32570237e-04
      -1.63647474e-03 -1.22142583e-03 -1.15049805e-03 -1.82206888e-04
      1.75183523e-03 1.16534880e-03 1.19324075e-03 9.94347036e-04
      3.17864295e-04 7.47431070e-04 -1.32731211e-05 5.27653203e-04
      -5.46062540e-04 2.32859878e-04 1.19349489e-03 2.36917593e-04
      2.54346669e-04 2.18116940e-04 -3.42878018e-04 -3.52637231e-04
      -4.31209686e-04 7.15045971e-05 1.66682021e-05 -1.34047848e-04
      -3.31908144e-04 5.28549659e-04 -2.34946638e-04 2.03118194e-04
      -7.59915682e-04 -9.22210864e-04 -1.22238684e-03 7.19200994e-04
      9.67990491e-04 1.09835400e-03 6.58453646e-05 7.54152643e-05
      4.00880672e-05 -5.46405732e-04 4.00204735e-04 3.90964182e-04
      -1.24445098e-04 6.66052802e-05 5.78740495e-04 8.47405288e-04
      2.34492472e-04 -1.14018214e-03 -5.47215459e-04 -3.59956379e-04
      -6.27346744e-04 9.68095206e-04 4.34487942e-04 1.33027218e-03
      5.71499637e-04 1.39129101e-04 6.45158812e-04 -3.25038825e-04
      5.22790397e-05 2.76777952e-04 1.46632176e-03 9.89470049e-04
      -2.07768622e-04 -1.69999796e-04 5.06243523e-05 -1.51578535e-03
      -8.43022062e-05 4.71780077e-04 1.58143448e-04 1.24713755e-03
      1.12982152e-03 1.62492122e-03 -2.10529557e-04 -3.39253078e-04
      -6.44643209e-04 -2.52856611e-04 6.19461236e-04 7.06735300e-04</_>
    <_>
      7.06941471e-04 -1.33066351e-04 1.58996278e-04 1.88327074e-04
      4.37049806e-04 5.66358445e-04 5.49164193e-04 -3.16833204e-04
      -3.52948729e-04 -2.33387866e-04 -3.40861210e-04 -8.39989225e-04
      -5.36491512e-04 -1.54996791e-03 -3.62651102e-04 -9.58980643e-04
      2.10280600e-03 1.26916973e-03 -1.14936125e-03 -1.61743665e-04
      6.52751420e-04 6.83901657e-04 -3.36338591e-04 1.05395052e-03
      7.45942001e-04 8.81939894e-04 -3.97548047e-06 3.11374373e-04
      6.31512783e-04 3.90421046e-04 7.04734412e-04 4.14916110e-04
      1.05312304e-03 -2.67293450e-04 1.44734664e-03 7.04615435e-04
      -1.72917906e-03 -2.62804038e-04 -3.32483381e-04 -7.50123872e-04
      -2.34346036e-04 4.04667371e-04 -1.34762915e-04 3.98829201e-04
      -1.05113862e-03 -1.31034979e-03 -4.24524071e-04 -8.83643632e-04
      -1.11678892e-05 -7.85474898e-04 9.28346184e-04 -1.39174587e-03
      -8.92268217e-05 -5.84755559e-04 -6.54591888e-04 3.30782641e-04
      4.71957581e-04 -2.94189522e-04 2.21713432e-04 -5.01401373e-04
      4.95107204e-04 2.45199801e-04 3.78356955e-04 4.97650879e-04
      -5.91957796e-05 -4.54196183e-04 8.24725896e-04 -5.86131318e-05
      1.87258483e-04 -1.47475966e-03 6.55661453e-04 -3.58947203e-04
      -2.57792941e-04 2.61260895e-04 -8.32650810e-04 -5.41700807e-04
      3.43603140e-04 4.45174897e-04 4.37953771e-04 1.26599602e-03
      -5.61909459e-04 3.95832700e-04 -3.46621418e-05 -6.17338374e-05
      7.92085557e-05 -7.17748015e-04 -2.14515268e-04 -2.72652484e-04
      1.37658906e-03 1.99511633e-04 2.85994116e-04 1.37118669e-03
      -2.15260021e-04 -1.16018033e-04 4.94941196e-04 1.25981495e-03
      3.54527205e-04 9.97419236e-04 -3.16761216e-05 1.06639091e-04
      -7.84560470e-05 -5.20247013e-05 4.79673734e-04 7.55833462e-05
      5.14062704e-04 9.90312910e-05 5.90661366e-04 -6.02984182e-05
      2.96512371e-05 -2.87327188e-04 -1.35139926e-04 4.52563632e-04
      9.73337854e-04 3.18355858e-04 4.20273049e-04 -9.29213566e-05
      -1.07674161e-03 -5.83708243e-05 -2.72638368e-04 -1.99530332e-04
      2.80045817e-04 6.77095784e-04 -2.09022764e-05 -8.98834027e-04
      4.96215245e-04 4.97580113e-05 -3.61693455e-05 -6.96187490e-05
      -5.85263551e-05 6.16436009e-04 3.64386506e-04 -2.02489362e-04
      5.51290927e-04 8.17911350e-04 -1.50145861e-04 4.32910223e-04
      3.11706564e-04 -2.60503351e-04 2.30590304e-05 -4.55521949e-05
      -7.26790749e-05 -8.25840456e-04 -1.56938258e-04 1.42102683e-04
      -1.76442962e-04 -1.41421289e-04 -7.44300254e-04 2.33668907e-04
      9.77862237e-06 -5.22457121e-04 1.42753968e-04 2.75172759e-04
      -8.33834638e-04 8.90204916e-04 5.26488759e-04 1.96633409e-04
      3.39671969e-04 -5.16896180e-05 -3.45398985e-05 -3.26287234e-04
      -2.89643242e-04 2.70047080e-04 6.26691966e-04 -5.64276241e-04
      5.24902425e-04 3.88735280e-05 -8.16619315e-04 -5.95890335e-04
      4.09042987e-05 7.06134015e-05 4.01138474e-04 1.09845714e-03
      -1.73653520e-04 -4.74924571e-04 9.45707841e-04 -6.01068255e-04
      -5.35418687e-04 -8.84007663e-04 -1.27038409e-04 -1.32131336e-05
      -8.23881128e-05 -3.96054209e-04 4.51223343e-04 8.65923881e-04
      -6.26284105e-04 -5.33551327e-04 8.03367526e-04 8.13326915e-04
      3.28754744e-04 5.82255016e-04 -2.79525906e-04 -1.24940253e-03
      2.64969945e-04 -5.55849867e-04 -3.86188658e-05 -6.07884140e-04
      1.21356723e-04 -5.78206033e-04 1.57697403e-04 -6.11313910e-04
      -8.12289945e-04 -4.16530296e-04 -2.20760499e-04 9.17872414e-04
      6.15210331e-04 1.32140913e-03 1.24743266e-03 7.36704620e-04
      6.94751681e-04 2.50040146e-04 9.95131326e-04 5.30092919e-04
      -4.76806919e-04 -8.74404970e-04 -6.25782995e-04 -8.68208881e-04
      -1.08615386e-04 -6.05249428e-04 -3.02573433e-04 -1.33944137e-04
      1.79395240e-04 5.71486831e-04 1.38538342e-03 9.39373975e-04
      3.14550853e-04 1.80359944e-04 2.65855706e-05 -7.34430621e-04
      1.57833725e-04 6.24508481e-04 -5.70145668e-04 -7.03001919e-04
      4.19891090e-04 -1.20780256e-03 1.89651255e-04 6.43001753e-04
      -9.76059993e-04 -1.93613319e-04 9.17945290e-04 1.55880803e-03
      9.37648583e-04 9.47426131e-04 3.76974844e-04 1.11290335e-03
      1.58987779e-04 -1.56200316e-04 3.19885585e-04 5.07964927e-04
      5.41812988e-05 -9.43790772e-04 4.38172050e-04 -9.37827746e-04
      1.04423647e-03 5.17197535e-04 -3.40220839e-04 2.74103833e-04
      3.78559431e-04 9.84159182e-04 4.90523176e-04 1.15973421e-03
      -2.08680576e-04 -1.17998209e-03 -2.36851105e-04 -9.74976283e-04
      -1.47834129e-03 -1.17431150e-03 -1.54427520e-03 -1.87882758e-03
      -7.55175948e-04 -7.52442051e-04 5.17361914e-04 7.75888446e-04
      -2.38420442e-04 -1.88970545e-04 -1.07643043e-03 -2.25277705e-04
      1.06610623e-05 6.62709412e-04 -1.96521578e-04 1.21695513e-03
      1.19477953e-03 -2.43922550e-04 6.32061157e-04 9.64787687e-05
      1.96216497e-04 2.82483350e-04 7.83295429e-04 1.32065010e-03
      9.91381123e-04 1.63900224e-03 2.10412167e-04 5.09956968e-04
      -4.54939232e-04 -6.88741275e-05 3.30247945e-04 1.13391725e-03
      3.90217057e-04 3.74824478e-04 3.79843084e-04 -7.87901634e-04
      6.52966410e-05 3.89402965e-04 5.58497850e-04 4.38072544e-04
      5.46088268e-04 1.04946701e-03 3.64879961e-04 5.89328294e-04
      -4.15891875e-04 -4.23468329e-04 -1.31500105e-03 -2.23328767e-04
      -8.68052011e-04 -8.59679480e-04 1.98093519e-04 -5.39340777e-04
      -4.76063084e-04 -5.35251980e-04 -8.93182412e-04 3.47025838e-04
      -6.96614326e-04 4.96993423e-04 8.52005265e-04 1.39668831e-04
      -1.50081629e-04 -4.79868941e-05 3.52427196e-05 1.56818933e-04
      -6.27755886e-04 -4.36797913e-04 -1.57745858e-03 -6.35266420e-04
      2.01379546e-04 -4.16361407e-04 6.55759868e-05 -6.27499423e-04
      -6.87516949e-05 4.02678008e-04 -4.84143646e-04 3.54702934e-04
      3.26504785e-04 -3.44593253e-04 6.87702195e-05 -8.40852095e-04
      1.12921618e-04 -1.23417308e-03 -1.51441287e-04 -4.55490808e-04
      -4.02544189e-04 -2.35551677e-04 2.92846118e-04 3.66293592e-04
      1.07718667e-03 -1.78459260e-04 4.31995722e-04 6.91314111e-04
      3.17716622e-04 -7.14091084e-06 3.74497031e-04 -3.90226342e-04
      1.39239116e-03 -1.06102794e-04 -3.93665541e-05 9.52652656e-04
      4.02370133e-05 1.50302323e-04 2.46055482e-04 -1.23287507e-04
      -3.95890704e-04 1.48798968e-03 1.25171139e-03 -5.51405945e-04
      2.96773651e-04 4.40240285e-04 2.63274647e-04 -9.41853970e-04
      3.80680576e-04 -7.53029890e-04 -1.34830043e-06 -2.67193362e-04
      -4.92404273e-04 7.10413733e-05 -6.83178543e-04 4.05207655e-04
      1.55957037e-04 2.34613726e-05 6.05720037e-04 9.70933819e-04
      8.85582005e-04 -3.27324262e-04 -6.18930280e-05 8.59630702e-04
      1.12007174e-05 -8.84560985e-04 -4.62807729e-05 -1.42308255e-03
      5.14314670e-05 -6.36005570e-05 -7.58943555e-04 -3.20269173e-04
      -1.69335235e-05 1.72213069e-04 1.39015887e-04 -5.05650532e-04
      -3.81983700e-04 1.00489834e-03 2.47712655e-04 -1.10112841e-03
      -4.34637856e-04 2.11560822e-04 5.58556640e-04 -2.69023411e-04
      -5.37742104e-04 -1.36488362e-03 -9.14840901e-04 -9.49445996e-04
      -6.72324968e-04 1.43696379e-04 -6.69810979e-04 -4.77611065e-05
      -3.34611046e-04 1.28534576e-03 6.00046245e-04 2.21643434e-03
      1.48008892e-03 -1.88721315e-05 3.19092011e-04 1.23062439e-03
      7.26338651e-04 -8.66242393e-04 -5.31095022e-04 -1.16841472e-03
      4.38400930e-05 2.48464581e-04 -6.79949371e-05 3.02817527e-04
      -2.03797463e-05 -9.82728125e-06 2.11157618e-04 3.73684510e-04
      -2.27682642e-04 6.60936057e-04 8.52225232e-04 -3.96611576e-04
      -4.42898017e-04 5.60837740e-04 9.49877067e-05 -8.14623141e-04
      -1.64682977e-04 -1.10807526e-03 -8.21516034e-04 1.52751760e-04
      5.03846793e-04 6.82444253e-04 -4.46833175e-04 -9.32250347e-04
      8.61107947e-06 -5.25712909e-04 -2.35200074e-04 1.81892290e-04
      3.40125989e-04 -4.92079533e-04 -3.06774687e-04 6.96220784e-04
      5.34471881e-04 4.34684480e-05 6.62984152e-04 3.07880720e-04
      -2.57521606e-04 -1.26831306e-04 1.03157549e-03 9.14075412e-04
      -5.88676718e-04 -2.78002790e-05 1.12707465e-04 4.21049830e-04
      -1.36766903e-04 9.68472814e-05 7.41542375e-04 1.23461767e-04
      7.12592679e-04 1.29239843e-03 6.72619441e-04 -4.26148355e-04
      -6.77889693e-05 -3.17511527e-04 -2.71178229e-04 -1.29632812e-04
      7.67441408e-04 1.01869475e-04 -8.92791199e-04 -2.36066597e-04
      2.97256447e-05 -1.32565922e-03 -1.58809242e-03 -5.33231418e-04
      -2.97877181e-04 -1.01988309e-03 2.65953859e-04 3.91682639e-04
      1.68660117e-04 -1.20080239e-03 -3.07634153e-04 -6.96926436e-04
      -1.78515981e-03 -5.29661542e-04 -1.77889349e-04 -5.17906738e-04
      -1.26478635e-03 2.56764441e-04 -1.30228771e-04 -9.32790805e-04
      -1.33566091e-05 3.46913468e-04 7.01613841e-04 2.35666696e-04
      4.49661282e-04 1.11025700e-03 8.87795293e-04 -3.53459269e-04
      3.10212163e-05 -1.73608802e-04 2.34812123e-05 5.96456463e-04
      -4.40757780e-04 3.93398834e-04 -4.98879417e-05 -6.44537504e-05
      -4.22134646e-04 -1.11010380e-03 -1.54237577e-03 -5.31673664e-04
      7.38666975e-04 -7.82639036e-05 -2.97338149e-04 -4.87040888e-05
      3.95419804e-04 -1.03798334e-03 -2.77933839e-04 -6.78279539e-05
      2.32475970e-04 1.02066307e-03 6.69362955e-04 1.40708615e-03
      8.74776626e-04 -3.17231243e-05 1.87410624e-04 8.12050712e-04
      -1.83033422e-04 4.49451414e-04 1.78416003e-03 -4.58900380e-04
      3.04287169e-05 2.53255654e-04 1.51297834e-03 2.68983160e-04
      1.49035652e-03 2.85251328e-04 -1.05307065e-03 -1.43282942e-03
      -2.12333142e-03 -8.04700423e-04 -1.50428596e-03 -1.19328126e-03
      -7.93985499e-04 -1.26928708e-03 -6.65830681e-04 2.99396255e-04
      7.98650028e-04 -3.78093566e-04 -7.69690741e-05 -9.91334557e-04
      1.24909659e-03 -7.96206121e-04 9.14942182e-04 -7.36547692e-04
      -4.39836789e-04 3.94640403e-04 -4.32833971e-04 7.73026659e-06
      -6.67395361e-04 4.75846027e-05 3.86324362e-04 -7.36169808e-04
      -4.47236118e-04 7.71310588e-04 1.15626981e-03 4.13476984e-04
      -2.23867886e-04 -1.22767975e-04 1.49225956e-03 7.13370828e-05
      8.04949086e-04 -2.05411547e-04 -2.92305194e-04 4.86422679e-04
      -4.85469267e-04 -4.62591503e-04 -1.47677411e-03 -1.55361369e-03
      -2.21504321e-04 -1.06300996e-03 -1.17278565e-03 3.11218319e-04
      5.52455196e-04 -2.27674158e-04 2.08617712e-04 6.76097989e-04
      7.04662234e-04 -1.55550544e-04 8.60430708e-04 2.32221442e-04
      1.18079921e-03 1.20974460e-03 7.80657341e-04 4.60252399e-04
      3.45455104e-04 8.75742058e-04 5.47578209e-04 -8.33932718e-04
      -8.91234304e-05 9.48221830e-04 -6.41621373e-05 -3.94378876e-04
      -6.68272041e-05 1.19680387e-03 8.19389126e-04 9.62722406e-05
      6.67434244e-04 2.31657468e-04 -6.48522459e-04 4.69431368e-04
      -2.59875698e-04 -3.84535379e-04 4.63000288e-05 8.20945206e-05
      -2.66349205e-04 -3.35711666e-04 -1.42129755e-03 6.75111223e-05
      7.95440574e-04 -6.25642424e-04 7.22531811e-04 1.61288271e-03
      1.62942844e-04 -1.91354789e-04 7.73640350e-04 5.95385733e-04
      3.33054886e-05 7.24577927e-04 1.97526417e-04 3.61420942e-04
      -5.25597017e-04 -6.05954847e-04 -4.29834559e-04 -7.07302679e-05
      -1.04665334e-04 1.25882871e-04 1.49715075e-03 8.74346224e-05
      8.45633156e-04 5.60941815e-04 7.09599524e-04 -1.21760830e-04
      4.83589974e-05 -4.79055860e-04 -1.31339664e-04 7.23719248e-04
      -4.43788478e-04 -1.18638354e-03 -4.87788988e-04 -6.69181754e-04
      -2.71778146e-04 1.07948692e-03 -7.45708938e-04 4.02908889e-04
      1.34508288e-03 -5.85570633e-05 7.51667074e-04 1.65667932e-03
      -4.50743799e-04 -3.84652201e-04 3.14036210e-04 -5.61678535e-05</_>
    <_>
      -7.53333385e-04 3.30334406e-05 -5.29925688e-04 -2.40858019e-04
      -1.29214313e-03 -2.31792365e-04 7.54471112e-04 2.44497816e-04
      1.10558944e-03 6.80699770e-04 -5.23944582e-05 -7.43718469e-04
      -1.13940844e-03 -1.92172272e-04 6.28896232e-05 -1.65978738e-04
      1.43369008e-03 1.97377289e-03 -1.29666005e-03 -5.77996485e-04
      -6.36140874e-04 -7.19200980e-05 -1.71446824e-03 -6.44360262e-05
      5.44510782e-04 1.12187339e-03 4.35705850e-04 1.62269698e-05
      -2.61437730e-04 7.62615411e-04 -1.02529739e-04 3.63168889e-04
      -4.47212733e-05 2.30586986e-04 6.45680237e-04 5.44908107e-04
      -1.12366665e-03 -2.58891756e-04 -5.34607912e-04 5.98683755e-07
      -1.14198960e-03 -1.28203057e-04 4.80045528e-05 8.87609378e-04
      1.68757208e-04 -4.96221073e-05 -4.58455004e-04 6.94991031e-04
      1.55855948e-03 1.05846534e-03 9.00768675e-04 -6.85818377e-05
      -3.96633230e-04 4.74248984e-04 -1.00611988e-03 9.42355953e-04
      9.24918393e-04 5.22252347e-04 -9.02739994e-04 -8.26953095e-04
      -4.61779506e-04 6.00348401e-04 -6.75448609e-05 5.33648883e-04
      -5.51741861e-04 1.97244372e-04 8.90388546e-05 1.26408544e-04
      4.43368626e-04 3.91302274e-05 6.07365044e-04 6.67909684e-04
      -8.94453027e-04 6.97527430e-04 7.61889271e-04 1.04707701e-03
      -9.78500233e-04 -4.52485401e-04 -2.96328479e-04 1.07467051e-04
      -4.08756372e-04 -1.48446008e-04 -9.34185926e-04 2.87818752e-04
      -3.87124630e-04 -4.78306727e-04 4.56228707e-04 4.97431203e-04
      8.22558883e-04 1.12219388e-03 -1.07416708e-03 5.35540225e-04
      7.02657417e-05 -2.87381816e-04 -9.55693889e-04 -7.70100800e-04
      -1.29222928e-04 -2.98760162e-04 -8.51922887e-05 -5.92719123e-04
      -6.71513670e-04 -1.07083957e-04 -9.10365314e-04 -2.35148364e-05
      3.01086082e-04 5.61074303e-05 3.73730552e-04 2.57626525e-04
      -6.90936635e-04 -5.27093889e-08 1.05331355e-05 5.33315528e-04
      -8.77585437e-04 -1.21567911e-03 -3.53284297e-04 5.04529977e-04
      -3.75540141e-04 7.21142569e-04 -1.00291113e-03 3.15764686e-04
      3.14679695e-04 5.05377247e-04 3.61629238e-04 3.43518535e-04
      1.55048052e-04 -3.39061924e-04 -1.17463176e-03 -2.66694224e-05
      1.02004815e-05 9.55810654e-04 -1.06269750e-03 -6.10925665e-04
      4.50818043e-04 8.18258442e-04 1.29787571e-04 4.44618627e-06
      -1.30830402e-03 -4.52213833e-04 5.74573005e-06 -1.03253091e-03
      -5.99651888e-04 -5.02779265e-04 -9.27898800e-04 -1.26249332e-04
      -3.47787834e-04 2.82585272e-04 -4.00556019e-04 6.74380222e-04
      -1.95547123e-04 1.82772885e-04 8.98469414e-04 1.57424936e-03
      4.16813971e-04 7.85574550e-04 9.27624642e-04 4.78082889e-04
      3.27378832e-04 2.17736844e-04 6.68742141e-05 -1.72102213e-04
      -8.29651486e-04 1.88093691e-04 -6.11945434e-05 -1.40983408e-04
      2.18175792e-05 3.14729114e-04 -1.06997218e-03 -6.58188947e-04
      2.46233365e-04 8.98567494e-04 -2.96184153e-04 2.19120382e-04
      -1.24469271e-03 -8.44397699e-04 -1.64093581e-05 4.52169661e-05
      2.83884892e-05 -2.38759647e-04 -3.20287538e-04 -5.20865906e-05
      -7.74973247e-04 -7.64989061e-04 -1.04284263e-05 2.30422054e-04
      -1.02006015e-03 -7.62247597e-04 3.41118954e-04 7.07214058e-04
      1.80318675e-04 6.79941382e-04 -8.44215159e-04 -2.38084467e-04
      -5.26433905e-05 -2.00217110e-04 3.14875942e-04 -1.47796352e-04
      1.13484726e-04 -1.24168932e-04 -1.43949629e-03 -3.95157811e-04
      -1.66996033e-04 -3.79095931e-04 -1.18685490e-03 -2.03650707e-05
      2.89442221e-04 6.23134780e-04 2.89215095e-04 8.39365006e-04
      5.40483234e-05 2.04709373e-04 -7.63085613e-04 -7.45030295e-04
      -2.37230430e-04 -6.70199806e-04 7.17594085e-05 -3.10347154e-04
      -3.01616965e-04 1.48317165e-04 -1.75932670e-04 2.11529390e-04
      -1.12095685e-03 -1.07056519e-04 1.13019755e-03 1.42819167e-03
      1.65069447e-04 3.80167126e-04 -4.80805065e-05 3.80357465e-04
      3.31767049e-04 1.02957783e-04 -2.02623400e-04 -4.11963614e-04
      1.25140054e-04 -5.49875374e-04 5.63316396e-04 5.72912861e-04
      -5.83666493e-04 -2.85590359e-04 -8.68560455e-04 7.02411635e-04
      8.92697601e-04 1.33557408e-03 7.57320900e-04 7.77048990e-04
      5.92735771e-04 5.85622038e-04 4.95787826e-04 6.73624803e-04
      -1.45663536e-04 -5.47315343e-04 4.95848130e-04 -8.73119396e-04
      4.53465240e-04 3.04569985e-04 -9.57832148e-04 -6.39600737e-04
      -1.11184514e-03 3.51246963e-05 6.85838051e-04 1.15967472e-03
      -8.79187646e-05 -1.83019612e-04 -3.85760104e-05 -6.30996219e-05
      1.60082220e-03 9.18632868e-05 -7.29124062e-04 -1.76169327e-04
      3.69708694e-04 5.51262201e-06 1.10865396e-03 7.84037635e-04
      -7.61472445e-04 -2.16577944e-04 -1.47880288e-03 -2.36718319e-04
      4.79318587e-05 1.36180455e-03 6.90707966e-05 -2.77631159e-04
      -2.06079581e-04 -1.88198101e-05 -4.72362735e-05 -7.00305798e-04
      -6.59181678e-04 -1.29221735e-04 -6.46647386e-05 -8.84588662e-05
      -1.08538094e-04 -3.95177020e-04 1.16716838e-04 -3.92689108e-04
      -8.93034099e-04 1.00976242e-04 6.41658902e-04 1.26267655e-03
      -7.60866562e-04 -3.75813252e-04 -6.50220201e-04 -9.24837892e-04
      -3.24622641e-04 4.87700687e-04 -6.16634265e-04 4.77904105e-04
      -1.30280008e-04 3.94533679e-04 -4.32856148e-04 5.33478102e-04
      -8.05459509e-04 -1.31609547e-03 -1.67465443e-03 -2.14864776e-04
      -5.23490016e-04 3.68218869e-04 1.36305942e-04 5.43776143e-04
      -2.14512009e-04 9.36982760e-05 -3.44389875e-04 4.69888997e-04
      -1.53095368e-03 4.04532067e-04 -6.63917162e-05 -1.64183951e-03
      1.01340709e-04 4.07393993e-04 -9.91228153e-04 -1.49845509e-04
      -7.01941433e-04 3.02071421e-04 3.03095749e-05 1.05608511e-03
      1.09764002e-03 5.45512245e-04 -1.68818424e-05 8.04064985e-05
      3.82512517e-04 7.70677638e-04 -4.17967269e-04 4.54944588e-04
      -6.18775903e-06 -9.03765438e-04 3.35839984e-04 -1.65233752e-04
      -8.78407271e-04 -3.69196729e-04 5.29036588e-05 6.56509597e-04
      4.72263520e-04 6.35504897e-04 6.28692040e-04 1.34408346e-03
      4.80841642e-04 3.87519307e-04 2.43291201e-04 1.89485989e-04
      4.32474102e-04 2.55588442e-04 -9.85688821e-05 1.11705522e-04
      5.62322733e-04 -3.14241712e-04 -6.61725702e-04 4.68514801e-04
      1.48831576e-04 9.77052376e-04 6.01772335e-04 3.51839321e-04
      -1.60254145e-04 9.31430783e-04 2.32431223e-04 -1.81548574e-04
      4.59430099e-04 1.37523585e-03 7.10521184e-04 4.22103563e-04
      2.57597800e-04 4.45765530e-04 1.07715465e-03 4.99954622e-04
      -4.65323683e-04 7.73503052e-05 -2.47329997e-04 7.43167067e-04
      3.27440852e-04 9.81096760e-04 9.89289023e-04 4.12892201e-04
      2.68983858e-05 3.29548115e-04 -1.69605759e-04 -1.39602023e-04
      -9.20536346e-04 -5.65205875e-04 -3.32055846e-04 -5.08827216e-04
      -2.15871332e-04 1.74277418e-04 -7.41200987e-04 1.30353379e-04
      7.09717686e-04 1.70819613e-03 -4.42509161e-04 4.22379526e-04
      4.37053590e-04 6.92183210e-04 9.93764610e-04 -9.98934731e-04
      -1.37539973e-04 3.78634832e-05 2.30644888e-04 4.79990471e-04
      1.32956120e-04 -3.63341329e-04 -1.90539984e-04 -1.02446531e-03
      -1.15261960e-03 4.11412650e-04 5.26184856e-04 6.89293025e-04
      -5.54427330e-04 1.04159233e-03 5.91408498e-05 7.69254257e-05
      -7.03852638e-05 -4.74253204e-04 5.56166691e-04 4.26886021e-04
      4.13573929e-04 -1.84404489e-04 -3.59127182e-04 -6.09617913e-04
      7.39316049e-04 -3.24803084e-04 -1.30128616e-03 2.71260185e-04
      3.80997924e-04 5.58395870e-04 -4.77885973e-04 3.40886327e-04
      5.03609772e-04 1.82677322e-05 6.70120789e-05 -2.97758466e-04
      -4.38084331e-04 6.20319392e-04 -2.62858201e-04 2.67840132e-05
      -3.09571013e-04 -3.83502425e-04 -3.82696831e-04 -6.37763995e-04
      -1.16143026e-03 3.02925473e-04 1.07201049e-04 -3.22705164e-05
      -1.08048902e-03 1.35873386e-04 8.80563894e-05 1.78489252e-04
      2.50060315e-04 6.78323151e-04 7.99973350e-06 7.12131558e-04
      -1.16054993e-03 5.48261887e-05 5.07933510e-05 1.86713092e-04
      4.82175063e-04 3.84716055e-04 5.94665355e-04 8.21471214e-04
      -1.38860848e-03 -6.52651477e-04 -7.44245655e-04 1.34840928e-04
      -6.68013818e-05 -4.90757404e-04 -8.67168346e-05 6.35097735e-04
      1.06128042e-04 5.45276387e-04 3.64204141e-04 4.14280017e-04
      2.00507220e-05 2.21131690e-04 9.45256499e-04 1.15783955e-03
      1.00027413e-04 8.10936443e-04 -7.04569451e-04 -2.46101001e-04
      -4.61346826e-05 -2.72952457e-04 -1.25298579e-03 8.76894570e-04
      -5.22230577e-04 -5.27377008e-04 4.17549454e-04 2.72281177e-04
      1.05329894e-03 7.24194397e-04 7.51938845e-04 5.60847810e-04
      -5.94353012e-04 -1.99434042e-04 -7.61151779e-04 2.20487273e-04
      -4.81621886e-04 8.10569152e-04 -8.32824444e-04 -1.19249301e-03
      -1.66920456e-03 -6.11404830e-04 -5.20961243e-04 1.18982862e-03
      -6.17734971e-04 4.83975076e-04 1.44070969e-03 8.86300113e-04
      7.45005440e-04 5.46983210e-04 2.79473286e-04 4.89134691e-04
      -7.69048289e-04 6.32967625e-04 6.52335802e-05 3.53765325e-04
      -1.71173166e-03 -6.97893731e-04 -2.31217127e-03 -6.56440970e-04
      -2.10389378e-04 -2.60639918e-05 1.60487660e-04 4.82654723e-04
      4.09127329e-04 1.12727219e-04 7.23193225e-04 3.71146481e-04
      1.65571444e-04 1.31424649e-05 -3.11777927e-04 1.29402312e-03
      2.45137431e-04 4.35076799e-05 -8.19206296e-04 -1.81946700e-04
      -1.28501270e-03 1.61093695e-03 3.60956998e-04 -3.72762879e-04
      -8.55830382e-04 -1.40045187e-03 -6.49717404e-04 -3.03356588e-04
      6.63332175e-04 -8.11616428e-06 3.83485836e-04 2.93698657e-04
      -6.93514827e-04 3.25015542e-04 5.78752952e-04 -2.41725211e-04
      -9.17521596e-04 -3.88416083e-04 -1.10301445e-03 5.08715108e-04
      9.94985458e-04 3.79924204e-05 -4.65472491e-04 -1.04570086e-03
      6.32358569e-05 2.85713206e-04 7.41315947e-04 2.75348400e-04
      1.44888632e-04 8.62583111e-04 -6.97841810e-04 -2.95740174e-04
      -3.52266623e-04 -5.75850136e-04 -1.22852065e-03 -4.77911643e-04
      -1.07138010e-03 6.26079098e-04 5.38169872e-04 3.27344227e-04
      -7.71670602e-04 -3.20248830e-04 3.65540880e-04 8.51029035e-05
      -4.57925460e-04 -5.78190411e-05 1.25736592e-03 9.08318150e-04
      5.21603157e-04 4.69854742e-04 6.79018240e-06 -8.43582966e-04
      -1.34231057e-03 5.33782732e-05 -1.28696824e-03 5.53086400e-04
      8.12113052e-04 5.35320840e-04 5.58221247e-04 9.49420268e-04
      4.67833561e-05 -5.75462473e-04 -4.15844232e-04 1.12687383e-04
      6.45178719e-04 2.05153716e-04 2.59268418e-04 4.03462065e-04
      1.17168769e-04 5.09359292e-04 1.08737149e-05 3.18830389e-05
      -7.04944425e-04 1.35576294e-03 6.50157570e-04 7.10981112e-05
      1.25841214e-03 2.94400175e-04 -3.61074897e-04 -4.54298752e-05
      -3.07562295e-04 -3.92188049e-05 -3.63129511e-04 -3.92952556e-04
      -9.22809704e-04 -1.18339260e-03 1.07492946e-04 4.79520444e-04
      -3.28426308e-04 -2.00037524e-04 -1.41826819e-03 -4.08579945e-04
      -6.56609831e-04 -1.80193616e-04 6.23239379e-04 6.32860756e-04
      1.55249523e-04 4.11493005e-04 6.07375288e-04 1.08697754e-03
      1.11469548e-04 -1.84809789e-04 -3.72097391e-04 2.07439007e-04
      -1.33520598e-05 -2.24880845e-04 -6.25803877e-05 3.91358684e-04
      -7.82571500e-04 2.00855880e-04 5.18245099e-04 9.44318017e-04
      6.55938406e-04 -1.14173999e-04 7.85313969e-05 -4.29215470e-05
      -2.05664575e-04 1.66368874e-04 7.30796673e-05 1.02090288e-03
      -1.12003519e-03 -1.01745347e-04 8.32441554e-04 5.48042764e-04
      9.42644314e-04 1.28104480e-03 3.03077977e-04 7.25904538e-04
      6.47645851e-04 8.96553276e-04 2.96898215e-04 8.49973527e-04
      -3.95428651e-04 -4.43656521e-04 -7.81099152e-05 -1.80313102e-04</_>
    <_>
      5.60229819e-04 1.44034228e-03 -9.59803128e-06 1.32264616e-03
      4.72050626e-04 4.65875986e-04 3.31836491e-04 4.15010327e-05
      -4.79344279e-04 -4.46851482e-05 5.46437514e-04 -2.37325745e-04
      -3.08538933e-04 -1.19239860e-03 -2.37254397e-04 -6.35280274e-04
      -6.11503056e-05 5.81107233e-05 -3.35489633e-04 6.86646963e-04
      6.80266588e-04 1.85794022e-03 5.99074585e-04 1.02311221e-03
      -9.21454630e-05 3.14880483e-04 -1.50514810e-04 -7.31845503e-05
      2.13541527e-04 1.34455011e-04 8.04867614e-06 -2.82904046e-04
      1.59276926e-04 6.34974349e-05 5.29880112e-04 6.79922116e-04
      2.24948701e-04 2.42807524e-04 -2.64670496e-04 3.48294387e-04
      -1.12219168e-04 -1.94020511e-04 -6.49215304e-04 -3.82703613e-04
      -4.38325398e-04 -2.32044593e-04 -4.87694488e-04 -7.94428997e-05
      -2.06454759e-04 1.10902838e-04 4.52853492e-05 -6.59605794e-05
      4.68200975e-04 4.30251675e-04 -1.69105333e-04 1.18325195e-04
      -4.15793504e-04 -3.48583679e-04 -2.92747514e-04 -5.93783625e-04
      -8.19259498e-04 3.48481175e-04 -2.77327577e-04 -2.50834739e-04
      -1.06794418e-04 2.60606957e-05 1.24931466e-04 -5.77810395e-04
      -2.46670708e-04 -5.02216280e-04 1.61316813e-04 8.00339796e-04
      1.22866617e-03 1.29017525e-03 7.12100664e-05 3.53250827e-04
      3.16083664e-04 1.43139754e-04 -6.43842359e-05 3.95320152e-04
      2.54879036e-04 3.68275563e-04 8.72940873e-05 3.81486607e-04
      -3.09193092e-05 -4.37613024e-04 4.87939804e-04 5.06217650e-04
      1.23780640e-03 1.09196315e-03 5.05601405e-04 1.16803253e-03
      -5.27133874e-04 -2.23708499e-04 -8.71499797e-05 3.85692954e-04
      -4.40768781e-04 -1.25439357e-04 -2.84707610e-04 -5.89448784e-04
      -3.45065171e-04 -1.52290799e-04 -3.56351404e-04 -9.67508939e-04
      4.27069699e-06 8.90966985e-05 2.56613217e-04 2.29994766e-04
      -1.04072416e-04 -1.09645502e-04 -6.20447565e-04 -4.51407686e-05
      3.86013489e-05 -2.47145188e-04 -4.58485301e-04 -7.39610346e-04
      -8.17880849e-04 -7.73389009e-04 -5.48414071e-04 -3.23465269e-04
      -3.25791596e-04 -5.90656302e-04 8.94004115e-05 -4.90629522e-04
      1.53043788e-04 1.30860164e-04 -4.51442203e-04 -1.88456223e-04
      -1.05791943e-04 4.76401445e-04 1.99717397e-05 -2.06672892e-04
      4.97546898e-06 3.50808492e-04 4.91382489e-05 -2.42618538e-04
      -6.02177111e-04 -3.35409568e-04 -8.42864625e-04 -5.82927954e-04
      -1.36406103e-04 -1.04024133e-03 -1.06465421e-03 -1.49098414e-04
      -1.00095684e-04 3.89636087e-04 3.42672138e-04 9.30317910e-04
      2.55862687e-04 4.25337785e-04 7.53522501e-04 1.54238986e-03
      5.35680214e-04 3.54529417e-04 -1.93345822e-05 4.74882516e-04
      -1.04958963e-04 5.25214236e-05 1.46536971e-04 -4.73860506e-04
      2.53363716e-04 3.98075936e-04 -6.52612071e-05 -1.15662231e-04
      9.28019057e-04 7.12518522e-04 -3.11953627e-04 5.17530461e-05
      9.32816940e-04 1.29929837e-03 5.62471687e-04 7.72401225e-04
      1.02054677e-03 7.82265153e-04 5.77307772e-04 5.07304620e-04
      -1.43551097e-05 -1.22076983e-03 3.37246776e-04 -2.97613533e-05
      -3.63000654e-05 5.68711494e-06 2.66359188e-04 6.55139680e-04
      -1.12153655e-04 -1.31340194e-05 3.65369575e-04 1.38156262e-04
      4.70081810e-04 5.41181362e-04 4.38913354e-04 -1.67253995e-04
      2.54222978e-04 2.43736897e-04 8.32135993e-05 -5.58695931e-04
      4.04899802e-05 -3.16139049e-04 1.74828710e-05 -5.37817541e-04
      -4.57956194e-04 -4.79077062e-05 5.00863127e-04 3.87250329e-04
      3.15699668e-04 3.66819615e-04 5.51351404e-04 4.12096735e-04
      8.87471775e-04 3.61674145e-04 1.77547772e-04 -7.82294665e-04
      -9.57347685e-04 -8.78985564e-04 -1.87135898e-04 1.05173953e-04
      1.82212156e-04 -4.58616385e-04 -1.56734677e-04 6.51491282e-04
      4.29008505e-04 5.33570710e-05 4.99969348e-04 5.41116227e-04
      1.19433193e-04 3.84780113e-04 8.38675245e-04 -3.58617806e-04
      -8.13559163e-05 -1.40959033e-04 -3.10192758e-04 -5.21383598e-04
      2.70859979e-04 -1.19743519e-04 2.52219150e-04 1.78377319e-04
      5.37984670e-05 8.11291218e-04 3.57957702e-04 -6.13896482e-05
      9.16728968e-05 7.49988365e-04 9.86915664e-04 9.37920122e-04
      4.40641423e-04 2.81848643e-05 4.05422397e-05 3.95819137e-04
      -5.15463413e-04 -1.59714356e-04 1.95299348e-04 -4.52586173e-05
      5.31805097e-04 1.79086914e-04 -5.86789974e-04 4.23598831e-04
      2.20536298e-04 2.18423200e-04 -3.86743777e-04 5.46069758e-04
      4.26663988e-04 6.37264457e-04 1.42266566e-04 1.22327310e-05
      -3.75185336e-04 -6.93019774e-06 -5.49865363e-04 -2.49259523e-04
      -3.13708937e-04 -1.21780658e-05 4.20851225e-04 1.08507746e-04
      -4.78009606e-04 6.08257134e-04 -2.80302076e-04 -9.14437478e-05
      -2.31752914e-04 4.95042943e-04 5.39567147e-04 6.21825049e-04
      2.25061085e-04 -6.75442454e-04 -4.06776788e-04 -5.43156420e-05
      -4.01395024e-04 -3.33362026e-04 -8.12648213e-05 -4.49441985e-04
      -5.13113591e-05 3.73169227e-04 -4.06387320e-04 5.37017535e-04
      1.85358018e-04 1.89641098e-04 1.04239611e-04 7.83751428e-04
      3.96128366e-04 6.27466943e-05 -3.06665897e-04 -7.97603454e-04
      -1.92918145e-04 -2.55523755e-05 -1.10456767e-03 -1.14355853e-03
      -1.04156591e-03 -4.67155012e-04 -1.03665741e-04 6.69070068e-05
      -7.38388626e-04 1.92927968e-04 -5.03365998e-04 -1.75815891e-04
      -6.79252029e-04 -2.80703156e-04 -2.36059015e-04 -1.92949927e-04
      1.69257197e-04 3.08417511e-05 5.22766670e-04 6.72979921e-04
      -7.38422561e-04 1.25833598e-04 1.36375325e-04 -1.99545801e-04
      -7.98517314e-04 -2.92204204e-04 -4.93361731e-04 2.47079966e-04
      -3.76020878e-04 -1.60519121e-04 -5.80235617e-04 -4.32271016e-04
      -3.13286117e-04 -5.10896614e-04 8.85963847e-04 9.50144531e-05
      -3.95410498e-05 8.02685681e-05 -8.30061617e-04 -4.43530560e-04
      -4.80690869e-05 -2.29534344e-05 4.39981406e-04 3.45865992e-04
      1.33443718e-05 1.82982854e-04 2.12455343e-05 -3.79403180e-04
      -4.09018045e-04 -1.41365716e-04 -1.05984895e-04 9.29531670e-05
      7.23005505e-04 2.06400146e-04 6.08297531e-04 5.78179141e-04
      5.37990709e-04 -3.29805975e-04 -2.33157349e-04 -5.13342035e-04
      2.61868990e-04 -6.06430985e-04 -5.89691510e-04 3.69631045e-04
      1.21597513e-05 -1.61362055e-04 -4.61641117e-04 -5.11883642e-04
      -2.80859880e-04 -2.00499446e-04 5.44137438e-04 2.04247015e-04
      2.37621556e-04 2.13998559e-04 4.42991441e-04 1.61774791e-04
      1.49733620e-04 3.70742957e-04 1.12496869e-04 -6.03671127e-04
