<?xml version="1.0"?>
<opencv_storage>
<opencv_ml_svm>
  <format>3</format>
  <svmType>C_SVC</svmType>
  <kernel>
    <type>LINEAR</type></kernel>
  <C>1.</C>
  <term_criteria><iterations>1000</iterations></term_criteria>
  <var_count>972</var_count>
  <class_count>6</class_count>
  <class_labels type_id="opencv-matrix">
    <rows>6</rows>
    <cols>1</cols>
    <dt>i</dt>
    <data>
      0 1 2 3 4 5</data></class_labels>
  <sv_total>15</sv_total>
  <support_vectors>
    <_>
      -6.06357772e-03 1.98149192e-03 7.12906150e-03 1.29574947e-02
      1.25784175e-02 -1.28870588e-02 -1.44404564e-02 -1.27118276e-02
      -1.72862727e-02 -1.55687761e-02 -5.36291068e-03 -2.70343036e-04
      4.87311184e-03 5.95651232e-02 -3.87810953e-02 -6.11888841e-02
      -7.25130141e-02 -3.95920426e-02 7.37581961e-03 -3.88505519e-03
      -1.07490066e-02 -5.16865542e-03 5.25826449e-03 -3.14687528e-02
      -2.31808648e-02 -2.11442765e-02 -4.82197572e-03 -4.35707793e-02
      2.88245436e-02 4.45012413e-02 9.15293247e-02 1.38664439e-01
      3.56489159e-02 -6.55034976e-03 -3.18964571e-02 -7.16823786e-02
      -1.28998592e-01 -6.95318654e-02 -5.79029843e-02 1.81529317e-02
      9.61684287e-02 6.17742464e-02 -7.79201016e-02 -1.28269225e-01
      -1.25927687e-01 -1.06558293e-01 -5.53636253e-02 -7.17583299e-02
      3.86320637e-03 8.32460150e-02 -4.87376004e-02 -4.61907126e-02
      -5.47228456e-02 -8.88394862e-02 -2.28027105e-02 1.13360900e-02
      1.12839593e-02 2.23971605e-02 1.11850530e-01 3.26240174e-02
      -5.70327369e-03 -1.53659005e-02 -4.10817042e-02 -9.43821445e-02
      -4.47108820e-02 -3.10834181e-02 9.27959476e-03 1.08375192e-01
      8.32375214e-02 -5.40119149e-02 -1.14728436e-01 -1.45937368e-01
      -6.13110028e-02 -3.91661786e-02 -4.71624136e-02 -4.71743084e-02
      5.36201820e-02 1.71468570e-03 -6.96707331e-03 -2.31095832e-02
      -6.78892061e-02 1.00374017e-02 5.50341047e-03 -2.84921448e-03
      4.37568408e-04 4.62390743e-02 -1.26694497e-02 -1.54023422e-02
      -1.88265722e-02 -2.40389956e-04 1.69409160e-02 1.00191834e-03
      1.43354037e-03 -3.41979368e-03 -1.45587744e-02 -6.02307767e-02
      -5.70560433e-02 -4.62062210e-02 2.06014002e-03 6.86616376e-02
      -7.76719395e-03 -2.42542452e-03 -2.95034070e-02 -5.02782799e-02
      -2.37521995e-02 -2.34979857e-02 -1.73006412e-02 5.90225384e-02
      -5.50019331e-02 -4.27686982e-02 -6.45380467e-02 1.23482523e-03
      9.62696075e-02 2.29444783e-02 -3.44562978e-02 -5.35465404e-02
      -4.39663939e-02 -5.94799072e-02 -1.88235380e-02 -3.29804197e-02
      4.66912091e-02 3.43859792e-02 -6.96740225e-02 -7.91476071e-02
      -8.58209804e-02 -4.89993468e-02 -8.78610369e-03 -3.58443521e-02
      -5.01924893e-03 -3.41210142e-02 5.23933806e-02 1.15231546e-02
      -4.76007760e-02 -3.91358845e-02 -1.61305331e-02 -3.38566303e-02
      -1.95809789e-02 -2.59682946e-02 -1.68523248e-02 8.70738924e-02
      3.52836028e-02 -8.55262391e-03 -2.72367839e-02 -4.55925055e-02
      -5.52348606e-02 -4.19137590e-02 -3.80105302e-02 -1.88676454e-02
      6.71564490e-02 3.69726717e-02 3.88288172e-03 -4.12099361e-02
      -1.15236536e-01 -3.43911187e-03 1.68300457e-02 1.42146051e-02
      3.82221071e-03 6.06708527e-02 2.87928036e-04 -2.15960629e-02
      -2.76511647e-02 -9.41426232e-02 2.90013924e-02 4.88113175e-04
      4.72475169e-03 -4.11605649e-03 -1.77738741e-02 -3.22833695e-02
      -3.37222628e-02 -2.79345345e-02 8.38849507e-03 4.18853350e-02
      -3.76395993e-02 -2.01443043e-02 -6.57212138e-02 -7.02847764e-02
      -4.74445289e-03 -1.23534342e-02 -3.37670790e-03 9.23403054e-02
      -1.12544954e-01 -3.89578603e-02 -6.56126533e-03 -3.47261317e-03
      3.90380099e-02 4.21609171e-02 3.19128670e-02 1.78187061e-02
      -2.76507679e-02 -1.75682064e-02 -9.46595334e-03 -2.40019406e-03
      7.85522396e-04 2.92706899e-02 -3.18969041e-02 -4.11115438e-02
      -5.25865480e-02 -4.71635088e-02 -1.70484632e-02 -5.27583808e-02
      -7.24900840e-03 -7.40315914e-02 -1.26737831e-02 3.85327339e-02
      -2.93471999e-02 -3.64352912e-02 -1.99645702e-02 -7.53172934e-02
      -4.47723120e-02 -1.63658746e-02 -1.38181681e-02 7.45552704e-02
      1.02677144e-01 8.67050067e-02 5.39535545e-02 -8.36616475e-03
      -2.32830066e-02 -3.54683376e-03 1.68300816e-04 1.14154415e-02
      7.26852193e-02 1.97240394e-02 1.03361963e-03 -2.59011444e-02
      -1.06680855e-01 3.70408670e-04 3.48691568e-02 2.41975971e-02
      -5.77354152e-03 3.06617543e-02 -1.71738807e-02 -4.52290848e-02
      -2.18603853e-02 -5.08110933e-02 5.43824304e-03 2.56940331e-02
      6.95414701e-03 1.56199485e-02 -3.55451070e-02 4.83979518e-03
      2.90778503e-02 1.65981408e-02 -1.62874479e-02 -6.43997639e-03
      -2.55609080e-02 -1.36424098e-02 -2.79444847e-02 -1.33222081e-02
      1.35220680e-02 4.89665009e-03 6.88023027e-03 2.61470508e-02
      -1.47130981e-01 -5.24895601e-02 5.26278839e-03 8.68974254e-03
      6.64004162e-02 6.69054613e-02 6.29130006e-02 3.37956361e-02
      -6.64980710e-02 -5.09372801e-02 -9.83904861e-03 7.81433936e-03
      4.90228413e-03 1.10046947e-02 1.05889942e-02 9.19685978e-03
      7.01661315e-03 -3.59355286e-02 -4.61201668e-02 -2.09522583e-02
      2.82509578e-03 -3.12083457e-02 5.51083907e-02 4.64563593e-02
      -3.33458441e-03 5.30038960e-03 -5.19866757e-02 -5.70623651e-02
      -8.04063752e-02 -2.79465131e-02 2.25131828e-02 6.84018657e-02
      1.50021076e-01 1.43283769e-01 8.21130425e-02 -3.54794711e-02
      -5.10361716e-02 -1.59925185e-02 2.17025913e-02 3.64350937e-02
      3.84211168e-02 1.35142282e-02 2.02856120e-03 -1.06787840e-02
      -6.03768155e-02 4.88161622e-03 2.09751055e-02 1.03228996e-02
      9.36297583e-04 3.03727649e-02 -1.03185493e-02 -1.51686976e-02
      6.40531024e-03 -3.45431305e-02 -1.64310727e-02 2.22505443e-02
      9.90086980e-03 2.38893591e-02 -4.17997986e-02 1.44169414e-02
      6.97124675e-02 5.14690913e-02 1.47339907e-02 4.13932391e-02
      1.08532915e-02 1.11618750e-02 2.23588273e-02 7.19376234e-03
      1.57390814e-02 4.11213897e-02 5.26054688e-02 4.07553576e-02
      -1.07136115e-01 -1.75372008e-02 6.52171066e-03 6.07323507e-03
      2.31485702e-02 2.26522554e-02 2.44931187e-02 1.33573171e-02
      -2.98838094e-02 -6.47596419e-02 -1.40172215e-02 9.26401839e-03
      9.18081962e-03 1.02943573e-02 1.01345750e-02 7.73382187e-03
      3.02923121e-03 -7.85085112e-02 -4.51942272e-02 2.77423393e-02
      7.31432438e-03 2.34472868e-03 -2.49353074e-03 -2.07391800e-03
      -5.81766060e-03 -1.93928182e-02 -6.04747459e-02 -8.54808837e-02
      -4.15495150e-02 1.41913042e-04 2.65096966e-02 4.30938415e-02
      5.95505238e-02 6.11802451e-02 2.97692716e-02 -1.04783900e-01
      -1.86711065e-02 -1.31451795e-02 1.79799628e-02 3.82724330e-02
      4.02768254e-02 8.87494534e-03 4.48174262e-03 -5.03793405e-03
      -8.75126477e-03 3.13041033e-03 5.04896604e-02 1.80179831e-02
      -1.21430717e-02 -2.40170993e-02 -9.36575606e-03 1.23499837e-02
      1.88300759e-02 -5.25109656e-02 -1.38072378e-03 7.47167086e-03
      5.86020993e-03 1.54710868e-02 -3.48236598e-02 1.70399845e-02
      5.18824905e-02 3.08694076e-02 2.93179019e-03 7.41339847e-02
      2.36763842e-02 1.02768959e-02 2.74977256e-02 1.24047110e-02
      1.65369734e-02 4.91827279e-02 1.06942765e-01 8.60723928e-02
      7.39840344e-02 1.37909893e-02 -5.70537243e-03 1.34810957e-03
      6.04742114e-03 8.28212593e-04 2.48660967e-02 7.97801018e-02
      1.14029042e-01 -4.55719531e-02 -4.66019008e-03 3.52459517e-03
      5.04208263e-03 1.93796714e-03 1.57736556e-03 1.66931911e-03
      -3.00248922e-03 -5.72828837e-02 -5.25343977e-02 6.04644045e-02
      1.64325465e-03 -9.43204667e-03 -3.45130004e-02 -2.89473832e-02
      -3.31547633e-02 -5.02205566e-02 -1.08333260e-01 3.29952571e-03
      -1.81047770e-04 -1.22893173e-02 -1.21413656e-02 -5.93207143e-02
      -4.60197069e-02 -2.59667188e-02 -6.21526502e-03 -5.68366796e-03
      -8.36879306e-04 1.54110603e-03 -6.37503108e-05 8.39578826e-03
      7.53317680e-03 -2.62143975e-03 7.30668660e-03 8.01708549e-03
      -5.38264923e-02 7.58441957e-03 -6.69843797e-03 3.10031604e-02
      -3.93249765e-02 -5.59902415e-02 -3.17463018e-02 5.22144604e-03
      1.63538177e-02 2.81598140e-02 1.91319324e-02 -4.12226021e-02
      1.47237359e-02 4.14955011e-03 -4.48382413e-03 -3.44879634e-04
      3.20874876e-03 4.16864119e-02 6.27498776e-02 4.04143482e-02
      8.20987020e-03 -7.57590868e-04 6.20555272e-03 2.64539011e-03
      3.32135125e-03 1.59774348e-02 6.47311211e-02 5.74801527e-02
      7.27230906e-02 3.62606868e-02 8.71577824e-04 5.93294622e-03
      1.91700645e-02 -6.42860075e-04 4.75486591e-02 9.94514301e-02
      1.29053891e-01 5.18102758e-02 2.52074450e-02 2.90460661e-02
      3.08132581e-02 3.24868485e-02 1.41185038e-02 1.82275772e-02
      3.60040623e-03 3.54464054e-02 -2.34650392e-02 5.26940310e-03
      1.55735016e-02 2.98346598e-02 8.97481665e-02 3.06935087e-02
      1.71300035e-03 -9.65674128e-03 -3.39496881e-02 -8.10882002e-02
      -4.25462909e-02 -4.86433730e-02 5.21109300e-03 1.42848805e-01
      6.30165413e-02 -6.57980517e-02 -1.01388611e-01 -1.11053988e-01
      -7.82919601e-02 -3.81575488e-02 -4.56626341e-02 -3.37033942e-02
      7.27150962e-02 -1.53407464e-02 -1.14295445e-02 -1.60806831e-02
      -4.96290363e-02 -2.97093764e-02 7.54736690e-03 3.05857952e-03
      1.88780967e-02 1.49857104e-01 8.60837922e-02 1.73623543e-02
      -8.84458050e-03 -5.30717783e-02 -1.22571915e-01 -4.26642448e-02
      -1.49730882e-02 3.66065092e-02 6.14471510e-02 5.63439317e-02
      -5.17881773e-02 -1.15951478e-01 -1.52853772e-01 -6.29643276e-02
      -4.35828641e-02 -6.60005361e-02 -7.47896060e-02 4.08356860e-02
      -1.84850320e-02 -3.71857584e-02 -6.68410808e-02 -1.14413641e-01
      1.20179765e-02 2.81515182e-03 1.07087521e-02 1.30674113e-02
      7.20875412e-02 7.08393306e-02 3.33673917e-02 2.59462893e-02
      1.78720318e-02 -3.88463140e-02 1.85636096e-02 4.08637300e-02
      7.73754865e-02 1.12257570e-01 6.71834499e-02 -1.52239027e-02
      -1.15035251e-02 -4.00746278e-02 -5.00944816e-02 1.32612488e-03
      6.18279167e-03 9.25282110e-03 4.37493175e-02 -4.87779034e-03
      -3.55205685e-02 -5.15013933e-02 -1.33021563e-01 -2.79744305e-02
      -2.02820245e-02 -2.75091585e-02 4.63926372e-05 1.32630721e-01
      1.99630223e-02 -1.67051293e-02 -2.34748535e-02 -2.67510470e-02
      -8.66320953e-02 -2.79418826e-02 -1.84710454e-02 1.05658337e-03
      8.10010359e-02 -8.48844368e-03 -9.21105035e-03 -1.96606871e-02
      -7.31427670e-02 -1.35678053e-02 -1.46725378e-03 7.74362544e-03
      -2.82729021e-03 7.00144544e-02 9.99013614e-03 -1.56787466e-02
      -4.30837879e-03 -4.67778295e-02 -3.02952211e-02 -1.12708956e-02
      -1.26793124e-02 2.09009741e-03 6.32404387e-02 4.50812951e-02
      -6.43343572e-03 -3.28677297e-02 -5.50895035e-02 -6.03823289e-02
      -4.27397043e-02 -5.52109368e-02 -3.58381048e-02 3.31127755e-02
      4.56695892e-02 8.62258486e-03 -7.56687224e-02 -8.78153816e-02
      -9.62557271e-03 1.17338821e-02 1.38978809e-02 -2.17159768e-03
      6.33364990e-02 4.29201685e-03 -1.62630230e-02 -3.58446315e-02
      -2.96925493e-02 -1.29818330e-02 8.10857490e-03 1.44109419e-02
      3.00348420e-02 5.44312708e-02 1.11880125e-02 -2.25712415e-02
      -1.54309180e-02 -3.02794576e-02 -7.93098193e-03 6.88778190e-03
      1.07327476e-02 6.74709212e-03 6.32558689e-02 2.44674217e-02
      5.83255943e-03 -4.62701656e-02 -5.96761964e-02 -1.85262840e-02
      -6.85850158e-04 -3.09933606e-03 -3.84831289e-03 -3.59657570e-03
      -9.35887627e-04 -1.89699780e-03 -1.91717651e-02 -3.38277370e-02
      -2.95544527e-02 -5.77762676e-03 9.60510515e-04 4.07574326e-03
      5.07899560e-02 -2.10448354e-03 -4.23858920e-03 -7.17066973e-03
      -3.03070955e-02 -1.83024891e-02 9.72047541e-03 3.22428979e-02
      -7.32017495e-03 7.40515813e-02 2.86504198e-02 -2.02060528e-02
      1.65582029e-03 -7.53976107e-02 -2.46869456e-02 5.69041353e-03
      7.27054477e-03 6.16747374e-03 1.03278561e-02 3.59296799e-02
      3.81602757e-02 2.36095265e-02 -1.12861041e-02 -4.36194567e-03
      -4.27293172e-03 -5.05896937e-03 7.87032396e-03 7.92798102e-02
      4.62273546e-02 1.44154234e-02 -4.06618752e-02 -1.03684619e-01
      2.56776484e-03 4.85232361e-02 3.16278152e-02 -1.04862433e-02
      4.09115572e-03 -3.51026915e-02 -5.10574542e-02 -5.23321927e-02
      -2.13128515e-02 2.05436368e-02 6.69859126e-02 4.73462977e-02
      5.69875650e-02 -4.88249809e-02 -4.61764783e-02 8.34614318e-03
      1.95009559e-02 -2.88978163e-02 -1.43631650e-02 2.87784706e-03
      5.40785631e-03 2.15200474e-03 1.63283497e-02 1.20489281e-02
      1.27000939e-02 -1.39864786e-02 -6.96047246e-02 -2.80099083e-02
      1.91796701e-02 -6.17488241e-03 -1.20279314e-02 -1.75231174e-02
      -8.82973429e-03 -1.13186026e-02 -3.27403992e-02 -4.49018925e-02
      -2.27103122e-02 2.81097572e-02 1.10285301e-02 1.08831367e-02
      -4.87598814e-02 -3.11507825e-02 -3.70932044e-03 -7.00808223e-03
      -5.45491315e-02 -2.60856990e-02 4.60180407e-03 1.10690659e-02
      -9.45793465e-03 3.50686572e-02 7.20356125e-03 -1.10134287e-02
      -2.89003900e-03 -3.66500504e-02 -6.65915310e-02 -2.94410177e-02
      -2.31298357e-02 4.89616068e-03 -6.44797878e-03 5.91338389e-02
      6.61404952e-02 3.32770422e-02 -3.02785318e-02 -2.43173633e-02
      -1.24092540e-02 6.01283042e-03 2.06611808e-02 1.57509167e-02
      6.96507003e-03 4.32820711e-03 -2.05498142e-03 -5.48811927e-02
      -5.35437325e-03 2.78834421e-02 2.13850220e-03 -8.77849758e-03
      -1.53060751e-02 -4.71487567e-02 -4.23084088e-02 -1.04376925e-02
      -5.82228489e-02 -1.53524531e-02 2.16086153e-02 1.25602847e-02
      5.11047291e-03 -7.56914541e-02 -6.64875284e-02 5.47667779e-02
      6.89317137e-02 1.92496870e-02 7.65897483e-02 2.24582870e-02
      2.26479191e-02 2.81841494e-02 -7.83681031e-03 2.05611717e-02
      6.89381883e-02 1.45693362e-01 1.00837089e-01 -4.95039970e-02
      1.51805021e-02 -4.13796213e-03 -8.15863721e-03 -1.93208698e-02
      -1.13248229e-02 -8.94327648e-03 -1.90926902e-02 -6.37697205e-02
      -5.83853610e-02 6.43002149e-03 6.29277900e-03 3.56379244e-03
      -9.09710377e-02 -6.21825270e-02 2.51937797e-03 8.06096289e-03
      -5.50370067e-02 1.43345529e-02 -3.66949738e-04 3.41773918e-03
      2.76311883e-03 4.42344276e-03 5.70501573e-03 2.00162400e-02
      8.37161839e-02 1.32738099e-01 -1.20067351e-01 -5.80355413e-02
      -3.01959030e-02 -8.70199129e-03 -2.73254737e-02 1.42953340e-02
      2.21538953e-02 -9.34832264e-04 -1.06314249e-01 -2.51651220e-02
      -7.04739615e-02 -1.68652199e-02 1.77139454e-02 1.43272299e-02
      -1.38237774e-05 -3.86971701e-03 -2.49989405e-02 -8.92762244e-02
      -3.86219881e-02 -4.20837961e-02 -1.35978311e-02 -1.09869167e-02
      -1.20574292e-02 -7.14393426e-03 6.69690128e-03 2.62325723e-02
      -6.90047368e-02 -5.08095026e-02 -1.70757230e-02 -1.23173324e-02
      -2.98644677e-02 -1.37397990e-01 -8.34189951e-02 4.19585630e-02
      4.81368452e-02 -1.71463117e-02 4.93512303e-03 -1.16890192e-03
      1.42422123e-02 2.44621057e-02 -1.67733692e-02 1.79009195e-02
      8.19468126e-02 2.12718338e-01 4.23054472e-02 3.59779336e-02
      -1.96653996e-02 -1.03473226e-02 1.09590031e-02 2.26108283e-02
      6.92510139e-03 5.58437742e-02 1.50474772e-01 1.26615271e-01
      -4.05873507e-02 -1.83666032e-02 -5.74477669e-03 -1.65590253e-02
      -6.94739595e-02 -3.10673472e-02 2.45454069e-03 1.11249397e-02
      -1.17640840e-02 -6.62896689e-03 -5.06991427e-03 -2.04861024e-03
      2.90052150e-03 -1.16758812e-02 3.92346876e-03 2.24891845e-02
      1.74610123e-01 1.84997737e-01 3.68331298e-02 4.67074011e-03
      3.39692598e-03 5.45799499e-03 4.25331388e-03 2.68463325e-03
      6.37634844e-03 9.78412703e-02 1.47817731e-01 -1.02154702e-01
      -8.21951628e-02 -2.76168622e-02 5.03777526e-04 1.99794001e-03
      -3.56749818e-03 -1.28230517e-04 -7.63074122e-03 -1.42190471e-01
      -1.27305593e-02 -1.13299973e-01 -3.47093120e-02 -5.33659160e-02
      -5.93808815e-02 -2.49363948e-02 9.40192665e-04 3.34971733e-02
      -8.59992951e-02 -4.79457937e-02 -7.83040971e-02 -1.68870948e-02
      -2.33636592e-02 -2.91139185e-02 -2.02967087e-03 -1.03977683e-03
      8.64213053e-03 1.63222458e-02 1.02793984e-02 -1.95146240e-02
      -6.11092150e-03 8.46349448e-03 2.17416347e-03 6.67410344e-03
      3.61741930e-02 1.52225107e-01 5.33587150e-02 1.05123473e-02
      2.59259827e-02 -1.86621249e-02 3.23746838e-02 7.66506642e-02
      1.61034856e-02 9.26938504e-02 1.94195315e-01 6.79447204e-02
      5.57519086e-02 1.63539890e-02 2.55156681e-02 4.82581891e-02
      5.52237146e-02 1.74316317e-02 3.09511237e-02 1.27294138e-02
      5.14437854e-02 -1.21557377e-02 -5.17769950e-03 -5.27491374e-03
      -1.07436511e-03 -1.00231543e-02 -7.04423932e-04 1.39232539e-03
      9.52457413e-02 1.41707405e-01 6.08273633e-02 3.17672105e-03
      1.40331546e-02 2.55121905e-02 2.62859818e-02 6.44469587e-03
      9.38370079e-03 1.41196817e-01 1.25057563e-01 1.08142067e-02
      6.18529506e-03 7.33681628e-03 1.62023548e-02 1.91311873e-02
      -8.52686411e-04 5.45275770e-03 1.19597819e-02 -7.61432294e-03</_>
    <_>
      -1.42661277e-02 -2.69658724e-03 9.84145422e-03 1.90714840e-02
      1.00605497e-02 -6.43541571e-03 -1.47272069e-02 -1.60601158e-02
      -1.84584931e-02 -2.75857896e-02 -2.36735325e-02 -1.22566316e-02
      1.56686455e-02 7.77514726e-02 -1.17347036e-02 -5.09599559e-02
      -5.81755489e-02 -3.57650369e-02 -8.06061644e-03 -1.62409469e-02
      -5.32037448e-05 1.46256201e-03 3.04249413e-02 -1.91150326e-02
      -3.29417139e-02 -1.49416728e-02 -1.94386449e-02 -8.16263705e-02
      1.48543646e-03 1.46601321e-02 4.63265702e-02 8.06553513e-02
      4.71529327e-02 1.68827400e-02 -1.84651967e-02 -7.66317472e-02
      -1.10251673e-01 -9.85271484e-02 -4.94921580e-02 4.34621498e-02
      1.01718552e-01 4.04809788e-02 -3.97182964e-02 -7.75991529e-02
      -1.08948022e-01 -4.75593656e-02 -4.93820570e-02 1.52552407e-02
      5.31841218e-02 7.91722313e-02 -2.83678938e-02 -7.36103803e-02
      -6.34774938e-02 -6.43815622e-02 -4.81378436e-02 -1.42819723e-02
      -4.26249467e-02 -4.03980212e-03 7.75305033e-02 3.64713259e-02
      2.30335556e-02 1.21271443e-02 -4.82229367e-02 -1.23856805e-01
      -9.78764221e-02 -5.99035099e-02 4.54163067e-02 1.64910108e-01
      8.14347640e-02 1.72464866e-02 -4.51823734e-02 -1.36617690e-01
      -2.07044370e-02 -1.73384100e-02 6.43630163e-04 2.37786118e-02
      8.24144110e-02 5.44065423e-03 -5.93856117e-03 -4.26934361e-02
      -5.89135550e-02 -5.48724085e-03 -1.26669789e-02 -7.76808057e-03
      1.36632600e-03 4.95895185e-02 -1.05877025e-02 -2.09516454e-02
      -2.13437472e-02 -9.61371791e-03 -3.34444782e-03 -1.44704264e-02
      1.08080162e-02 2.68746982e-03 2.43008919e-02 -3.07301898e-02
      -7.49077350e-02 -2.70322617e-02 -2.52772737e-02 4.32543010e-02
      1.12485536e-03 2.56312662e-03 -5.29546337e-03 -1.59839373e-02
      -9.19887051e-03 -2.75062565e-02 -4.09473991e-03 2.74420101e-02
      -7.50052407e-02 -7.96832815e-02 -2.67402437e-02 2.89897323e-02
      1.12273760e-01 2.42511230e-03 -2.92746443e-02 -4.19371277e-02
      -5.46119213e-02 -3.66564170e-02 -2.02845149e-02 1.78776607e-02
      5.99318743e-02 2.81557571e-02 -4.26114276e-02 -8.35615918e-02
      -8.42654705e-02 -3.14757824e-02 -3.10017280e-02 -2.34849546e-02
      -9.62515362e-03 -1.36943739e-02 3.94886471e-02 6.84298389e-03
      -3.00835390e-02 -2.90585067e-02 -1.14766574e-02 -5.41419536e-02
      -3.73133123e-02 -1.83009487e-02 2.20471080e-02 1.22080855e-01
      2.85220556e-02 4.89730015e-03 -2.91286912e-02 -6.80081248e-02
      -2.02464201e-02 -1.79254357e-02 4.68331855e-03 2.74995808e-02
      6.21374063e-02 3.34750302e-03 -1.64578203e-02 -5.56242615e-02
      -6.74701482e-02 -3.77942659e-02 -4.83733788e-03 6.45326311e-03
      7.84449466e-03 3.67291048e-02 8.83128727e-04 -8.63998290e-03
      6.26976322e-03 -1.98808126e-02 6.61352323e-03 -1.98899116e-03
      6.45777537e-03 5.14032843e-04 2.13283324e-03 -1.24687450e-02
      -3.84289697e-02 -1.31431902e-02 -2.51449225e-03 4.38898951e-02
      -9.09568742e-03 -6.27913512e-03 -1.61703937e-02 -3.00452095e-02
      2.24290043e-03 -1.22062340e-02 1.20778130e-02 4.58652526e-02
      -5.75585365e-02 -2.27066316e-02 -1.31641617e-02 -1.12547837e-02
      -8.49986728e-03 2.78805103e-02 2.75086183e-02 1.95311252e-02
      -1.87166724e-02 -6.32211287e-03 -5.00744907e-03 8.45804159e-03
      1.33903781e-02 2.50465702e-02 -1.56712290e-02 -5.62942363e-02
      -4.77864482e-02 -2.55129691e-02 -1.91074517e-02 -7.17901289e-02
      -3.66626233e-02 -2.21994016e-02 1.33895343e-02 3.85389253e-02
      -1.11120781e-02 -4.98800818e-03 -1.67916603e-02 -6.81261942e-02
      -7.14160949e-02 -4.00097221e-02 -8.45070649e-03 1.99500322e-02
      6.21658489e-02 5.41290082e-02 4.86317277e-02 -9.24854260e-03
      -9.21476725e-03 -4.87522176e-03 2.15344387e-03 9.07794200e-03
      3.79128866e-02 -4.43980498e-05 -9.36626270e-03 -1.39012774e-02
      -3.26130949e-02 -3.95519733e-02 -1.01035088e-02 2.40880568e-02
      3.16367187e-02 3.89363244e-02 1.15137072e-02 -2.00924536e-04
      2.37326063e-02 -1.70120522e-02 -6.13248721e-02 -1.79105555e-03
      3.24810147e-02 5.83254173e-02 6.23627976e-02 3.64276096e-02
      3.33720520e-02 3.08280322e-03 -7.12984130e-02 1.27731748e-02
      -9.85704921e-03 -7.36407097e-03 -9.49714240e-03 -1.18223652e-02
      1.02614230e-02 7.87037797e-03 1.25114853e-02 1.70248765e-02
      -9.72210318e-02 -2.60751545e-02 -1.07763736e-02 -6.82438631e-03
      1.90149643e-03 4.35287543e-02 4.56418544e-02 2.57354975e-02
      -4.73107323e-02 -2.96149068e-02 -9.38303582e-03 4.37104190e-03
      1.19859062e-03 5.49331633e-03 6.32602582e-03 7.52562331e-03
      3.59950471e-03 -2.29163598e-02 -7.14081153e-02 -4.65517454e-02
      -1.67332888e-02 -4.04678611e-03 3.43942232e-02 3.29093598e-02
      1.34360455e-02 2.16187090e-02 -2.15621255e-02 -2.55139749e-02
      -4.33326550e-02 -3.65877748e-02 5.59350662e-03 2.37533711e-02
      8.68077204e-02 6.99442625e-02 4.72628325e-02 -5.80446376e-03
      -1.91455930e-02 1.43327110e-03 7.45244045e-03 1.37561262e-02
      7.28059420e-03 2.33813515e-03 6.49328344e-03 -1.37486262e-02
      -3.67255472e-02 -3.28832567e-02 -4.37109917e-03 1.89967658e-02
      2.62928084e-02 5.38662560e-02 1.22098280e-02 8.58310983e-03
      1.43800220e-02 3.14377947e-03 -6.70335218e-02 1.42624117e-02
      5.06311730e-02 8.66795704e-02 7.52746686e-02 6.04407862e-02
      6.11975789e-02 1.31105501e-02 -7.31246397e-02 -9.26478533e-04
      2.35720561e-03 4.16377047e-03 1.70779210e-02 1.33819636e-02
      9.86444019e-03 2.68018730e-02 2.27696262e-02 -2.86398903e-02
      -3.62414792e-02 -6.32092869e-03 -3.05964291e-04 4.36630537e-04
      5.34791965e-03 1.43478811e-02 1.68471411e-02 7.48291006e-03
      -1.95147973e-02 -4.49013934e-02 -1.59809925e-02 9.37821623e-03
      4.55437647e-03 7.10719824e-03 7.26459036e-03 8.56885407e-03
      5.56121999e-03 -3.76051031e-02 -4.11408767e-02 7.56969303e-03
      1.33352671e-02 5.49701508e-03 3.26009258e-03 1.63473887e-03
      -1.01321621e-03 -1.15397188e-03 -2.48500649e-02 -2.57666670e-02
      -2.03386207e-06 -4.37575998e-03 9.65481810e-03 5.22590056e-03
      2.75817346e-02 3.32129523e-02 1.06764566e-02 -5.98150790e-02
      -7.78156624e-04 2.33307444e-02 1.63629577e-02 1.56542044e-02
      1.00985086e-02 2.53147725e-03 1.50377695e-02 2.62781745e-03
      1.86559977e-03 -8.96413438e-03 4.22889814e-02 2.13890411e-02
      -9.31377697e-04 -9.86735988e-03 -3.82930599e-03 7.08417920e-03
      2.64751818e-02 -3.53349932e-02 -2.17646547e-02 1.12943230e-02
      1.60112996e-02 3.22378948e-02 2.69028246e-02 2.68670022e-02
      3.89001220e-02 1.06083071e-02 -7.11346567e-02 -2.71375477e-03
      -8.85186344e-03 4.25325445e-04 1.61062032e-02 8.22073501e-03
      5.90280676e-03 2.94838957e-02 5.27586937e-02 1.86188817e-02
      2.47188155e-02 -1.20871430e-02 -1.32936621e-02 -6.84058480e-03
      -1.26346564e-02 -4.49446449e-03 1.25835771e-02 4.83713411e-02
      5.30528650e-02 -2.85576284e-02 -7.70512968e-03 5.93966804e-03
      3.78228351e-03 2.68056430e-03 2.11671600e-03 2.53396947e-03
      1.78378529e-03 -2.74480432e-02 -4.96807098e-02 1.73044987e-02
      1.99375395e-02 4.60815057e-03 6.27783826e-03 4.70899715e-04
      -7.06247520e-03 -4.96189203e-03 -4.58633378e-02 -1.75764710e-02
      -7.97708333e-03 -5.09766163e-03 -8.54645297e-03 -2.37286207e-03
      -3.86801106e-03 -1.69375306e-03 2.19466820e-05 -1.20241696e-03
      1.09250727e-03 -2.47847871e-03 8.81002191e-03 3.91844939e-03
      1.73224101e-03 9.10586037e-04 1.00951577e-02 1.08938180e-02
      -3.56004797e-02 1.23108097e-03 5.02841435e-02 1.73599888e-02
      -9.83956270e-03 -2.09374055e-02 -1.50880078e-02 -1.86009379e-03
      3.01718563e-02 1.41331018e-03 -2.30541150e-03 4.16667014e-03
      1.00977244e-02 -1.56778805e-02 -8.70931894e-03 1.75377572e-04
      6.83992635e-03 1.72724482e-02 1.15652196e-02 2.11189222e-03
      -1.45040378e-02 -3.26309726e-03 2.02730717e-03 -3.32024368e-03
      -1.43561815e-03 8.53351317e-03 3.56160179e-02 1.96024477e-02
      4.98151686e-03 -2.08336115e-02 -4.01319005e-02 -3.84631120e-02
      -4.39200290e-02 -1.54899005e-02 1.59389507e-02 4.92730960e-02
      4.83437069e-02 2.86392234e-02 1.00781489e-02 -5.08866599e-03
      -2.24186648e-02 -3.09259929e-02 -4.61681467e-03 6.36165030e-04
      -6.45039184e-03 3.91202746e-03 -4.15765010e-02 -2.10921001e-03
      -2.91187502e-03 1.00996839e-02 5.57381734e-02 3.37504148e-02
      1.69169586e-02 -4.79726150e-04 -4.05194499e-02 -1.11487314e-01
      -8.02094564e-02 -4.04847488e-02 2.60191653e-02 1.44183859e-01
      4.72664684e-02 -8.59234482e-03 -4.18389291e-02 -9.93542597e-02
      -2.57216860e-02 -2.30341442e-02 5.50187798e-03 2.43631080e-02
      7.85403773e-02 -5.58193307e-03 -2.44115293e-02 -2.87217554e-02
      -3.99013013e-02 -6.94385022e-02 -6.03522137e-02 -1.09314531e-01
      -2.97018401e-02 9.95077193e-02 7.42934644e-02 5.21069206e-02
      3.07282973e-02 -6.15352839e-02 -1.24713764e-01 -1.09447472e-01
      -6.71059787e-02 6.73490763e-02 1.26645714e-01 1.01428144e-01
      3.96268442e-02 -4.54598852e-02 -1.28601000e-01 -8.48996826e-03
      -2.70391256e-02 -5.92242647e-03 2.00199280e-02 6.44958317e-02
      -1.98938847e-02 -3.75767518e-03 -7.36917406e-02 -7.12966621e-02
      -7.87108112e-03 -2.82890387e-02 -3.50601040e-02 -6.16672263e-03
      2.66333520e-02 3.85979190e-02 1.92314461e-02 1.10326083e-02
      -1.78192277e-03 -2.59531867e-02 -4.31065448e-02 -3.87911983e-02
      3.62005681e-02 8.60760808e-02 5.59633486e-02 1.75126493e-02
      1.14447139e-02 -7.10235629e-03 2.15390860e-03 -1.63457468e-02
      1.45821669e-03 2.76795588e-03 1.14933336e-02 -3.89415734e-02
      -2.09261030e-02 -2.29176618e-02 -1.09407865e-02 -3.86129580e-02
      -3.80607508e-02 -1.20916748e-02 1.71439387e-02 1.09390803e-01
      9.06089786e-03 -8.68466310e-03 -1.89381745e-02 -3.28292623e-02
      -3.37129384e-02 -1.66413356e-02 1.38501013e-02 3.44072133e-02
      6.04369156e-02 -3.50945117e-03 -4.23728488e-02 -4.38410863e-02
      -5.84069230e-02 -4.05762531e-02 -7.09548034e-03 -2.15086737e-03
      -2.78441608e-03 4.97279726e-02 6.61638752e-03 -1.01613840e-02
      -6.26537437e-03 -2.54424382e-02 -7.59499073e-02 -5.31413518e-02
      -3.02028470e-02 3.87611836e-02 1.31164119e-01 4.29423600e-02
      1.47243664e-02 -4.10904177e-02 -1.11515224e-01 -2.34850720e-02
      -5.06513268e-02 -6.30371459e-03 1.56524964e-02 2.04667244e-02
      -1.20570846e-02 -1.30195358e-05 -5.04372120e-02 -3.08561344e-02
      -6.14557182e-03 -1.32049005e-02 2.19501629e-02 1.76375452e-02
      2.29245089e-02 -2.95923627e-03 -2.89195613e-03 3.27313580e-02
      -4.05129325e-03 -3.43509973e-03 -8.13406426e-03 -5.99281862e-03
      1.32420463e-02 3.43004949e-02 3.44964629e-03 -4.24437923e-03
      -2.90795462e-03 -7.73302279e-03 -2.35004295e-02 -5.58312871e-02
      5.30091720e-03 1.81827263e-03 5.83814876e-03 -4.99871187e-02
      -2.03602258e-02 -2.80132033e-02 6.92828000e-03 -3.54166664e-02
      -1.89096350e-02 8.16300046e-03 3.55995935e-03 -5.48327016e-03
      9.80619225e-04 2.82866391e-03 9.20135528e-03 -2.69854162e-03
      -1.54609010e-02 -4.03425703e-03 1.79941149e-03 7.14920647e-03
      3.42166871e-02 -9.53727460e-04 -1.66198239e-02 -1.57673266e-02
      -2.39440128e-02 -8.12774077e-02 -2.58504823e-02 1.59752427e-03
      1.23122777e-03 5.61141185e-02 2.15610322e-02 -6.50384789e-03
      4.05838800e-04 -5.18833101e-02 -5.59124984e-02 -2.26209220e-02
      1.29342719e-03 1.79476421e-02 2.59565134e-02 2.68129483e-02
      2.41970494e-02 1.63155645e-02 -2.16664542e-02 -2.36670002e-02
      -2.62075327e-02 -2.27108621e-03 1.85472798e-03 1.90979186e-02
      -1.58421509e-02 -7.11984793e-03 -1.64997522e-02 -2.79912129e-02
      -6.60478696e-03 4.83963545e-03 6.07040562e-02 5.31909242e-02
      2.84351259e-02 6.83086866e-04 5.01490291e-03 2.53657978e-02
      -2.93533262e-02 -5.43940961e-02 3.15412246e-02 7.39250928e-02
      1.14651628e-01 8.83989930e-02 3.79078947e-02 3.17080058e-02
      -1.14149163e-02 -8.74884576e-02 -3.55277732e-02 -3.43286917e-02
      3.61670111e-03 8.06905213e-04 -1.81743142e-03 -1.39816143e-02
      -2.56597507e-03 -4.07324219e-03 8.81294254e-03 -2.70181559e-02
      5.13936300e-03 1.88790578e-02 1.23633156e-02 -1.96788087e-03
      2.64421129e-03 9.06474830e-04 5.66526689e-03 -2.09195744e-02
      -4.72307056e-02 2.46577412e-02 2.10043564e-02 2.78369617e-02
      2.05731019e-02 4.94658854e-03 1.62643861e-04 -7.09283631e-03
      -8.28703791e-02 -4.49211895e-02 -1.87769867e-02 2.10394757e-03
      6.49303710e-03 4.85705808e-02 1.41456062e-02 4.77329735e-03
      7.77460728e-03 -6.29284838e-03 -5.05768135e-02 -8.50073155e-03
      4.11725463e-03 3.25690955e-02 2.42948737e-02 4.13318835e-02
      3.82257476e-02 1.84111577e-02 -4.70481962e-02 1.73154101e-02
      2.33055069e-03 2.84046470e-03 1.14396196e-02 5.40007045e-03
      2.51732697e-03 3.92664131e-03 -3.18035134e-03 -6.20066971e-02
      -3.69573124e-02 1.30416211e-02 4.29723375e-02 5.77730387e-02
      5.29350750e-02 7.01749045e-03 6.91880984e-03 1.82452034e-02
      -2.16007140e-02 -5.37514947e-02 4.86289449e-02 9.05951858e-02
      1.23535670e-01 9.05960500e-02 7.14780539e-02 7.97944367e-02
      1.60245653e-02 -5.35883680e-02 -4.29600440e-02 -7.36278761e-03
      5.74276270e-03 2.53968276e-02 2.31428910e-02 1.65353026e-02
      4.23509739e-02 7.28071406e-02 -2.69401986e-02 -9.93360113e-03
      1.57374647e-02 1.05980653e-02 8.43321811e-03 3.85051710e-03
      1.98025350e-03 -9.05440480e-04 -2.38021254e-03 -4.45459001e-02
      -9.19051319e-02 2.68303361e-02 3.13631222e-02 4.72872555e-02
      4.56783511e-02 1.24981385e-02 8.21905490e-03 8.90862569e-03
      -1.05613023e-01 -7.67648593e-02 -2.91225361e-03 1.86346646e-03
      6.00023614e-03 1.71531290e-02 4.54379758e-03 1.07991584e-02
      5.27262613e-02 -3.55818123e-02 -1.53693575e-02 3.61667830e-03
      1.63239113e-03 1.27937580e-02 6.35062950e-03 1.35011040e-02
      1.50515242e-02 1.28897035e-03 -4.85826097e-02 1.00317011e-02
      -5.47412550e-03 3.60024394e-03 1.12818582e-02 4.94817737e-03
      1.02695078e-03 6.70811068e-03 3.57563864e-03 -3.23724933e-02
      1.31693119e-02 4.62714955e-03 2.16393359e-03 -4.51947656e-03
      -9.93503723e-03 -3.11883655e-03 4.59035067e-03 2.14608777e-02
      -1.79069266e-02 -6.99307919e-02 1.66513976e-02 3.08375694e-02
      5.85464500e-02 5.16111739e-02 3.43859009e-02 5.80366515e-02
      2.38164887e-02 -9.13153663e-02 -1.15246633e-02 -5.01029417e-02
      -6.64976658e-03 1.86949354e-02 9.54611227e-03 2.00223667e-03
      3.86902392e-02 9.91662070e-02 3.70711740e-03 -2.59349472e-03
      -5.50418459e-02 -3.33742537e-02 -7.60604348e-03 -1.62762888e-02
      -1.00404741e-02 2.36416887e-02 8.65941718e-02 5.71958348e-02
      -7.26457164e-02 6.07224554e-03 1.10319974e-02 1.87086612e-02
      2.29155608e-02 7.25442823e-03 8.24026298e-03 1.34727666e-02
      -6.82222992e-02 -8.70625079e-02 -1.17432913e-02 -1.36971218e-03
      5.57605084e-03 1.21179922e-02 -2.86090025e-03 1.06115816e-02
      1.00645140e-01 -6.63999561e-03 -3.58095914e-02 -1.10459104e-02
      -6.41048700e-03 7.59735703e-04 7.74759334e-04 -2.87027797e-03
      1.80273794e-03 5.93138114e-02 1.86197050e-02 1.62114408e-02
      -7.81536009e-03 1.02961424e-03 1.74090744e-03 -7.78470479e-04
      -2.89284653e-04 5.25087956e-03 1.08008422e-02 -3.54284830e-02
      7.02041760e-03 2.68124919e-02 1.00174481e-02 -1.71000119e-02
      -2.94038653e-02 -9.91027057e-03 1.51887897e-03 3.17288414e-02
      -9.63373948e-03 8.29795655e-03 7.25544896e-03 5.51153487e-03
      -1.44996634e-02 -1.69261806e-02 -1.74370303e-03 6.19198836e-04
      3.27028451e-03 2.77960906e-03 -1.06772538e-02 -4.20994461e-02
      -1.16438949e-02 2.09969725e-03 -7.62310810e-03 -7.86214136e-03
      1.50453709e-02 9.22495797e-02 2.92295851e-02 1.15875611e-02
      -4.21359017e-02 -7.09136426e-02 -4.29087505e-02 -4.12975401e-02
      -2.44976878e-02 1.91219039e-02 6.90689310e-02 2.51358785e-02
      9.59196407e-03 -1.47298770e-02 -2.64383703e-02 -3.45195271e-02
      -5.96283823e-02 -1.80050749e-02 -3.57289170e-03 -1.85120627e-02
      -8.22065212e-03 -4.38978709e-02 -1.00570619e-02 -3.62259173e-03
      1.95777859e-04 4.64325967e-05 -5.33078797e-03 9.22689913e-04
      5.87203875e-02 1.57255661e-02 -3.57200429e-02 -2.06842776e-02
      -1.33764343e-02 3.18052433e-03 2.30476493e-03 -4.15662769e-03
      2.44644750e-03 8.30852985e-02 1.22686075e-02 -2.59988979e-02
      -8.29837564e-03 -8.33496265e-03 1.46913866e-04 -1.08489236e-02
      -6.31724298e-03 -2.70248577e-03 3.63034499e-03 -6.07649470e-03</_>
    <_>
      -1.78849101e-02 3.08474730e-04 -1.32918851e-02 3.19683109e-03
      2.10580714e-02 5.71373571e-03 1.28324155e-03 1.10105996e-03
      -2.79237218e-02 -1.01102680e-01 -4.23142686e-02 -2.80763023e-02
      -1.29355385e-03 1.08260565e-01 1.40645998e-02 1.19733941e-02
      1.80465425e-03 -7.31520578e-02 -6.96070343e-02 -2.86701065e-03
      -2.71595246e-03 1.62988547e-02 7.45441318e-02 2.65822769e-03
      -2.89484189e-04 -6.16855361e-03 -9.01764333e-02 -5.39617985e-03
      3.95895727e-03 -5.21574281e-02 1.80353280e-02 4.72899899e-02
      2.09339689e-02 1.11576798e-03 -1.28373401e-02 -1.96445361e-02
      -3.70528810e-02 -4.44969386e-02 -7.54799917e-02 -6.94413437e-04
      8.86422768e-02 3.52140814e-02 -1.25091365e-02 -1.52546754e-02
      -5.41428328e-02 -6.65075183e-02 7.10986496e-04 -4.27984493e-03
      3.61355618e-02 9.24857929e-02 -2.14987118e-02 -2.12006606e-02
      -1.30312918e-02 -6.99999630e-02 1.14554809e-04 1.51612237e-03
      6.38998859e-03 1.66973285e-02 7.70660164e-03 -9.41669685e-04
      1.10853966e-02 -1.55796986e-02 -6.94124354e-03 -4.13497761e-02
      -2.87612267e-02 6.97790133e-03 9.26983263e-03 6.33536503e-02
      -3.31159569e-02 -2.49872319e-02 -6.55584186e-02 -3.14556956e-02
      -3.47899273e-02 -2.61347257e-02 -1.12398090e-02 1.10738063e-02
      1.12374030e-01 2.07631849e-03 -1.15521410e-02 -2.88206004e-02
      -3.45337726e-02 -6.02196716e-02 -1.92467198e-02 -1.16558336e-02
      3.09506431e-05 6.51472211e-02 3.83734377e-03 2.56145583e-03
      -2.83306395e-03 -5.48766442e-02 -1.02930717e-01 1.09475451e-02
      1.01700164e-02 3.24408971e-02 7.76059702e-02 2.25627700e-05
      -5.75174903e-03 -8.57362803e-03 -1.11583091e-01 -2.50263344e-02
      3.37607739e-03 2.17477023e-03 2.25203903e-03 1.80716917e-03
      -3.93303158e-03 -5.60319517e-03 -2.12522759e-03 -4.91587855e-02
      -6.83988705e-02 -2.75021661e-02 -4.83398475e-02 -3.28274332e-02
      9.22869295e-02 -6.35164604e-03 -1.00871082e-02 -7.89747387e-03
      -4.50951084e-02 -3.73220630e-02 1.05134994e-02 1.65793840e-02
      6.35797530e-02 7.33327195e-02 -3.56368758e-02 -4.00750749e-02
      -1.99151095e-02 -3.68480347e-02 -1.58193130e-02 -1.90485492e-02
      -1.56085268e-02 -1.33053642e-02 3.91046703e-02 -9.55317169e-03
      -4.25621197e-02 6.09562686e-03 -2.32029846e-03 -2.74722669e-02
      -1.80083159e-02 -4.01988905e-03 -5.82462410e-03 8.36705938e-02
      -2.30110660e-02 -1.79841109e-02 -2.69221682e-02 -1.50555465e-02
      -3.12941335e-02 -4.65774238e-02 -1.81500334e-02 2.06309389e-02
      9.28620175e-02 3.10851224e-02 1.76064356e-03 -3.47742066e-02
      -5.43807968e-02 -1.76330432e-02 -2.03172695e-02 -6.59175450e-03
      -1.26165384e-02 3.41462381e-02 8.09729937e-03 9.28547978e-03
      2.00633295e-02 -3.84892477e-03 -3.47344615e-02 9.67000052e-03
      8.36243853e-03 1.49209416e-02 2.56608501e-02 -8.14278028e-04
      -4.22230177e-03 -2.27359543e-03 -5.15116192e-02 -3.93256322e-02
      1.37394841e-03 -1.35834818e-03 -3.54554667e-03 4.83042910e-04
      -1.25117367e-03 -5.92610566e-03 -2.16704351e-03 -4.65475619e-02
      -4.36931923e-02 -5.23454789e-03 6.22883730e-04 5.50354889e-05
      -6.84570149e-03 1.04955696e-02 1.54710645e-02 7.54470658e-03
      -5.93070574e-02 -2.62296982e-02 -1.23149166e-02 7.68029422e-04
      4.31516506e-02 4.84722778e-02 -1.05754575e-02 -1.62217505e-02
      -4.83326521e-03 -2.97493450e-02 -4.47070040e-03 7.77731510e-03
      -1.92536507e-02 -1.89496763e-02 8.20683595e-03 -4.01460938e-03
      -2.04132292e-02 3.24775055e-02 -1.60264305e-03 9.03878268e-03
      1.84667241e-02 1.24638518e-02 7.10598077e-04 9.86996479e-03
      1.98437739e-02 3.17082778e-02 4.62575592e-02 2.16474161e-02
      -1.06043322e-02 -1.86004639e-02 -4.76040551e-03 1.38529055e-02
      7.43987560e-02 2.29449831e-02 1.02467379e-02 -7.44086271e-03
      -2.17422452e-02 -1.79293901e-02 -2.64515448e-02 -2.24470248e-04
      -1.85281783e-02 3.67743932e-02 4.14904486e-03 1.54264653e-02
      5.32842092e-02 4.88302391e-03 -3.68216727e-03 1.91707443e-02
      2.26583183e-02 2.93857995e-02 -1.21569885e-02 4.42376314e-03
      1.70745756e-02 1.29715111e-02 9.05774254e-03 -3.19315456e-02
      -6.09852420e-03 -3.88700282e-03 -6.15061540e-03 -6.02168823e-03
      -1.88261736e-03 -1.28403644e-03 -3.27487639e-03 -4.31408137e-02
      -8.24110284e-02 -2.71149594e-02 -2.36707949e-03 -1.96802639e-03
      -1.57274958e-02 1.05784917e-02 2.64339596e-02 1.15568927e-02
      -9.16000456e-02 2.64306758e-02 -3.72526352e-03 -1.24562196e-02
      -9.24013555e-03 -8.02687835e-03 -1.97085738e-02 -3.49843949e-02
      -2.34909970e-02 -4.64984514e-02 4.22756607e-03 9.79521219e-03
      -4.67467029e-03 -3.12094297e-02 -1.64043566e-03 -1.66874789e-02
      -3.62911001e-02 1.60773937e-02 -1.24763735e-02 4.09031659e-02
      2.80469637e-02 1.62367970e-02 2.41824836e-02 -1.32905291e-02
      2.00183410e-02 5.46737686e-02 7.49734789e-02 4.64855917e-02
      8.25793892e-02 5.04982285e-02 3.39779910e-03 5.25618438e-03
      -5.00798076e-02 -4.07430343e-02 -2.36104280e-02 2.62790686e-03
      4.58829179e-02 -4.94546890e-02 -1.37990667e-02 -2.84690061e-03
      -1.07311802e-02 1.93249043e-02 -7.18465680e-03 1.04224472e-03
      2.08770558e-02 -6.46552211e-03 2.00841445e-02 5.61926700e-02
      3.99241932e-02 3.97671908e-02 -6.32494092e-02 6.48299931e-03
      3.40831354e-02 2.55116336e-02 3.32407467e-02 7.65358806e-02
      3.18095870e-02 7.98314886e-06 3.64294928e-03 -5.07225096e-02
      -7.48588471e-03 1.23753762e-02 2.85149980e-02 7.77757242e-02
      -2.70523168e-02 -1.45201785e-02 -5.97774331e-03 -4.71513206e-03
      -1.34495255e-02 -1.02504191e-03 3.67177813e-03 7.77960056e-04
      -4.99801151e-02 3.67149673e-02 1.84810162e-02 -1.91204101e-02
      -1.57148801e-02 -1.52480183e-02 -6.31653070e-02 -8.29513222e-02
      -6.41297027e-02 -8.02222937e-02 4.10946123e-02 4.62087356e-02
      1.87153388e-02 6.20196247e-03 -1.32790087e-02 -5.46584316e-02
      -3.62343006e-02 -2.72182599e-02 -5.64287528e-02 3.13851424e-02
      9.89018753e-03 2.83229165e-03 1.89536363e-02 -1.21453563e-02
      1.53522808e-02 2.66704373e-02 2.58934200e-02 3.51993553e-03
      8.70361477e-02 8.47114548e-02 8.93748924e-03 -1.06557254e-02
      -8.77054334e-02 -1.21748738e-01 -6.81712329e-02 -1.19213928e-02
      4.52838168e-02 1.11954525e-01 1.06618702e-01 -6.95577078e-03
      -1.40119232e-02 -1.12960644e-01 -1.19100630e-01 -5.69506176e-02
      -2.16990300e-02 4.18764278e-02 3.21033858e-02 2.98236180e-02
      1.46940406e-02 1.57046430e-02 -5.60024120e-02 3.60324141e-03
      2.34312546e-02 1.47140184e-02 2.90561020e-02 8.82214829e-02
      5.16741686e-02 -1.53149785e-02 -1.04031647e-02 -7.31074139e-02
      -2.54510771e-02 2.20542913e-03 5.89043461e-02 9.21019614e-02
      4.97594289e-02 -1.94301903e-02 -4.82415594e-02 -1.48298154e-02
      -6.54633641e-02 -4.36296798e-02 -4.58755810e-03 4.36296649e-02
      8.00482407e-02 4.61839661e-02 2.48529855e-02 8.48776253e-04
      -1.34529290e-03 -9.58692469e-03 -3.76005135e-02 -3.80255356e-02
      -2.89505739e-02 -6.27181455e-02 5.99499494e-02 8.14896896e-02
      3.56400535e-02 1.41044836e-02 -1.35935249e-03 -4.98325750e-02
      -3.04974392e-02 -2.38607228e-02 -2.11066324e-02 -1.35788433e-02
      6.88131480e-03 4.59339749e-03 6.38272904e-04 1.02335988e-02
      6.95283012e-03 6.64731953e-03 -3.38061759e-03 -3.32416967e-02
      1.24085337e-01 8.73266757e-02 1.13244234e-02 -5.95156243e-03
      -8.59925374e-02 -1.21166632e-01 -4.36316393e-02 -1.74563229e-02
      5.26102223e-02 7.14394674e-02 9.71362367e-02 3.15269046e-02
      -9.44266282e-03 -8.08488354e-02 -1.32412836e-01 -7.55381808e-02
      -2.02109311e-02 4.75177504e-02 -6.29618717e-03 2.57407688e-02
      1.39306597e-02 -5.20129688e-03 -4.53273468e-02 -9.36659891e-03
      9.19909962e-03 1.02009745e-02 -1.99608877e-02 6.02497496e-02
      3.18079330e-02 -8.13991018e-03 -8.28310288e-03 -6.27174750e-02
      -2.39890590e-02 -6.54848153e-03 3.52561139e-02 7.87004456e-02
      5.54398894e-02 -3.23259421e-02 -7.29171410e-02 -3.88330296e-02
      -8.10219124e-02 -7.01276138e-02 -8.00664071e-03 5.24326079e-02
      9.06094462e-02 1.67877376e-02 -9.79448669e-03 -4.15811390e-02
      -3.82731333e-02 -3.92689705e-02 -4.08020755e-03 -6.04866538e-03
      -1.77476526e-04 1.17304334e-02 -1.49107166e-03 -3.95694468e-03
      -2.05532871e-02 8.47593416e-03 2.23602895e-02 1.08615458e-02
      3.17347632e-03 -6.68355124e-03 -3.65206832e-03 -3.44660319e-02
      -3.94610167e-02 -5.18803261e-02 -1.48144709e-02 9.72766876e-02
      -9.08239745e-03 -2.40968708e-02 -2.28874236e-02 -1.46119036e-02
      -3.93504687e-02 -1.25810457e-02 -5.78257395e-03 1.74681675e-02
      1.04178846e-01 -1.75681841e-02 -1.68690421e-02 -9.69110057e-03
      -2.83250064e-02 3.11248191e-03 5.89220878e-03 7.74341496e-03
      1.76397488e-02 1.08194491e-02 3.38838971e-03 2.78704911e-02
      -2.28140894e-02 -1.55087383e-02 -7.34806210e-02 -1.93147641e-02
      2.40189396e-02 1.89595651e-02 5.44913895e-02 -1.18660787e-02
      2.83385208e-03 -8.50882009e-02 -9.20275152e-02 -6.34516403e-02
      -3.54274102e-02 -2.51076762e-02 -7.46110640e-03 1.15393855e-01
      3.68362814e-02 8.95206071e-03 -5.82967624e-02 -8.35748687e-02
      1.14534283e-02 5.72249526e-03 7.21664634e-03 3.64688318e-03
      2.79527307e-02 1.47600845e-02 8.95150844e-03 6.83981460e-03
      4.38532932e-03 -4.85459454e-02 2.33686492e-02 2.89618894e-02
      2.29186639e-02 5.82181998e-02 2.08705887e-02 -1.17522236e-02
      -4.57877442e-02 -7.13072196e-02 -5.10633439e-02 7.49982148e-03
      3.02167283e-03 6.06679870e-03 4.13711742e-02 1.56464465e-02
      1.62015259e-02 -1.57444943e-02 -9.76382270e-02 -2.64791362e-02
      -1.52499108e-02 -1.73398666e-02 -8.64828099e-03 8.79922584e-02
      -1.17895147e-02 -1.26337958e-02 -7.64550548e-03 -1.16975671e-02
      -5.49694523e-02 -2.75813453e-02 -4.35552699e-03 4.46155854e-02
      8.49174932e-02 -1.79801285e-02 -2.13972013e-02 -1.17477616e-02
      -4.48518284e-02 -8.30315705e-03 -1.20997010e-02 -5.76244667e-03
      -9.34587326e-03 4.45870832e-02 2.10485514e-03 -7.96810724e-03
      1.44729624e-02 -1.50196729e-02 -6.72708601e-02 -2.16491856e-02
      -2.73942808e-03 -1.37345353e-02 7.05049187e-02 -2.50483826e-02
      -1.42881004e-02 -5.69896698e-02 -4.79258150e-02 -4.51452062e-02
      -6.42251074e-02 -4.04516198e-02 -1.10462876e-02 7.52320886e-02
      8.48783404e-02 5.12626655e-02 -6.39735907e-02 -5.45547567e-02
      -1.63095929e-02 -3.26292776e-02 -9.67613794e-03 -9.20935720e-03
      3.08250971e-02 1.51348952e-02 1.56741161e-02 3.47447433e-02
      1.71960052e-02 -4.27015424e-02 9.08429548e-03 9.72584356e-03
      1.03334477e-02 3.76653001e-02 5.38734859e-03 -7.10747624e-03
      -2.18206309e-02 -5.33444136e-02 -5.95758185e-02 7.17325462e-03
      -6.63116341e-04 -1.59047509e-03 3.48160341e-02 3.01426090e-02
      3.53443809e-02 -1.90226585e-02 -6.47955239e-02 -5.79256825e-02
      3.09278886e-03 1.22055050e-03 2.63416232e-03 -1.13463020e-02
      -4.55619418e-04 -2.06759432e-03 -4.55175340e-03 -1.03108510e-02
      -1.42568164e-02 -1.37466704e-02 -1.82065764e-03 2.00727899e-02
      6.15958013e-02 -2.18322990e-03 -3.96695221e-03 -3.89607245e-04
      -1.13650756e-02 -5.75515023e-03 -1.99395581e-03 4.10776120e-03
      -2.99700722e-02 1.95672177e-02 2.29335739e-03 -1.50254797e-02
      3.29393446e-02 -1.13846017e-02 9.15582106e-03 1.20939612e-02
      1.46476822e-02 8.32427107e-03 -2.68405732e-02 4.34116088e-03
      1.40520586e-02 1.89050771e-02 -8.35235789e-03 -1.97045226e-02
      -2.61850432e-02 -1.49500817e-02 1.82238710e-03 8.60139653e-02
      5.58722131e-02 3.36541794e-02 -1.33959800e-02 -4.68994193e-02
      5.25432499e-03 -1.31888287e-02 7.46963965e-03 1.16761066e-02
      2.68194340e-02 -1.26172043e-02 2.52519548e-03 2.76278891e-02
      -3.88952065e-03 -4.06397730e-02 4.36222292e-02 4.82604466e-02
      6.42457157e-02 -1.06866658e-02 -1.06510967e-02 3.58427555e-04
      1.06663234e-03 -1.83073115e-02 -2.58027241e-02 1.40519650e-03
      -3.44303786e-04 -1.00209331e-03 4.66268696e-03 1.18921380e-02
      1.53686116e-02 -4.72908979e-03 -5.31452857e-02 -5.12466952e-02
      3.06589976e-02 8.81463662e-03 8.60731397e-03 -2.68188361e-02
      -5.35177579e-03 -1.40789468e-02 -8.50597210e-03 -1.17349597e-02
      -6.06823452e-02 1.87910739e-02 1.21906511e-02 1.64520741e-02
      -7.44595332e-03 -4.76419489e-04 -1.33356638e-02 -1.77819151e-02
      -4.45709974e-02 -7.51497503e-03 3.62471095e-04 2.47541070e-03
      -1.93992499e-02 -2.49620527e-03 -5.44723123e-03 -1.11324787e-02
      1.27510512e-02 -2.31343564e-02 2.74528358e-02 2.43683439e-02
      1.84289161e-02 2.53316164e-02 -3.02607808e-02 9.93595552e-03
      2.58773938e-02 3.41774635e-02 1.40464520e-02 7.75729790e-02
      2.73181759e-02 4.58079390e-03 6.18680846e-03 -4.03070226e-02
      -2.22467110e-02 -7.08187697e-03 7.53351767e-03 4.67634015e-02
      -4.45719250e-02 -4.59542917e-03 7.99272303e-03 2.36861911e-02
      1.27342772e-02 -2.09891275e-02 -1.34844948e-02 2.67602932e-02
      -1.12187676e-02 1.07675390e-02 4.85547222e-02 4.88957837e-02
      5.15194200e-02 -3.25558148e-02 -1.39380265e-02 2.16906853e-02
      -2.74179480e-03 2.22509261e-02 6.70900121e-02 1.14615178e-02
      -2.00696569e-02 -3.94766126e-03 -3.36061493e-02 -9.58627276e-03
      1.44992387e-02 4.94305193e-02 7.19573647e-02 -6.29082769e-02
      2.67270692e-02 7.25696143e-03 5.66092227e-03 -1.55399954e-02
      -3.13484599e-03 -1.12908976e-02 -6.19316474e-03 -3.80772576e-02
      -7.41227865e-02 -1.56821962e-02 1.05910795e-02 2.61387955e-02
      -8.90081190e-03 -3.68946232e-03 -2.98138876e-02 -4.86535020e-02
      -6.79239407e-02 -3.19533497e-02 -3.55414860e-02 -3.98223735e-02
      -2.50280071e-02 -2.01558322e-02 -7.76997441e-03 -1.94533896e-02
      1.19853141e-02 4.17313688e-02 2.28055492e-02 9.71548725e-03
      4.96826880e-03 1.25355516e-02 -3.93009037e-02 4.64046141e-03
      1.24281170e-02 1.39450794e-02 5.25226770e-03 1.09933443e-01
      7.33120516e-02 6.49138447e-03 -3.11939069e-03 -8.35184082e-02
      -7.53215924e-02 -2.88645513e-02 2.18856335e-03 7.19024166e-02
      8.15933943e-02 4.48043980e-02 -2.36453600e-02 -1.32944612e-02
      -6.90351203e-02 -6.88874200e-02 -2.36106180e-02 -6.79098477e-04
      3.99101749e-02 1.85241159e-02 2.79630702e-02 2.46280897e-02
      2.85811722e-02 -6.77585751e-02 -5.22101345e-03 2.43466161e-02
      -5.89202245e-05 1.93672404e-02 4.49930206e-02 4.87967744e-04
      -5.99160977e-02 -4.31279168e-02 -7.20636472e-02 -3.17823216e-02
      1.54930272e-03 8.80782977e-02 4.44193445e-02 4.59411182e-03
      -6.19688518e-02 -8.03457648e-02 -1.43816564e-02 -6.73767328e-02
      -5.59395924e-02 1.41894342e-02 8.16836506e-02 7.79089034e-02
      -5.04734814e-02 -2.48201285e-02 -1.60393328e-03 8.62527359e-03
      -1.13371504e-03 -3.88854626e-03 -1.86697897e-02 -2.72668935e-02
      -2.28417795e-02 -5.90656251e-02 -6.53464720e-02 -9.41942483e-02
      -5.94579987e-02 -4.72465083e-02 -1.65512823e-02 -2.42321864e-02
      6.12824634e-02 4.89617996e-02 -2.87937410e-02 -4.35317121e-02
      -2.31368002e-02 -4.56303777e-03 -6.08757138e-04 -7.21058063e-03
      9.32701770e-03 6.54688552e-02 4.96670976e-02 8.79843757e-02
      5.09087555e-02 3.85421305e-03 -3.55569157e-03 -6.08597323e-02
      -4.59745675e-02 -1.43931955e-02 3.05168820e-03 4.39617299e-02
      1.27608046e-01 7.34689385e-02 -3.83566730e-02 -3.82162146e-02
      -1.10654309e-01 -1.00296535e-01 -2.85695828e-02 9.72506031e-03
      8.27101246e-02 7.56615493e-03 1.47614079e-02 -7.12308986e-03
      -2.11414434e-02 -4.30142395e-02 -3.33822076e-03 3.93749960e-03
      2.52676546e-03 1.39774568e-03 3.30836102e-02 -1.34699522e-02
      -4.13665958e-02 -1.96131673e-02 -7.80224875e-02 -2.72331741e-02
      1.52951025e-03 9.79525521e-02 7.61760622e-02 8.63601454e-03
      -4.71710525e-02 -1.07932501e-01 -3.92671786e-02 -3.65743600e-02
      -5.19308671e-02 2.30297018e-02 8.58335793e-02 5.90779334e-02
      1.77316442e-02 -2.78841071e-02 -9.70865786e-02 -6.98615238e-02
      -4.39028740e-02 -9.65373032e-03 -1.53141916e-02 1.08542629e-02
      2.67329924e-02 -2.01221295e-02 -2.24273112e-02 -3.70265692e-02
      -2.16640383e-02 -1.93028357e-02 -8.04995745e-03 -2.36332626e-03
      6.04386330e-02 7.37705082e-02 -5.72562544e-03 -7.01931119e-02
      -4.95728068e-02 -6.99483091e-03 2.79005282e-02 1.70550088e-03
      2.97188424e-02 1.06504291e-01 7.83585906e-02 3.75637063e-03
      -2.45403405e-02 -3.51558663e-02 -2.04491038e-02 1.02065895e-02
      6.52087107e-03 5.13739372e-03 1.80210397e-02 2.10419949e-02</_>
    <_>
      -3.64045985e-02 -3.02894358e-02 -1.59298964e-02 1.33425382e-03
      -8.36945779e-04 -6.05763542e-03 -1.17817651e-02 -1.08421948e-02
      -2.89809462e-02 -2.56593358e-02 -4.15579118e-02 -9.75057762e-03
      2.86789369e-02 5.02718650e-02 -7.15817958e-02 -4.04914618e-02
      -6.22040853e-02 -6.64597675e-02 1.49249230e-02 -4.35865950e-03
      6.63039833e-03 4.58508497e-03 7.05474392e-02 -3.11342999e-02
      -1.83600634e-02 -3.07245534e-02 -1.04239779e-02 -5.99898025e-02
      -2.74623316e-02 -2.37520738e-03 3.67654003e-02 5.89395650e-02
      5.94468648e-03 -1.58727225e-02 -5.40712997e-02 -7.21533820e-02
      -2.74321511e-02 -5.91066331e-02 -6.42021596e-02 -1.74110252e-02
      7.67109022e-02 -5.38718188e-03 -8.65625590e-02 -1.18043430e-01
      -7.47283623e-02 -2.42911349e-03 -6.62816837e-02 1.96760241e-02
      5.63878519e-03 7.40913823e-02 -5.68653829e-02 -8.71778056e-02
      -1.02084816e-01 -4.80519459e-02 -4.11707051e-02 -8.62455647e-03
      -1.59085803e-02 -9.03240684e-03 3.68180051e-02 1.09006520e-02
      1.90132018e-02 -2.25599203e-02 -3.70779075e-02 -5.97579032e-02
      -6.59922212e-02 -7.19969869e-02 2.93776137e-03 1.13013573e-01
      6.36836737e-02 -3.52865346e-02 -7.96287954e-02 -8.45601186e-02
      -3.93224694e-02 -5.40258177e-02 -9.85209923e-03 1.95734128e-02
      1.21019095e-01 2.65714470e-02 -2.57211830e-02 -8.02517235e-02
      -5.01641221e-02 -9.77252494e-04 -1.14619005e-02 7.34339934e-04
      6.44548796e-03 5.11384681e-02 -3.90777625e-02 -2.35482268e-02
      -3.71387675e-02 -3.00937630e-02 2.61529684e-02 -1.05557898e-02
      8.32532719e-03 2.11356417e-03 5.14664128e-02 -2.76484825e-02
      -1.60039850e-02 -1.43945636e-02 2.33669188e-02 3.37761417e-02
      -1.41042881e-02 -8.82900227e-03 -2.63392441e-02 -4.62220386e-02
      -1.06262015e-02 -1.24355527e-02 5.69670508e-03 5.22479117e-02
      -1.37418918e-02 -6.29503503e-02 -2.65801158e-02 -2.28922013e-02
      8.97122175e-02 -2.27528345e-02 -7.90922418e-02 -8.53267983e-02
      -4.18833978e-02 -3.31670865e-02 -5.94870485e-02 -1.30000310e-02
      1.79151874e-02 2.59001069e-02 -8.13565627e-02 -9.92707536e-02
      -1.07078865e-01 9.27224942e-03 1.76518280e-02 -3.70647125e-02
      -6.48768097e-02 -1.05939500e-01 -2.30748728e-02 -4.63941433e-02
      -5.69231473e-02 -9.17094387e-03 7.40535185e-02 -3.54809500e-02
      -3.89517881e-02 -3.19787078e-02 -6.56882022e-03 1.33226544e-01
      2.99346186e-02 -2.60920599e-02 -5.05751148e-02 -4.39177118e-02
      -7.53213838e-03 -6.30899072e-02 4.68713837e-03 2.24470031e-02
      5.40218204e-02 1.14483377e-02 -3.76039520e-02 -1.05718717e-01
      -4.45989296e-02 2.54345741e-02 8.02795310e-03 8.62535369e-03
      9.01740161e-04 8.10903090e-04 -5.52015714e-02 -6.52665347e-02
      -2.83248685e-02 1.25839859e-02 1.01848124e-02 -6.41494058e-03
      3.96242831e-03 -1.21791195e-03 1.15572587e-02 -2.85643968e-03
      -2.22733011e-03 6.13387721e-03 2.51335632e-02 6.98139891e-02
      -1.16107613e-02 -1.60818473e-02 -3.90888676e-02 -8.20332766e-02
      -2.67327670e-02 -2.61556674e-02 -6.32228621e-05 9.34268311e-02
      -1.33314487e-02 -2.33798157e-02 -1.34385899e-02 -9.23898909e-03
      -1.91279147e-02 4.39082086e-03 1.09001575e-02 1.01525858e-02
      1.69411078e-02 2.18897704e-02 -2.49210224e-02 -6.50170166e-03
      -3.22068073e-02 -2.33591646e-02 -3.59653160e-02 -3.52729633e-02
      -2.80932803e-02 4.47985940e-02 1.51511002e-02 -5.63960969e-02
      -8.21515173e-02 -9.91067588e-02 -1.20350383e-02 -2.77885534e-02
      -7.75484741e-02 -9.49096587e-03 4.58222292e-02 -3.81457321e-02
      -7.30086342e-02 -3.80881578e-02 -1.77503936e-02 8.97147954e-02
      6.38521910e-02 2.34025437e-02 2.16011293e-02 -6.46244362e-03
      2.54829116e-02 -6.91040792e-03 7.81301595e-03 9.89534054e-03
      3.22579853e-02 -7.81736150e-03 -2.40796730e-02 -2.92147528e-02
      4.39501228e-03 -9.27326642e-03 1.91877224e-02 3.84203531e-02
      3.43134589e-02 -3.48762795e-03 -5.85775673e-02 -6.59110546e-02
      -1.94568858e-02 -1.92460269e-02 -7.13877007e-02 3.09627000e-02
      5.59080802e-02 7.08810538e-02 8.64571482e-02 1.86830685e-02
      1.72469188e-02 -1.98583193e-02 -1.06251508e-01 4.18450758e-02
      -3.73743777e-03 -8.09771102e-03 -1.21629722e-02 -2.96592843e-02
      -1.05580855e-02 -8.85804556e-03 -9.49138484e-04 4.00286242e-02
      -4.97915372e-02 -5.37679866e-02 -1.93724371e-02 -1.38667561e-02
      -7.96795543e-03 3.33110653e-02 3.64246182e-02 3.06623224e-02
      1.24307303e-02 -1.63944792e-02 -4.63809557e-02 -6.93109166e-03
      -3.53367836e-03 7.84983486e-03 1.18019022e-02 1.09698586e-02
      5.31948078e-03 8.72738659e-03 1.22906025e-02 -2.50542630e-02
      -3.13324705e-02 -5.53118922e-02 2.12527774e-02 6.82117045e-03
      -3.70587707e-02 8.37748498e-03 4.65559475e-02 -4.92793880e-02
      -6.89991266e-02 -4.80397977e-02 1.26536367e-02 8.93537626e-02
      1.09873436e-01 7.86360204e-02 5.74611090e-02 -3.77426064e-03
      -5.40737920e-02 -7.22557008e-02 -2.51598991e-02 1.25918416e-02
      2.91917771e-02 7.40740728e-03 2.58542541e-02 3.11717708e-02
      9.22330376e-03 -4.00821045e-02 1.34963123e-02 2.95720268e-02
      3.10724620e-02 7.19276592e-02 -1.05179800e-02 -2.46150512e-02
      4.16032411e-03 -8.73817131e-03 -8.01647082e-02 2.98769716e-02
      8.27523917e-02 1.11922346e-01 9.43846479e-02 3.10882721e-02
      4.17321138e-02 -3.20131741e-02 -8.94961879e-02 -4.16708328e-02
      -3.69097106e-02 1.39098093e-02 3.52715142e-02 1.29778925e-02
      9.90328658e-03 2.28338372e-02 1.73059590e-02 -4.41144183e-02
      -1.79876313e-02 -2.43000295e-02 -5.78438723e-03 -4.97948611e-03
      6.27384894e-03 1.90229397e-02 1.87020246e-02 1.40033541e-02
      9.66566987e-03 -6.85525034e-03 -5.43390028e-02 -1.04657570e-02
      3.49993212e-03 2.07442953e-03 9.93627589e-03 1.39040332e-02
      6.83485670e-03 2.50518490e-02 3.16529199e-02 -2.60605458e-02
      -1.00315427e-02 2.64684577e-03 -9.86590050e-03 -4.35835973e-04
      2.34701415e-03 1.55142823e-03 2.81013977e-02 -4.90723662e-02
      -7.01333806e-02 -1.45969633e-02 1.99083053e-02 5.13770357e-02
      4.31258678e-02 5.99014424e-02 3.69642004e-02 -1.81140620e-02
      -5.70499664e-03 -1.09045962e-02 -4.98583913e-02 1.63173042e-02
      1.99164618e-02 -1.71946676e-03 2.68313047e-02 5.42274192e-02
      5.86634465e-02 3.09515912e-02 -3.68332379e-02 -4.39407192e-02
      -6.53453497e-03 -1.83931012e-02 -1.28213065e-02 1.61404535e-02
      4.54310104e-02 3.80758196e-02 -4.43984158e-02 1.06839091e-02
      2.70668529e-02 4.56841849e-02 3.11590657e-02 1.86464656e-02
      3.55615914e-02 -3.10097029e-03 -5.42897880e-02 -1.58621036e-02
      -5.50202951e-02 9.87582747e-03 3.97369787e-02 1.28258727e-02
      1.24443490e-02 2.92499829e-02 6.95079863e-02 -8.26239493e-03
      -1.22090976e-03 -2.85384972e-02 -2.90669445e-02 -1.63013544e-02
      -1.84607969e-04 1.97465386e-04 2.09870152e-02 7.83386827e-02
      -9.31747071e-03 2.94295046e-02 -1.20095536e-02 -5.91601850e-03
      4.75132046e-03 -6.05510361e-03 7.19576565e-05 3.58608807e-03
      1.85632927e-03 1.65606216e-02 5.11360653e-02 -2.69722827e-02
      -3.15535329e-02 2.18177936e-03 -4.41281591e-03 8.50220770e-03
      1.04929823e-02 1.44889802e-02 5.85713312e-02 -6.96434267e-03
      -5.88276163e-02 -3.40260230e-02 -9.35024768e-03 8.01123213e-03
      5.40044112e-03 5.14270971e-03 7.99265970e-03 7.45344302e-03
      1.42309917e-02 -5.58529906e-02 -3.77783738e-02 4.13800636e-03
      -4.35871026e-03 -8.83570407e-03 9.34395194e-03 2.88304109e-02
      5.81382774e-02 2.11116690e-02 -9.42269433e-03 -8.91974568e-03
      2.24340684e-03 6.22614659e-03 3.58031481e-03 3.62900607e-02
      9.56817642e-02 4.71704714e-02 -4.54164483e-02 -8.14903751e-02
      -2.52597909e-02 9.15345456e-03 7.75956437e-02 3.08828615e-02
      1.60547458e-02 3.35661359e-02 -2.44023185e-03 5.92902256e-03
      -3.46051715e-02 -7.40720937e-03 5.62359951e-03 1.09987799e-03
      2.20260071e-03 1.07102804e-02 5.47667369e-02 -3.68627417e-03
      1.61864725e-03 -4.62530106e-02 -5.67071624e-02 -4.58309986e-02
      7.39808986e-03 7.36218004e-04 4.14596312e-02 8.77264962e-02
      3.01839095e-02 -4.38401476e-02 -5.57087921e-02 -3.03132478e-02
      -2.01215036e-02 5.83333103e-03 5.87907038e-04 7.73035362e-03
      -9.14806314e-03 -1.67734250e-02 -3.45509723e-02 -1.57049708e-02
      -6.49155234e-04 1.02971289e-02 3.01911421e-02 1.55419270e-02
      8.34317133e-03 -1.69080738e-02 -2.75109019e-02 -2.57410686e-02
      -5.39080240e-02 -5.26270010e-02 -2.46336013e-02 9.65991914e-02
      3.34645994e-02 -4.17620428e-02 -4.50386703e-02 -4.09819447e-02
      -1.91285182e-02 -4.22651246e-02 5.78739680e-03 1.42349154e-02
      1.11209124e-01 -2.11533401e-02 -4.04567458e-02 -5.27170859e-02
      -3.71849388e-02 -4.93521430e-02 -1.71390735e-02 -4.27430943e-02
      -3.06466259e-02 6.76077306e-02 1.36696165e-02 2.04293411e-02
      -3.29455063e-02 -7.64480159e-02 -9.62815508e-02 -1.12308502e-01
      -1.21670827e-01 1.83173828e-02 7.72274286e-02 6.60194680e-02
      -9.29340138e-04 -1.30001068e-01 -1.21584944e-01 -5.14975265e-02
      -8.82058963e-02 -4.84812297e-02 -2.59492488e-04 9.97676104e-02
      7.45804757e-02 1.82872638e-02 -8.85022283e-02 -3.41163911e-02
      8.25096201e-03 6.33139443e-03 -5.10860048e-03 -1.14104373e-03
      3.26952264e-02 -5.97529906e-05 -2.58430559e-02 -2.67586056e-02
      -1.52438059e-02 -9.07297060e-02 -8.20887387e-02 -1.04181990e-01
      -2.89453734e-02 1.09575495e-01 2.64732167e-02 8.17455817e-03
      -4.04818878e-02 -2.29401309e-02 2.74431948e-02 -2.89691817e-02
      -3.50850448e-02 -1.47863338e-02 1.31701725e-02 2.63479613e-02
      2.86759641e-02 2.44043041e-02 5.48642687e-02 -1.58080738e-02
      -3.56037244e-02 -2.04139203e-02 -1.09888837e-02 9.60896015e-02
      -3.69824725e-03 -4.00071964e-02 -3.95701900e-02 -2.91184057e-02
      -3.10771354e-02 -6.42960221e-02 9.53822490e-03 -3.82275466e-04
      3.75314690e-02 -4.95873466e-02 -6.36779591e-02 -8.72250125e-02
      -5.06253541e-02 3.44200013e-03 -1.30362213e-02 -2.61143874e-02
      -4.49617505e-02 7.96189997e-03 -2.35127807e-02 -4.06618752e-02
      -9.59041435e-03 2.67273560e-02 -8.82897452e-02 -9.53151807e-02
      -8.52345303e-02 -2.44958829e-02 1.07136734e-01 5.37415966e-02
      -1.40051804e-02 -8.95336717e-02 -7.59008974e-02 -1.95703097e-02
      -1.01886004e-01 -3.34489793e-02 -1.02375234e-02 3.61365229e-02
      3.71433981e-02 3.93986097e-03 -6.61606193e-02 -1.31124668e-02
      6.25088885e-02 3.35854515e-02 4.83125784e-02 3.43448780e-02
      -3.53549086e-02 -1.07117325e-01 -8.91401097e-02 -5.64613305e-02
      2.36543529e-02 -4.65113670e-02 -5.25972098e-02 -6.45232424e-02
      -2.14956012e-02 4.30802330e-02 1.92380659e-02 1.22325243e-02
      -4.87346854e-03 4.27152350e-04 9.08304304e-02 -2.16106270e-02
      -2.80310158e-02 -1.50713827e-02 -4.89837397e-03 2.68630348e-02
      4.89203744e-02 4.23532091e-02 1.19897388e-01 7.82018155e-02
      1.67655926e-02 1.63612179e-02 8.51135142e-03 -6.05740445e-03
      -1.41360518e-02 -1.03084166e-02 -4.67827683e-03 4.18115556e-02
      -2.27244245e-03 -1.51778758e-02 -1.74073142e-03 -9.17299185e-03
      2.98687723e-02 -1.93587616e-02 -2.18534507e-02 -2.23581810e-02
      -8.44991882e-04 -1.00202914e-02 -2.00100671e-02 -2.56831739e-02
      -6.41978085e-02 1.70815624e-02 -1.29967984e-02 -5.71631715e-02
      3.60965636e-03 2.26692744e-02 -7.62902424e-02 -1.63988806e-02
      7.21737463e-03 1.06942356e-02 4.77808230e-02 3.17390040e-02
      1.02541139e-02 2.92105810e-03 -6.15202598e-02 6.25390410e-02
      -7.27317762e-03 6.67118421e-03 1.37086154e-03 -1.68747660e-02
      -1.11311376e-02 -1.66074000e-02 -2.78227944e-02 4.15227935e-02
      2.07962655e-02 8.34697485e-02 1.22604921e-01 8.38047564e-02
      -3.36533114e-02 -9.72466096e-02 -1.14480063e-01 -9.68119651e-02
      -1.80724319e-02 -6.46719187e-02 9.02622491e-02 1.14071660e-01
      1.47127211e-01 1.14438362e-01 -4.06306013e-02 -4.25665267e-02
      -1.08482763e-01 -1.12411417e-01 5.84843904e-02 1.93343847e-03
      1.05952856e-03 -4.29503678e-04 -5.36510674e-03 3.57641000e-03
      1.54258963e-02 1.71486512e-02 5.75123578e-02 9.90489572e-02
      4.66788746e-02 3.81118730e-02 2.59822458e-02 4.26180987e-03
      -2.59047896e-02 -4.18213159e-02 -4.05086316e-02 2.39036400e-02
      3.59574668e-02 4.11590859e-02 2.71902736e-02 3.45507115e-02
      2.41355672e-02 -3.11136711e-02 -5.36856130e-02 -8.92137140e-02
      -8.17326531e-02 -6.54296903e-03 -4.49509965e-03 6.47936133e-04
      -1.28931282e-02 4.06940542e-02 1.05497660e-02 -1.09690828e-02
      1.11785904e-02 1.31232413e-02 -6.21261597e-02 -2.87656970e-02
      1.37554388e-02 4.82611768e-02 7.80986845e-02 5.68588302e-02
      4.76364493e-02 2.32260395e-02 -5.60856089e-02 -1.38717480e-02
      -5.62232547e-02 -1.00817927e-03 2.39710994e-02 1.77862272e-02
      4.54576779e-03 1.10434098e-02 1.70386061e-02 -1.44696040e-02
      -4.85596545e-02 5.10187410e-02 7.45491683e-02 8.86294991e-02
      7.79947191e-02 -3.90495025e-02 -5.68170659e-02 -1.86632350e-02
      -4.79158498e-02 -4.70477231e-02 9.82679352e-02 1.42224073e-01
      1.63075432e-01 1.06838800e-01 -2.50315573e-02 -1.57429613e-02
      -9.08517614e-02 -4.05800343e-02 -4.20828685e-02 -2.53248513e-02
      1.93827637e-02 4.58996184e-02 9.11634415e-03 1.09628756e-02
      1.35120573e-02 2.43225452e-02 -5.37682958e-02 5.70647307e-02
      2.87905354e-02 1.94711480e-02 1.59789156e-02 8.25098902e-03
      -8.72429460e-03 -2.40198057e-02 -2.83254739e-02 3.59675521e-03
      4.52805869e-02 4.35068607e-02 3.18538994e-02 4.49200906e-02
      4.49876338e-02 -4.53676879e-02 -8.61636549e-02 -1.39590830e-01
      -9.30885375e-02 -2.45486032e-02 -2.11127289e-02 -1.14091160e-02
      -1.48425093e-02 -5.41294226e-03 -9.18783434e-03 -4.10270914e-02
      -2.11486537e-02 -4.42809379e-03 -3.53399888e-02 -2.20952760e-02
      3.89324548e-03 2.54561529e-02 3.02403755e-02 2.02300660e-02
      2.64218021e-02 1.38167338e-02 -2.61689648e-02 9.96688730e-04
      -6.86211884e-02 -9.94034484e-03 2.58255694e-02 1.48064038e-02
      1.04848249e-03 1.11808963e-02 3.50997373e-02 3.03434264e-02
      4.49700542e-02 -4.57070284e-02 -2.33088024e-02 -9.80464276e-03
      -4.31045378e-03 -3.06570600e-03 8.44561122e-03 4.01062332e-02
      1.80545636e-02 -3.00459601e-02 4.63378839e-02 4.90149297e-02
      7.56913647e-02 5.10481447e-02 -5.05884970e-03 2.43635215e-02
      -4.00314927e-02 -8.09125975e-02 -2.19930075e-02 -6.51321486e-02
      6.09949324e-03 2.74025574e-02 -5.18971647e-04 1.80874169e-02
      2.27226224e-02 7.57018551e-02 -1.15376161e-02 -4.31155749e-02
      -6.19657487e-02 -4.25174460e-02 -2.00975388e-02 1.55756704e-03
      -2.92199198e-04 4.24694121e-02 1.16091669e-01 2.82936115e-02
      8.52687284e-03 7.51681812e-03 6.88292040e-03 1.10450499e-02
      1.84904728e-02 -1.53354490e-02 -3.69837172e-02 -5.62008359e-02
      -4.68987860e-02 -5.83850406e-02 -4.89430837e-02 -2.40290090e-02
      -3.16259377e-02 -3.57636884e-02 -1.51130781e-02 -4.16746959e-02
      4.67340015e-02 1.67865381e-02 -7.13171531e-03 -7.01477472e-03
      -2.31919135e-03 -7.91490451e-03 -1.05731655e-02 -5.26033202e-03
      -8.88049835e-04 6.89512864e-02 8.86025876e-02 4.06068824e-02
      -5.87024726e-02 -1.38092870e-02 3.56158474e-03 3.33519070e-04
      -1.84773363e-03 5.23135858e-03 2.38500778e-02 1.65754445e-02
      3.65424827e-02 -2.76461225e-02 -2.54833773e-02 -1.72222257e-02
      7.39886332e-03 9.94499191e-04 1.60813984e-02 6.85756728e-02
      1.67412627e-02 -2.54536420e-02 -3.67805101e-02 -8.94014537e-03
      -2.26366310e-03 2.68929321e-02 7.91803282e-03 2.82141846e-03
      1.36790727e-03 -1.24338185e-02 -4.16794270e-02 -6.09357618e-02
      -1.53104514e-02 2.62762536e-03 -8.15083925e-03 2.16232915e-03
      1.63022019e-02 1.18336335e-01 -3.09515074e-02 -1.31409522e-02
      -4.12137099e-02 -6.78007603e-02 -3.96410152e-02 3.72876674e-02
      9.87960212e-03 7.85537362e-02 1.34975776e-01 1.12742418e-02
      -8.84830207e-02 -1.28288165e-01 -7.01357573e-02 -2.78517101e-02
      2.13682596e-02 3.76558979e-03 2.25703716e-02 -5.23511041e-03
      -2.86848955e-02 -2.84880977e-02 -2.66205389e-02 -1.32925855e-02
      -1.80127900e-02 -2.61513852e-02 -8.80175363e-03 -1.24396300e-02
      6.50699958e-02 9.49892178e-02 1.36798825e-02 2.84099988e-05
      1.61749423e-02 6.68281969e-03 3.11936829e-02 2.56903935e-03
      1.56997312e-02 1.01070322e-01 1.13350533e-01 -1.82490703e-02
      -6.01610728e-03 -4.34372778e-04 1.28704291e-02 2.33724657e-02
      3.83534323e-04 4.72927652e-03 3.46924341e-03 -1.04476586e-02</_>
    <_>
      -1.65692996e-02 1.06716864e-02 8.23843945e-03 2.46286727e-02
      2.04465277e-02 -2.51855166e-03 -9.55784414e-03 -3.20020244e-02
      -2.77852118e-02 -4.04330455e-02 -5.69519261e-03 -3.05834971e-03
      3.18007637e-03 1.02568500e-01 -1.91488769e-02 -4.82893735e-02
      -6.98519722e-02 -7.21788779e-02 -3.68062593e-02 -9.19977017e-03
      -1.44453431e-02 -6.23697741e-03 7.19093829e-02 -1.23199606e-02
      -1.31572643e-02 -1.69647243e-02 -6.07740730e-02 -1.82418469e-02
      1.72776990e-02 6.65101176e-03 1.58439893e-02 2.62376610e-02
      2.30750609e-02 -4.25396767e-03 -2.60203481e-02 -2.88008340e-02
      -1.13311663e-01 -4.93377149e-02 -5.74564748e-02 6.86864508e-03
      7.63672888e-02 2.68425904e-02 -7.45472983e-02 -1.12755440e-01
      -1.46627694e-01 -4.73947562e-02 -3.97399962e-02 -4.12186161e-02
      7.85892084e-03 1.40659705e-01 -3.69681232e-02 -5.85314557e-02
      -5.66822588e-02 -8.87737870e-02 1.53013039e-03 1.06477719e-02
      9.38507263e-03 -1.29064452e-02 -6.55279979e-02 -6.69437507e-03
      2.22306289e-02 1.54757118e-02 -1.50605605e-03 -8.41997713e-02
      -1.90959349e-02 1.84761919e-02 4.23431359e-02 8.33491609e-02
      -2.10442953e-03 8.58410913e-03 -4.21637706e-02 -7.80891776e-02
      -7.13854060e-02 -2.22937334e-02 -1.67641547e-02 2.96404175e-02
      1.61398858e-01 5.63285721e-04 -3.44118960e-02 -4.51764651e-02
      -5.56181259e-02 -2.01820228e-02 -8.34518205e-03 -9.33143962e-03
      -9.24928021e-03 6.58272952e-02 -9.80924536e-03 -1.84658468e-02
      -2.25349721e-02 -3.19261253e-02 -6.26570210e-02 -1.28303291e-02
      -1.37508539e-02 -1.12476479e-03 7.57942721e-02 -1.89697426e-02
      -1.75281800e-02 -1.98919810e-02 -8.55770856e-02 -2.58019324e-02
      -1.70416832e-02 5.56271698e-04 7.90188089e-03 1.10162729e-02
      -1.07400806e-03 -4.72561689e-03 -1.44541997e-03 -3.78679037e-02
      -7.57224262e-02 -3.97873670e-02 -2.50596777e-02 8.79689585e-03
      1.03849679e-01 -5.17966168e-04 -4.07483689e-02 -6.17551208e-02
      -8.63254741e-02 -3.84384021e-02 -3.44979875e-02 -4.24526259e-02
      8.05355515e-03 5.66106327e-02 -5.86613379e-02 -8.99271220e-02
      -6.07462935e-02 -4.01093177e-02 -2.44161244e-02 -3.39595228e-02
      -3.31679843e-02 -6.20180694e-03 4.58507352e-02 -1.18999593e-02
      -1.84009299e-02 2.04224214e-02 -1.07849734e-02 -5.68348542e-02
      -1.50851971e-02 -1.77175447e-03 2.02680957e-02 1.19584523e-01
      7.27755204e-03 -2.50315177e-03 -3.31397280e-02 -4.95611764e-02
      -3.02957967e-02 -2.72180811e-02 -2.45424770e-02 3.53621468e-02
      1.31177053e-01 -1.41477417e-02 -5.94587661e-02 -4.99343537e-02
      -4.24559116e-02 -1.39125492e-02 -3.36855557e-03 7.06781680e-03
      -1.28952391e-03 2.62087267e-02 -7.49391085e-03 -9.24424920e-03
      2.20413264e-02 -5.76120242e-03 -3.39717939e-02 -6.29555527e-03
      -2.58986664e-04 7.25647947e-03 3.15376520e-02 -6.75386097e-03
      -7.13422615e-03 -5.64415520e-03 -5.30736186e-02 -3.20420898e-02
      -2.95619927e-02 -5.06725069e-03 6.20963331e-03 1.84138399e-02
      1.14256414e-02 -1.20517367e-03 -1.94363703e-03 -1.97711848e-02
      -7.34544918e-02 -1.38257099e-02 -1.09760137e-02 -6.92140218e-03
      1.99852642e-02 2.50528120e-02 2.26429086e-02 1.35057596e-02
      -6.31119087e-02 -1.38980406e-03 -2.17154287e-02 -5.59453331e-02
      -1.55911418e-02 4.46355641e-02 -2.79230606e-02 -4.35279608e-02
      -8.82169511e-03 -7.40917725e-03 -2.39661243e-02 -4.26336601e-02
      -3.96060571e-02 -1.87173076e-02 2.27777753e-02 1.92201964e-03
      3.16573866e-03 3.95713598e-02 -2.45778691e-02 -1.67505872e-02
      -3.72206233e-02 -2.79514119e-02 -3.76219563e-02 3.04842424e-02
      5.52197136e-02 5.73624857e-02 3.38757113e-02 -1.42086996e-02
      -2.01988332e-02 -6.38214266e-03 -6.41601346e-03 1.06263952e-02
      6.23336360e-02 -8.45961925e-03 -3.12204398e-02 -9.20105539e-03
      -1.09014185e-02 -1.24306884e-02 -1.19290203e-02 2.23895982e-02
      1.10947434e-02 2.93128639e-02 -6.41959347e-03 6.40477752e-03
      5.31031005e-02 -1.31257549e-02 -1.61363762e-02 -1.19775068e-02
      -1.11059360e-02 3.02140396e-02 2.78723501e-02 1.78532470e-02
      2.80126352e-02 1.79305691e-02 -8.15881882e-03 -1.91087537e-02
      -1.19176740e-02 -5.72629832e-03 -9.37185192e-04 8.48192815e-03
      1.06277317e-02 3.73191480e-03 1.75962469e-03 -2.28393525e-02
      -9.81217027e-02 -2.23927964e-02 -1.09950211e-02 -1.23114828e-02
      3.35230716e-02 3.66230160e-02 4.41123061e-02 2.24173535e-02
      -8.92061815e-02 -2.58619245e-02 -2.36797845e-03 -4.88891033e-03
      -1.85973123e-02 9.31621436e-03 1.45443925e-03 8.09900556e-03
      -8.18019547e-03 -6.18121736e-02 -2.46004649e-02 -2.26648413e-02
      -6.92814076e-03 -1.42844180e-02 3.69359329e-02 2.46726274e-02
      1.93302166e-02 2.54176427e-02 -2.23437138e-02 -1.34234689e-02
      -2.59401593e-02 -4.14383709e-02 -6.44294498e-03 -1.14661492e-02
      5.50530180e-02 7.46503919e-02 4.19574976e-02 -3.60769522e-03
      2.51815305e-03 -3.18701635e-03 -3.26215774e-02 -1.11121498e-02
      -6.08401373e-02 -3.23459096e-02 -1.35065271e-02 -3.23126353e-02
      -6.89796964e-03 -3.81601863e-02 -5.56166470e-03 1.71978846e-02
      1.74476095e-02 4.26437669e-02 5.74489171e-03 1.28432196e-02
      2.99458522e-02 1.15195646e-04 8.15632008e-03 -2.34403815e-02
      -3.08854468e-02 3.83468792e-02 3.26895365e-03 2.82135196e-02
      4.28352319e-02 2.43809279e-02 3.72886163e-04 7.07059680e-03
      -1.90271419e-02 -2.75026709e-02 3.62907909e-03 -3.71787250e-02
      -2.04594191e-02 3.29473102e-03 1.32331038e-02 2.80072037e-02
      -4.23526950e-02 -5.94537705e-03 -1.21994899e-03 -4.54005692e-03
      1.37039023e-02 1.00171687e-02 1.68889277e-02 3.90791567e-03
      -4.98424992e-02 -3.11655644e-02 1.63530745e-02 -1.58338491e-02
      -5.23732305e-02 -3.43324151e-03 -7.61105563e-04 8.59700050e-03
      -9.47362464e-03 -7.63349682e-02 1.76625233e-02 5.17466627e-02
      3.79441213e-03 -2.80913636e-02 -2.05668099e-02 -1.64363557e-03
      1.71060127e-03 -6.28461642e-03 -5.15243374e-02 1.29547780e-02
      -1.34242475e-02 -2.11894568e-02 1.80083502e-03 1.11389370e-03
      1.37446700e-02 3.04836594e-02 -1.57422142e-03 -2.80602369e-02
      2.18221825e-02 -1.45281688e-03 -6.41826838e-02 -7.22296834e-02
      -8.01481828e-02 -6.72781095e-02 -2.99147256e-02 -2.33557485e-02
      2.09087674e-02 6.79723024e-02 8.56825933e-02 -4.81557753e-03
      -9.56104919e-02 -1.06335044e-01 -4.74998169e-02 -8.76375474e-03
      2.63172165e-02 3.93139869e-02 -1.16402470e-03 -7.13893399e-03
      -2.43469980e-02 1.59076434e-02 -3.27253621e-03 9.35103744e-03
      2.51687691e-02 8.82747304e-03 -1.66004559e-03 4.14023735e-02
      -1.11653423e-02 -4.25406694e-02 -3.31303850e-02 -8.63266289e-02
      -5.23007475e-02 -1.23230927e-03 4.49137911e-02 6.59359619e-02
      8.38343576e-02 2.08434034e-02 -2.36679781e-02 -6.51888475e-02
      -8.24071690e-02 -4.19257060e-02 5.98689495e-03 6.79111704e-02
      1.15825415e-01 -2.68838881e-03 1.85122527e-02 -1.20892497e-02
      -4.66178246e-02 -1.94464549e-02 -4.31031361e-03 1.31834054e-03
      -5.64785628e-03 -6.40939474e-02 1.37580587e-02 8.77636895e-02
      9.96077806e-03 -3.60836796e-02 -3.07054389e-02 9.60697653e-04
      3.19586904e-03 -1.34678679e-02 -7.58514032e-02 -3.93931679e-02
      -1.02920912e-03 2.48026277e-04 -6.74296031e-03 -8.95279087e-03
      2.98222760e-03 7.68826983e-04 -6.85675768e-03 -3.72061692e-02
      3.05722132e-02 6.34452561e-03 -4.48666066e-02 -8.57117549e-02
      -9.51073319e-02 -5.65112084e-02 -2.50999313e-02 -9.95518453e-03
      6.50163321e-03 2.79075019e-02 7.63548017e-02 1.97128393e-02
      -8.35710615e-02 -1.06409378e-01 -5.77920936e-02 -2.53812619e-03
      5.64489439e-02 6.14009686e-02 -2.05628630e-02 1.54558336e-02
      3.10845654e-02 1.63931269e-02 6.77625230e-03 2.36285590e-02
      2.17812508e-02 3.40061150e-02 -1.03827585e-02 4.23609056e-02
      -2.31126649e-03 -3.26957144e-02 -5.29332682e-02 -8.42596218e-02
      -4.28460985e-02 -5.75856958e-03 3.26338373e-02 6.42051101e-02
      9.59948376e-02 2.24140361e-02 -3.17626745e-02 -9.91951972e-02
      -1.15951300e-01 -6.85463026e-02 5.98768564e-03 8.36734399e-02
      1.24294303e-01 2.11614184e-02 2.92453240e-03 4.48279688e-03
      -9.44455713e-03 7.98400119e-03 -1.84873084e-03 -4.00290795e-04
      6.67420402e-03 1.22272484e-02 -3.74174817e-03 3.71619104e-03
      1.44671940e-03 -1.73778937e-03 -1.60204321e-02 1.83223821e-02
      1.09182596e-02 6.02224190e-03 -4.02374892e-03 -6.07746206e-02
      -3.17714512e-02 -2.13472284e-02 1.88019034e-02 8.25924128e-02
      2.09135991e-02 -1.98657531e-02 -4.04219627e-02 -6.73083663e-02
      -3.49665619e-02 -2.35478245e-02 -2.06932537e-02 1.47547554e-02
      1.49578750e-01 -1.38223367e-02 -3.01621035e-02 -2.69522909e-02
      -3.73694263e-02 4.08829050e-03 1.65067222e-02 1.33570274e-02
      -1.92462765e-02 -4.54714261e-02 -1.63753591e-02 3.48399691e-02
      2.59952862e-02 -8.39818269e-03 -8.87144357e-02 5.53411944e-03
      6.04071543e-02 8.30180421e-02 5.06353751e-02 6.50540553e-03
      2.05703080e-02 -7.80685693e-02 -1.46832645e-01 -7.98936188e-02
      -2.20931061e-02 -1.59015134e-02 3.94325331e-02 1.69322342e-01
      2.74115335e-02 -9.13289189e-03 -5.32821752e-02 -9.14940760e-02
      1.95725518e-03 5.33622643e-03 8.78132042e-03 7.12873647e-03
      -3.15144821e-03 -5.56412339e-03 -8.39121267e-03 -3.28544085e-03
      -1.62247829e-02 -1.00679070e-01 1.66447628e-02 3.01202349e-02
      5.20858206e-02 1.01159260e-01 3.01097427e-02 -3.37137235e-03
      -5.41007705e-02 -1.28804371e-01 -8.08543563e-02 -4.94757388e-03
      -1.67681588e-04 5.53079788e-03 4.15452793e-02 1.90281421e-02
      2.49972958e-02 6.00270601e-03 -1.04491048e-01 -3.55931669e-02
      -1.94307137e-02 -1.05781034e-02 1.18783955e-02 1.33222699e-01
      1.84944307e-03 -1.41374441e-02 -2.48091947e-02 -3.76490802e-02
      -3.15138772e-02 -3.02193929e-02 -4.75708023e-02 1.39511917e-02
      1.19719259e-01 -2.82718558e-02 -5.67726493e-02 -2.47043651e-02
      -3.20367329e-02 -1.76829137e-02 -8.23423080e-03 -7.08620436e-03
      -1.06232846e-03 4.96182255e-02 -4.79003042e-03 -6.19520992e-03
      2.38860920e-02 -3.99157172e-03 -1.05760776e-01 -7.25810044e-03
      1.31815830e-02 4.67957594e-02 1.14452116e-01 2.57989578e-02
      1.29015669e-02 -5.47176301e-02 -1.03770301e-01 -7.04698563e-02
      -3.87172885e-02 -2.81159822e-02 3.13933380e-02 1.10661350e-01
      3.86750363e-02 1.17915999e-02 -4.46503125e-02 -6.61375374e-02
      -1.62972640e-02 -3.60041927e-03 1.83876492e-02 1.23487227e-03
      2.83210129e-02 -8.08732817e-04 1.13055983e-03 4.77287360e-02
      2.64172978e-03 -7.11788535e-02 3.43471114e-03 1.01305488e-02
      2.15554014e-02 6.02876693e-02 1.60204899e-02 5.95849194e-03
      -1.57513395e-02 -1.02432676e-01 -7.10462555e-02 -1.39766773e-02
      -4.94870497e-03 -3.51667101e-03 3.07900608e-02 2.22113598e-02
      4.19643000e-02 1.66301280e-02 -4.67555933e-02 -4.98236716e-02
      -2.98791740e-04 6.11167029e-03 5.00150491e-03 -2.50216946e-03
      2.00658594e-03 5.99046657e-03 7.40118884e-03 -2.99916361e-02
      -3.19343968e-03 -9.12091974e-03 -2.25788020e-02 1.68250815e-04
      6.40892908e-02 -1.21247210e-02 -2.35302672e-02 1.04501622e-03
      6.47380017e-04 -3.82599235e-02 -1.81277227e-02 3.87887727e-03
      -5.86326513e-03 4.83683906e-02 4.77916421e-03 8.26620217e-03
      4.38449644e-02 -2.68833321e-02 8.20045173e-03 -6.50585303e-03
      -1.02217612e-03 -8.90774745e-03 5.95971197e-03 2.12156884e-02
      2.59511620e-02 1.63972825e-02 6.39043795e-03 -3.23301852e-02
      -1.51739344e-02 -9.82362777e-03 1.56250875e-03 6.25199676e-02
      -2.15646904e-03 -2.24380251e-02 -6.23075804e-03 -8.78695678e-03
      -1.07832476e-02 1.34409191e-02 5.63104898e-02 3.68721187e-02
      1.93979163e-02 -1.43413777e-02 6.16186764e-03 3.65742147e-02
      -2.28693131e-02 -3.36608738e-02 -1.25854034e-02 7.20588490e-03
      8.30991194e-02 4.02449071e-02 1.22003928e-02 1.54134296e-02
      1.08411638e-02 -4.62203063e-02 -4.83832993e-02 -6.62288163e-03
      -1.52753445e-03 -2.64775613e-03 1.53550785e-03 4.81859501e-03
      1.48970028e-02 7.90072605e-03 -4.88872044e-02 -4.34715375e-02
      1.94154698e-02 1.76869836e-02 1.40951388e-02 -6.03911048e-03
      2.64394749e-03 3.43636959e-03 8.91879317e-04 -1.42993191e-02
      -6.79057240e-02 1.50079839e-02 5.83068607e-03 2.47117933e-02
      8.95437971e-03 -1.72865301e-04 -9.69430525e-03 -2.07755864e-02
      -9.56880823e-02 -1.75327100e-02 -8.89134873e-03 7.56180706e-03
      -3.53527209e-03 3.16019431e-02 1.09254969e-02 1.25796897e-02
      1.99940987e-02 -4.19136602e-03 2.65624188e-02 -6.72823191e-03
      -1.95709355e-02 -3.00090830e-03 -1.94689923e-03 2.70988531e-02
      3.52850482e-02 1.43693853e-02 1.16674602e-02 3.89873236e-02
      -8.15861207e-03 -2.07370091e-02 4.61546192e-03 -2.71677133e-02
      -1.55239413e-02 -9.15655866e-03 -8.93706642e-03 -8.56244762e-04
      -3.68051007e-02 1.72491521e-02 4.27995622e-02 5.17457165e-02
      4.72948216e-02 -1.41978590e-03 6.37676474e-03 3.98749635e-02
      -8.35003704e-03 -3.27934846e-02 -2.34023985e-02 8.74893088e-03
      6.03117682e-02 2.11457275e-02 3.05655375e-02 4.74830270e-02
      3.07531897e-02 -1.97087154e-02 -2.11397558e-02 -2.23052148e-02
      -2.29493640e-02 -9.75258881e-04 -5.52638434e-02 -3.01179346e-02
      1.46547165e-02 5.59834130e-02 4.87098377e-03 -3.42131034e-02
      2.01525837e-02 1.22200148e-02 1.06477039e-02 -1.83247472e-03
      9.84306098e-04 -2.33493932e-03 -5.54041564e-03 -3.93854901e-02
      -1.04605600e-01 4.26782807e-03 1.67877495e-03 3.49634960e-02
      3.16066220e-02 3.41161434e-03 -3.39316041e-03 -1.41746243e-02
      -9.86025259e-02 -9.47200134e-02 -1.75336991e-02 -8.69442185e-04
      -7.17461808e-03 5.20548783e-03 -3.46727506e-03 8.66967998e-03
      3.86069939e-02 -2.35853083e-02 1.89376790e-02 -4.99700336e-03
      -1.49029111e-02 3.04052420e-03 -5.99146960e-03 2.99436669e-03
      1.01579716e-02 -2.41759862e-03 2.61922803e-04 5.23457341e-02
      -8.72360170e-03 -4.34486158e-02 -2.88912915e-02 -7.48750567e-02
      -3.98952700e-02 -1.93952788e-02 -4.56851907e-03 1.69049222e-02
      8.22583511e-02 3.20463218e-02 -1.30151436e-02 -5.23584820e-02
      -6.90104887e-02 -3.20735276e-02 -5.25511149e-03 2.44887006e-02
      5.49098514e-02 -2.98464261e-02 -2.08675116e-02 -4.10173982e-02
      3.10428552e-02 8.30262154e-03 1.04110111e-02 3.76591347e-02
      2.08511800e-02 -3.18851694e-02 1.26434565e-02 -4.71194535e-02
      -4.04361412e-02 -5.24344109e-02 -9.34259519e-02 -7.42757320e-02
      2.42656306e-03 8.56546536e-02 3.60740609e-02 5.09579927e-02
      -9.83914174e-03 -2.83925906e-02 -7.33084604e-02 -9.65742841e-02
      -6.84075281e-02 1.64981727e-02 9.55712795e-02 1.16222315e-01
      -7.66885951e-02 -5.96231222e-03 -1.09748612e-03 7.93079846e-03
      1.59179978e-02 2.18761363e-03 4.41536726e-03 4.91390191e-03
      -7.27013424e-02 -1.10309996e-01 -3.52467932e-02 -1.67413172e-03
      -1.00176530e-02 -6.99755363e-03 -2.05305386e-02 5.59018133e-03
      8.64491165e-02 -3.75616224e-03 -7.46816769e-02 -1.76344793e-02
      1.69034232e-03 -4.18028038e-04 -3.51164094e-03 -1.47169912e-02
      2.08007148e-03 6.49398863e-02 1.50805619e-02 5.65263666e-02
      -5.25361917e-04 -2.95180473e-02 -3.89777385e-02 -6.39312565e-02
      -3.05580515e-02 -1.04677323e-02 4.82415268e-03 1.39983445e-02
      8.28534961e-02 7.08983392e-02 7.15507241e-03 -7.41055682e-02
      -1.02402866e-01 -4.13408466e-02 -9.31965013e-04 4.82492372e-02
      7.06638619e-02 7.23485695e-03 1.17385378e-02 1.88396182e-02
      8.05879291e-03 1.00369221e-02 8.48970842e-03 8.29958636e-03
      1.19949300e-02 5.00953803e-03 3.68401259e-02 -1.95849966e-02
      -3.42470668e-02 -7.69759044e-02 -1.07833870e-01 -7.95612559e-02
      -2.90296297e-03 8.65873024e-02 6.65409118e-02 2.14009508e-02
      -9.67337377e-03 -4.08128873e-02 -8.50302875e-02 -7.93139115e-02
      -8.95268470e-02 1.22591183e-02 1.13605775e-01 4.57616299e-02
      -7.77751161e-03 -1.89095605e-02 -9.12551116e-03 -1.43925482e-02
      1.32459076e-02 -1.05910869e-02 -6.54022070e-03 1.69797167e-02
      -2.97473650e-03 -6.42233789e-02 -1.80059671e-02 -2.54177186e-03
      -6.96232403e-03 -1.35545097e-02 -2.24486720e-02 -4.37356159e-03
      4.93442379e-02 1.44865504e-02 -8.48102495e-02 -5.90867475e-02
      -4.51170979e-03 6.40584435e-03 1.42049594e-02 -1.79910194e-02
      5.16434014e-03 8.66981819e-02 -4.70372476e-03 -7.24545643e-02
      -3.54794785e-02 -2.25133244e-02 -1.00394124e-02 4.83909913e-04
      -1.37121156e-02 -1.10192876e-02 6.96517294e-03 -4.36967835e-02</_>
    <_>
      -2.01691393e-04 -5.99765824e-03 1.28224783e-03 3.92778637e-03
      9.69589528e-05 5.43412566e-03 4.44091740e-04 2.17208057e-03
      2.58259103e-03 3.58000621e-02 -3.50362901e-03 -2.90077906e-02
      2.23091394e-02 8.77150055e-03 2.12436412e-02 3.46352868e-02
      7.42020383e-02 2.99902018e-02 2.47045588e-02 5.61883557e-04
      -7.01911887e-03 -1.31321047e-02 2.19881106e-02 2.49760994e-03
      -3.33395489e-02 -1.88841522e-02 -4.39495966e-02 -1.33685723e-01
      -5.19878902e-02 -2.75463890e-02 -2.74850130e-02 3.19366902e-03
      8.25521257e-03 2.84741484e-02 7.21549913e-02 -5.07186837e-02
      -1.01827728e-02 -1.02159627e-01 -4.68829200e-02 8.32372904e-02
      1.95871256e-02 1.46421362e-02 3.72701064e-02 1.06513314e-01
      4.39474778e-03 2.50910297e-02 -4.24012393e-02 -7.79527612e-03
      5.36081120e-02 4.00914848e-02 4.70105000e-02 -2.51354184e-02
      -7.60034919e-02 -4.83286716e-02 -9.71351340e-02 -7.49983415e-02
      -7.36589432e-02 -3.94036211e-02 1.44697316e-02 1.93265863e-02
      3.47421393e-02 5.79931363e-02 -3.75293307e-02 -8.74169022e-02
      -1.12167411e-01 -1.46600781e-02 1.05393060e-01 7.62893111e-02
      2.81747747e-02 4.38539013e-02 1.03338659e-01 -3.30576859e-02
      4.15751748e-02 1.67600177e-02 4.52009812e-02 9.32146534e-02
      6.49794415e-02 -7.79127190e-03 -5.77092171e-02 -8.04424807e-02
      -2.95111332e-02 1.08865853e-02 -4.69652331e-03 -1.30801480e-02
      2.55972147e-03 6.25871168e-03 2.67079030e-03 -1.51215121e-04
      1.56966709e-02 -1.91334300e-02 4.83886339e-02 7.60477129e-03
      -8.33413098e-03 -2.12407522e-02 1.68236401e-02 7.64917210e-03
      -4.79975790e-02 -2.97443941e-02 -4.48467135e-02 1.65717900e-02
      6.07911730e-03 2.71591009e-03 6.66621700e-03 -6.19395031e-03
      8.31566751e-03 8.66364967e-03 1.30046634e-02 -1.19727142e-02
      -4.44460176e-02 -7.60360360e-02 -4.30014841e-02 5.30413501e-02
      4.88888733e-02 1.82532016e-02 1.11339195e-02 5.44323213e-02
      -3.42089660e-03 2.07095202e-02 1.52831944e-03 2.07619350e-02
      5.19923046e-02 1.40066389e-02 5.53689077e-02 -5.51119260e-02
      -6.88575357e-02 -1.74144786e-02 -1.05708735e-02 -6.27029091e-02
      2.01166421e-02 3.58603410e-02 1.43304262e-02 3.85894440e-02
      -7.65600475e-03 -1.39980316e-02 -1.49331903e-02 -3.69996987e-02
      -2.77913287e-02 2.01757718e-02 7.11785704e-02 6.44710809e-02
      5.33530256e-03 -1.10955359e-02 -5.16743446e-03 -1.94505099e-02
      5.83861349e-03 2.70461962e-02 4.49274480e-02 8.79675969e-02
      3.36096063e-02 -2.93596853e-02 -8.21114108e-02 -1.14851058e-01
      -7.15064304e-03 -4.65632044e-03 -5.27145267e-02 -7.53244665e-03
      2.14496002e-04 -1.07323630e-02 5.52901113e-03 7.96274180e-05
      1.35141611e-02 6.97276592e-02 2.87878718e-02 4.70536668e-03
      -3.26357619e-03 -3.75138526e-03 8.38650391e-04 6.84143184e-03
      -1.02350358e-02 -4.12131939e-03 -1.52083552e-02 2.57880408e-02
      3.26793501e-03 6.11691223e-03 7.46306963e-04 -1.29179936e-02
      7.85995461e-03 1.82827674e-02 1.95483267e-02 1.23563055e-02
      1.03521226e-02 -1.63762439e-02 -1.14660636e-02 -2.17732713e-02
      -2.38686725e-02 -6.07955456e-03 -1.56942557e-03 -3.44299502e-03
      7.51988636e-03 2.39423551e-02 1.82886957e-03 2.56778356e-02
      5.58539331e-02 -6.54598884e-03 2.36590188e-02 -7.30564306e-03
      -4.32145186e-02 -4.18164879e-02 5.35031175e-03 -1.34869307e-01
      -3.53748314e-02 3.95369269e-02 5.81526272e-02 7.77258053e-02
      2.38685235e-02 4.00688350e-02 1.36014959e-02 -3.43254916e-02
      -9.20792595e-02 -5.63999899e-02 7.66557967e-03 -2.47939900e-02
      1.47687532e-02 1.67952422e-02 3.58085334e-02 3.74726318e-02
      2.74482332e-02 4.03983548e-04 5.50463982e-03 1.82681922e-02
      6.42091734e-03 -1.51018361e-02 -2.59741824e-02 -3.01792677e-02
      3.15170847e-02 -1.03358570e-02 -1.06860898e-01 -2.31781532e-03
      1.96169876e-02 4.18083817e-02 3.85731645e-02 2.98987646e-02
      5.18420413e-02 3.17251869e-02 -1.20177910e-01 -4.70157852e-03
      3.44862863e-02 5.91509342e-02 1.32901236e-01 3.86689678e-02
      3.28768753e-02 2.94180829e-02 -7.57415146e-02 1.70158353e-02
      -3.67981545e-03 7.59525166e-04 -6.81876997e-03 -9.34845023e-03
      1.34843215e-03 8.70059058e-03 7.60059338e-03 2.17058323e-03
      -1.10743120e-02 -1.62366293e-02 -1.71909798e-02 -2.39722542e-02
      -2.59469114e-02 -1.20622274e-02 -1.50032202e-02 -1.84700862e-02
      3.42476070e-02 -3.97168249e-02 -7.93497358e-03 -2.80489633e-03
      -8.13341350e-04 -5.33247476e-05 -2.46182736e-03 -4.62950254e-03
      -5.67582157e-03 -2.63368115e-02 -5.27327694e-02 -1.01841085e-01
      -3.97858322e-02 1.07585974e-02 2.35753432e-02 4.75977547e-02
      2.90256087e-02 3.66162658e-02 6.82877824e-02 3.72717809e-03
      -6.55112509e-03 -3.50458398e-02 1.34147638e-02 -2.97428817e-02
      -2.44521964e-02 -3.36356387e-02 -1.23186968e-02 4.71283011e-02
      6.77151140e-03 3.36406305e-02 -8.19694623e-03 -1.53083727e-03
      -2.27512699e-02 -1.71461292e-02 -2.55472232e-02 -3.65910344e-02
      -6.18074602e-03 -3.06778476e-02 -4.30016853e-02 7.44241243e-03
      2.00468637e-02 4.64895740e-02 2.50264779e-02 2.53401436e-02
      2.71646027e-02 6.38756081e-02 -7.00405389e-02 3.39736864e-02
      6.31273240e-02 9.72290263e-02 1.42078057e-01 4.98746783e-02
      2.91782282e-02 3.19362991e-02 -8.41485336e-02 -2.50626402e-03
      1.23444397e-03 -7.57055497e-03 3.24258697e-03 1.42221190e-02
      -3.59008904e-03 -8.08757357e-03 -6.68135192e-03 -3.51923071e-02
      -4.40020440e-03 -1.93844968e-03 -5.69468271e-03 -4.69651213e-03
      -5.89043368e-03 -5.70543297e-03 -9.29975137e-03 -1.08980658e-02
      2.17404752e-03 -3.56978886e-02 -2.67293956e-02 -6.01564068e-03
      -9.13920172e-04 3.61465779e-03 7.24042009e-04 -1.48102141e-03
      1.28741190e-03 -1.47662929e-03 -5.97511455e-02 -4.36270535e-02
      -8.44802149e-03 -1.38472428e-03 2.94757402e-03 5.95192984e-03
      3.25324712e-03 1.25814639e-02 2.44279634e-02 1.11199636e-02
      3.47793438e-02 8.11926555e-04 1.26944752e-02 -1.88793968e-02
      -2.13913545e-02 -3.19037735e-02 -2.99778823e-02 3.80694829e-02
      2.23846268e-02 5.17350100e-02 -2.27598622e-02 -6.01518340e-03
      -1.44250803e-02 -9.59287584e-03 -1.49794007e-02 -3.04815695e-02
      -7.60101294e-03 -2.74375528e-02 8.11850186e-03 -4.86426009e-03
      -1.21734245e-03 3.24564613e-02 2.51262635e-02 9.77998134e-03
      3.54710072e-02 8.92118644e-03 -4.71006781e-02 1.93739366e-02
      2.04338469e-02 3.43336165e-02 7.42609128e-02 1.50705250e-02
      3.22396704e-03 5.58438897e-03 -5.33157289e-02 -4.62288074e-02
      -9.72361118e-03 -3.23572196e-02 -6.70695771e-03 1.87002216e-03
      -1.16163027e-02 -1.41897090e-02 -1.55093921e-02 -5.05136438e-02
      1.93349179e-02 -6.46713888e-04 -2.34468859e-02 -1.11765554e-02
      -2.00152136e-02 -9.66211967e-03 -3.14063416e-03 -8.53673741e-03
      -3.54580097e-02 -3.65750752e-02 -3.59971225e-02 -5.61563531e-03
      -6.84438564e-04 1.27499527e-03 2.71299109e-03 5.74216712e-04
      6.56721834e-03 5.51592605e-03 -8.14103186e-02 -6.65022880e-02
      -1.18783806e-02 -6.71616849e-03 1.03916163e-02 2.52423435e-02
      1.25768781e-02 2.35923026e-02 4.47865985e-02 -1.48943197e-02
      5.88719128e-03 2.04617754e-02 -1.23273702e-02 2.14063022e-02
      4.46251854e-02 1.31675247e-02 -4.17187251e-03 -3.15826759e-03
      1.53702870e-02 -1.68809872e-02 -1.05066570e-02 -3.73777025e-03
      -3.37206147e-04 6.05230359e-03 1.89680129e-03 3.51219741e-03
      1.64176174e-03 1.02698449e-02 4.31270385e-03 -6.23697881e-03
      -3.07926331e-02 2.96794474e-02 5.31169958e-02 3.57050896e-02
      7.75696933e-02 -7.43002966e-02 -4.02957425e-02 8.09075087e-02
      7.22664502e-03 -5.94715141e-02 -7.30708912e-02 7.76854903e-03
      9.79033951e-03 -1.15947085e-04 -4.78256755e-02 2.61329692e-02
      -7.29672704e-03 -2.23511700e-02 -6.53662719e-03 -6.45819958e-03
      -8.64127278e-03 -6.02277927e-03 -9.47424676e-03 -2.81151943e-02
      -5.58945499e-02 -1.81217641e-02 -6.07984886e-02 -5.12746572e-02
      -8.18348676e-02 -2.33870503e-02 -1.29436245e-02 -1.84210539e-02
      -6.86842576e-02 -8.95349588e-03 -8.13377439e-04 -3.79417241e-02
      -5.76628931e-02 -7.50467554e-02 -2.13075951e-02 -1.30195068e-02
      -1.34098828e-02 -2.23371536e-02 -8.40023085e-02 -3.42908055e-02
      -2.25493778e-02 -1.70176718e-02 9.47342720e-03 5.42571116e-03
      1.82644781e-02 4.39578593e-02 -4.20952030e-02 -8.09335262e-02
      -8.79132226e-02 -3.25289443e-02 5.73333502e-02 3.84690166e-02
      5.02703991e-03 4.67490703e-02 1.26540959e-01 5.24883671e-03
      2.52029300e-02 -1.16247777e-02 5.99380396e-03 6.90802261e-02
      2.69329175e-02 1.15537532e-02 -1.48683442e-02 -5.96829318e-02
      -2.43535843e-02 -1.02678351e-01 -1.65665060e-01 -1.95510253e-01
      -1.06908761e-01 -3.75915715e-03 2.93971449e-02 5.53363785e-02
      1.08425438e-01 -3.85589898e-02 -5.98484948e-02 -1.37141600e-01
      -8.18266124e-02 9.52538997e-02 8.84422138e-02 9.33855101e-02
      6.74381331e-02 8.97555351e-02 -3.30088250e-02 3.81041393e-02
      2.86058616e-02 8.02048668e-02 1.42134547e-01 7.99421445e-02
      -2.60474868e-02 -5.20479269e-02 -9.81198028e-02 -2.80067977e-02
      -3.80508788e-02 -7.66563118e-02 -1.39090285e-01 -5.73692769e-02
      -2.87238527e-02 -1.27771376e-02 -3.47798690e-03 2.91797295e-02
      2.06890330e-02 -4.94195521e-02 -1.11039847e-01 -1.51439428e-01
      -1.35958409e-02 9.90912467e-02 1.04537375e-01 6.66750371e-02
      5.75096384e-02 6.34025633e-02 2.51170341e-02 -3.52320038e-02
      1.33470749e-03 1.18619408e-02 3.42331901e-02 -3.21612731e-02
      -1.62963364e-02 2.01676711e-02 1.39866456e-01 -2.46843733e-02
      -3.96140963e-02 -1.26186097e-02 3.05507053e-02 1.55684175e-02
      5.75573213e-05 2.02722568e-03 1.13381948e-02 -4.09247074e-03
      1.36257317e-02 -1.09381108e-02 5.78117883e-03 7.10539445e-02
      8.89268704e-03 9.72784869e-03 -3.07063609e-02 -1.03983231e-01
      -6.16070889e-02 -3.99906896e-02 -3.83976623e-02 4.49912297e-03
      1.34646986e-02 1.88016426e-03 1.04977330e-02 -1.85154341e-02
      -2.17888691e-02 -7.02704908e-03 -1.06595501e-01 -5.46311885e-02
      3.87788285e-03 8.81554484e-02 8.49547833e-02 2.18228567e-02
      -2.42017824e-02 -1.98245700e-02 -8.42279121e-02 8.98121670e-03
      -8.26908089e-03 5.78729659e-02 1.08906820e-01 4.11996245e-02
      -5.85404895e-02 -7.78350607e-02 -1.04627259e-01 2.31066402e-02
      3.28252325e-03 -8.35206434e-02 -6.39749970e-03 -1.05309756e-02
      -2.40910612e-02 3.27514973e-03 1.32509815e-02 3.82116176e-02
      5.14507741e-02 -1.46356272e-02 -2.49945074e-02 -2.60934960e-02
      1.39980146e-03 3.87685969e-02 2.26367712e-02 1.72571018e-02
      7.54657434e-03 1.66011695e-02 1.77127682e-02 -1.14492655e-01
      -2.66875082e-04 1.56132253e-02 1.90476067e-02 -6.75301030e-02
      -5.10596149e-02 2.92198807e-02 1.09437019e-01 1.96951861e-03
      -1.79809611e-02 2.23295223e-02 9.55096539e-03 6.13433169e-03
      5.10820560e-03 4.19731950e-03 1.39928255e-02 1.11778818e-01
      -1.19170779e-02 -1.72882236e-03 7.27335038e-03 2.65025459e-02
      -2.44172942e-03 1.54100219e-03 -1.61857083e-02 -4.08899672e-02
      -5.07386848e-02 -6.38563260e-02 -1.16958067e-01 -2.44655330e-02
      1.68890506e-02 1.39810881e-02 3.02980486e-02 -1.78770553e-02
      -1.58934202e-02 1.93664152e-02 -1.00353517e-01 -5.58276400e-02
      -1.79927330e-02 1.78398937e-02 1.76176038e-02 7.90463109e-03
      7.20703322e-03 2.11835802e-02 -9.52285621e-03 -2.18305388e-03
      -3.75279933e-02 -4.77425102e-03 9.33524314e-03 -1.42714037e-02
      -4.94055599e-02 -5.40593788e-02 -3.52880135e-02 2.20115427e-02
      3.51619837e-03 -1.08329222e-01 3.27836834e-02 2.15300508e-02
      6.70157596e-02 6.30450398e-02 6.48495257e-02 6.96734264e-02
      1.53644313e-03 -1.28141522e-01 2.86198407e-02 7.17376620e-02
      9.83903334e-02 2.70578802e-01 1.14162512e-01 5.69280647e-02
      6.90154545e-03 -1.34899303e-01 -3.12293880e-02 -6.41070306e-02
      -1.54343492e-03 3.34556168e-03 -3.07066075e-04 -1.96450409e-02
      -1.62381437e-02 1.70959830e-02 1.41157836e-01 2.99209505e-02
      2.45877486e-02 7.17785209e-02 3.70847136e-02 5.78709953e-02
      2.56642289e-02 1.11440849e-02 7.22817611e-03 7.16458037e-02
      -1.27263680e-01 3.53912376e-02 4.69306782e-02 4.92403992e-02
      1.48090303e-01 8.12457576e-02 1.47163132e-02 -2.77021248e-03
      -1.16795473e-01 -3.94097492e-02 -6.15123808e-02 -1.52473822e-02
      1.57444570e-02 2.16770340e-02 2.55093705e-02 1.01681901e-02
      1.57963615e-02 5.10066934e-02 -7.52223209e-02 -1.08403396e-02
      3.00144241e-03 4.81589623e-02 2.87993103e-02 4.39908443e-04
      -5.23264101e-03 1.89581830e-02 -2.69555878e-02 8.91439710e-03
      2.50475202e-02 -5.22551080e-03 1.39617000e-03 -4.71954281e-03
      -6.97444193e-03 -1.08330837e-02 -1.43848499e-02 -4.45256196e-02
      -4.44894582e-02 -3.26203182e-02 4.91530895e-02 5.20789102e-02
      1.29354149e-01 7.01315030e-02 5.95894456e-02 4.29654382e-02
      3.68355997e-02 -5.13567477e-02 1.02189258e-01 1.48531169e-01
      1.69675022e-01 2.77014703e-01 2.05466077e-01 6.19070195e-02
      5.97765669e-03 -5.18495701e-02 -1.17050484e-01 -2.76811495e-02
      -1.22512570e-02 5.52804442e-03 4.12211791e-02 5.13819931e-03
      -2.00300869e-02 -1.70211457e-02 -1.02764346e-01 -8.32126942e-03
      2.97932569e-02 4.69591506e-02 2.85495911e-02 5.70835732e-02
      2.67933868e-02 9.57586709e-03 4.92225459e-04 2.99904551e-02
      -1.55569643e-01 6.77562431e-02 6.89424053e-02 9.69603732e-02
      2.48155564e-01 1.76752448e-01 2.71298103e-02 -4.07073693e-03
      -2.03394145e-01 -2.23380774e-01 -3.50085692e-03 2.15366459e-03
      1.16713922e-02 3.61560583e-02 2.26284415e-02 -6.00292813e-04
      -5.79221267e-03 -2.09294155e-01 5.05942665e-02 5.00953086e-02
      1.79326348e-02 3.95140797e-02 4.80495021e-02 8.16243060e-04
      -8.98577273e-03 1.46785669e-03 4.22550775e-02 5.11732474e-02
      6.03461377e-02 -1.52850058e-02 -1.96635909e-03 -8.34379229e-04
      -3.65151349e-03 -7.35736825e-03 -1.38294213e-02 2.50201207e-02
      3.03112678e-02 6.18969649e-02 -2.92453007e-03 -1.15943851e-03
      6.67901756e-03 9.79268830e-03 5.82122710e-03 1.48115996e-02
      4.56894264e-02 -1.30487271e-02 8.41046274e-02 7.03685656e-02
      1.20548308e-01 2.09775582e-01 1.11474179e-01 2.21494008e-02
      1.94478116e-03 -6.11180067e-02 4.17430745e-03 -2.40085330e-02
      -6.09009750e-02 -1.02274651e-02 2.49232072e-02 -2.31323801e-02
      -4.14268039e-02 -3.30435336e-02 -1.09003950e-02 -4.89780819e-03
      -5.03677987e-02 -6.11963607e-02 -2.91785449e-02 -4.52060811e-02
      -3.12823914e-02 -1.63281336e-02 -3.35357636e-02 -8.57535154e-02
      -1.28211662e-01 3.48857008e-02 2.53649168e-02 4.58444133e-02
      1.30882353e-01 8.41879845e-02 1.22936657e-02 -5.93548408e-04
      -1.38130799e-01 -2.47441158e-01 -1.82690695e-02 3.54884635e-03
      1.03494208e-02 2.81684045e-02 8.53584334e-03 -1.19620969e-03
      -7.16622500e-03 -2.29993179e-01 -1.56694487e-01 -3.46426219e-02
      -5.27974637e-03 -3.72305745e-03 -9.44187492e-03 -5.25637390e-03
      3.16547090e-03 -4.38921340e-03 -1.21733472e-01 1.25354022e-01
      4.65669632e-02 -8.55504256e-03 -3.93896690e-03 -6.93029549e-04
      1.51370803e-03 1.10137754e-03 -1.00074650e-03 7.32917786e-02
      4.19529676e-02 1.57602534e-01 1.32588707e-02 -2.72990996e-03
      1.77802350e-02 4.60543558e-02 2.78295502e-02 5.70015609e-02
      3.56614962e-02 4.29347120e-02 1.15206391e-01 1.90922711e-02
      -2.42890995e-02 -3.72284018e-02 2.52179592e-03 7.27849826e-03
      6.05215877e-03 -1.37530919e-02 1.21958014e-02 -1.13580441e-02
      -4.91067320e-02 -1.44619569e-02 -1.94587111e-02 -2.75145471e-02
      -2.17127651e-02 -2.21660994e-02 -2.35520769e-02 4.88526188e-02
      -3.93620394e-02 -1.32547468e-01 -1.02126010e-01 -1.57824144e-01
      -7.60924369e-02 -5.32574542e-02 -8.71731862e-02 -5.85521422e-02
      -3.28210592e-02 -2.36370992e-02 -6.94771335e-02 -1.15089163e-01
      -1.62274614e-01 -5.22185415e-02 -3.73139046e-02 -4.65808325e-02
      -5.24059311e-02 -1.60422340e-01 -1.95690468e-02 4.20939003e-04
      1.01395953e-03 -2.41330685e-03 -6.93697482e-03 5.16373198e-04
      -4.32030996e-03 -1.33795679e-01 -2.20991954e-01 -6.18259273e-02
      -1.61449648e-02 -2.19071861e-02 -3.52733992e-02 -1.42799765e-02
      5.74310136e-04 -9.33494326e-03 -1.56850442e-01 -6.48139417e-02
      -2.11874414e-02 -1.24319447e-02 -1.56677943e-02 -5.02531007e-02
      -1.46099515e-02 -1.28782000e-02 -9.02914163e-03 -2.01159958e-02</_>
    <_>
      -1.67846587e-02 -5.02333837e-03 -2.63922699e-02 -1.24024469e-02
      7.08275754e-03 1.01179034e-02 1.45124253e-02 2.11120918e-02
